    0.101787800449662947E-01   -0.619903362340936456E-02    0.159800465620571908E+01    0.106774987955858091E-02    0.192054843091964437E-02    0.207652177137265748E+00    0.189932445481837908E+00    0.650384666332779670E+04
    0.492455598501991346E-02    0.245835652499621369E-02    0.160073833739549221E+01   -0.232877450372578291E-02   -0.904730024179163737E-03    0.207138911367802658E+00    0.190350828273778722E+00    0.650402201589155811E+04
   -0.117328098012727238E-01    0.937970324367552212E-02    0.160061297813514369E+01    0.264353150564698995E-03    0.368487617139057894E-02    0.210040166265889616E+00    0.186684139891887341E+00    0.650411291669274033E+04
   -0.960975266806426975E-02   -0.587586813042376664E-02    0.160141246016712735E+01   -0.596386616975693807E-03    0.154102400372061084E-02    0.208049167836933724E+00    0.190811837975038256E+00    0.650444761876715711E+04
   -0.161047791968499075E-01    0.102967818881280430E-01    0.159953855214478979E+01   -0.281215657521794934E-02    0.277411768494735750E-02    0.211740468480493549E+00    0.187339340583171532E+00    0.650444901999888407E+04
    0.897131465915282020E-02    0.304997276021113511E-02    0.159835437683865411E+01    0.492007351258504089E-03    0.108503068993576180E-02    0.202176361994731602E+00    0.193344315926008509E+00    0.650460448952641855E+04
   -0.114373212479318628E-01    0.135143674025925472E-01    0.159891330926802722E+01   -0.500092325018242946E-03    0.303587028683704714E-02    0.206748056266547103E+00    0.189854267234460944E+00    0.650461860842212809E+04
    0.147679568223075368E-01    0.300823516574416552E-02    0.160040512927083811E+01    0.217485902027182801E-03    0.602767474775345378E-03    0.211304795658230071E+00    0.186470249484959050E+00    0.650478609072819927E+04
   -0.152336383740395796E-01    0.321766044232498069E-02    0.160009040539820635E+01   -0.305455594869397757E-02    0.266429227753871246E-02    0.211304544201021960E+00    0.186816900393409396E+00    0.650503732408821725E+04
   -0.481282077282850235E-02    0.502953768121573719E-02    0.159882635513624027E+01   -0.283947375570214010E-02    0.120152860256454806E-02    0.200993776560354415E+00    0.194628723583475077E+00    0.650506889092597885E+04
   -0.608120963779855590E-02   -0.652058696542739784E-02    0.159956619035658099E+01    0.143367042627805751E-02    0.298887058617375041E-02    0.209529240469407130E+00    0.188571139435188023E+00    0.650509382875214396E+04
    0.136900154502684929E-02    0.368767532221075771E-02    0.159928350935779129E+01   -0.756537602337396375E-03    0.380065608357667327E-02    0.201595956593059872E+00    0.195065381716516162E+00    0.650515082363166584E+04
   -0.451574120117392494E-02    0.266379909203834635E-03    0.159923229558533442E+01    0.166570607270484961E-02    0.943444002734522449E-03    0.207082554493378590E+00    0.189354278830864947E+00    0.650519319704132067E+04
   -0.591896096710924514E-02   -0.747199546019461543E-02    0.159998206941908339E+01   -0.714626729689362317E-03    0.225871258434580911E-02    0.202761077375879700E+00    0.194758574095883819E+00    0.650520170280779985E+04
    0.326971297531941348E-02    0.112367239350869320E-01    0.159996244369830132E+01    0.567910675647520491E-03    0.134517141163472396E-02    0.209332763279226175E+00    0.189064094774779451E+00    0.650531965545309322E+04
   -0.136318973037090722E-01   -0.386030099892023266E-02    0.160154973319053218E+01   -0.117265708613108460E-02    0.224758557054726641E-02    0.207394730645393821E+00    0.188650647597971732E+00    0.650546584293937485E+04
   -0.117249748902333219E-01    0.720401859665526379E-02    0.159935497294108586E+01   -0.623688161199269166E-03   -0.113085215480327651E-03    0.206146827991064069E+00    0.191267447371980176E+00    0.650547361708028620E+04
   -0.674843014208926953E-03    0.960368066749127218E-02    0.160047110654427960E+01   -0.553672640843536068E-03    0.299001885500511282E-02    0.206594490990713225E+00    0.191501633166051899E+00    0.650549056843617382E+04
   -0.588850415378224488E-02    0.900839309606875360E-02    0.160011326127241071E+01   -0.282370466196221184E-02    0.382702682084166143E-02    0.202762997462460542E+00    0.193781281678588990E+00    0.650551959279515904E+04
    0.695383655415320566E-02    0.416309325805185905E-02    0.159858760822810209E+01   -0.398408260951744943E-02    0.198547679742253590E-02    0.207626957243913474E+00    0.190061508413382790E+00    0.650553136674189591E+04
   -0.720497242700833627E-02   -0.441424867747334474E-02    0.160138903395956733E+01    0.264241766738416647E-03    0.209980123443412152E-02    0.203955036616213448E+00    0.192589469804674840E+00    0.650558394630026032E+04
   -0.278053086452407063E-02    0.134482083946502549E-01    0.160006943844182437E+01   -0.253181118905494024E-02    0.102555513316821174E-02    0.204298709784458465E+00    0.192890066207782651E+00    0.650563097986366665E+04
   -0.886539103537066497E-02    0.141507702137892728E-01    0.160083760224108573E+01   -0.272433827979041455E-02    0.294619890736709435E-02    0.208138593037424074E+00    0.188519271212639533E+00    0.650564221802474640E+04
    0.121608743500546904E-01    0.918617078669171395E-02    0.159810109462538197E+01   -0.635741729538911592E-03    0.313490378334022957E-02    0.205485256354648871E+00    0.192553234136751683E+00    0.650571124139719814E+04
   -0.442165879681220928E-02   -0.753729631868472159E-02    0.159874987256313794E+01    0.918262298476302144E-03    0.158724007500068835E-02    0.206499616652698115E+00    0.191582774039707582E+00    0.650572066672061555E+04
    0.482242486302370248E-02    0.875864062323620726E-02    0.160063355537226437E+01   -0.157800255298353137E-02    0.476157538807715254E-02    0.203067807981518161E+00    0.192766073302721219E+00    0.650572708895185497E+04
   -0.238174428399048638E-02   -0.666178391406942617E-02    0.159999472277588195E+01   -0.689303049248545289E-03    0.145561584260783176E-02    0.210256991422956119E+00    0.186460735547563844E+00    0.650587821076588898E+04
   -0.848143253684337413E-02    0.137480910332740810E-02    0.159849094589615004E+01    0.427280733923285252E-03    0.118151906938541583E-02    0.205653816718740973E+00    0.191980601746244789E+00    0.650591448327363560E+04
    0.174397350362604821E-02   -0.118323108617165371E-01    0.159971496593967011E+01   -0.120358724946269886E-03    0.136854691359980974E-02    0.204957915558240417E+00    0.191605782550688386E+00    0.650592331140278202E+04
   -0.489252256945856868E-02    0.622847395220585669E-02    0.159915783584528226E+01   -0.146574534505866899E-02    0.377755497297152867E-02    0.207707175400520333E+00    0.189501030590928571E+00    0.650593353337371354E+04
    0.315424140041648156E-02    0.393865394549784253E-03    0.160014281567768579E+01   -0.229228695058243540E-02    0.277806911134500113E-02    0.206471692796654976E+00    0.191459566281577231E+00    0.650596530297954905E+04
    0.535068118546168023E-02   -0.205977293705316084E-02    0.159825566656766571E+01   -0.312899057910336195E-02    0.226342289443758754E-02    0.207206724540744180E+00    0.189765567100851962E+00    0.650602690150801027E+04
    0.161782619207579922E-02    0.717873242909899522E-02    0.160084658787782663E+01   -0.303205087487862799E-02    0.983140452132186694E-03    0.208558326180657422E+00    0.187754939705004786E+00    0.650603586075897147E+04
   -0.129099213108255905E-01   -0.282106080025628118E-02    0.159850703720904819E+01   -0.755020418832519683E-03    0.142853827804831032E-02    0.206838329996907405E+00    0.188866353979461249E+00    0.650604245997610724E+04
   -0.103509471079090611E-01    0.735792793769601741E-02    0.160042249357056554E+01   -0.116549895504999097E-02    0.447824511011709909E-02    0.204093873041950175E+00    0.191643529263711143E+00    0.650607851495761952E+04
   -0.155697063868913237E-01   -0.267338087024032072E-02    0.160131328692728636E+01   -0.243878823540654875E-02    0.221808505618781380E-02    0.206359862751042539E+00    0.191053423019555274E+00    0.650612905662570029E+04
   -0.176088212953165492E-01    0.176736476415010279E-02    0.159873860249033228E+01   -0.165480408029088392E-02    0.298707496372504393E-02    0.206553503516777676E+00    0.191144837894392794E+00    0.650614242390392246E+04
    0.107674349929368714E-02    0.148259925947991662E-01    0.160131285664070799E+01   -0.105389287097544830E-02    0.277316032240880125E-02    0.208835253863543485E+00    0.187787233664075903E+00    0.650616267496475302E+04
    0.746140733974074051E-02    0.992000636220936524E-02    0.160034451982377335E+01   -0.372594565512265538E-02    0.296101447564209308E-02    0.209081280007149484E+00    0.188981397014894553E+00    0.650618717509711769E+04
    0.652799934251170090E-02    0.112062700442666051E-01    0.159912980123754145E+01    0.115378163951595169E-02    0.212257470206898271E-02    0.205103606114119263E+00    0.190558741229157613E+00    0.650621003961536007E+04
   -0.124528056452327777E-01    0.671427499519338701E-02    0.160089836027843813E+01   -0.298443230504434078E-03    0.132326890119097997E-02    0.206661962635958152E+00    0.190932972155166358E+00    0.650621484094742027E+04
   -0.100557035064397643E-01    0.630736442659973577E-02    0.159917848830886689E+01    0.544936062730071017E-03    0.390557246090748184E-02    0.205808391309941607E+00    0.191266898095794863E+00    0.650624975706045007E+04
    0.757194148855969964E-03    0.833265340474952793E-02    0.160111601358866107E+01   -0.763913815419750997E-03    0.208919402894641094E-04    0.206815504488875812E+00    0.189573048280506390E+00    0.650625604111304165E+04
    0.108963878485036567E-02    0.753382168338647285E-02    0.159941700803178088E+01   -0.238347271448603780E-02    0.242176186446223024E-02    0.201003343594984701E+00    0.194104469418323489E+00    0.650634168925550875E+04
    0.276271655540450984E-02    0.610553860128872691E-02    0.159850601381551338E+01    0.121609254518485776E-03    0.184523714152023542E-02    0.203351927006228450E+00    0.193476215205456187E+00    0.650634669808420767E+04
    0.115270126002284972E-02    0.105263395068674378E-01    0.160027345221132755E+01   -0.263670565649670643E-02    0.131912691082076115E-02    0.208044307209698243E+00    0.187312097429953334E+00    0.650636136559880015E+04
   -0.482929727664212823E-02   -0.560513486166217857E-02    0.160094976558340552E+01    0.442179931013729933E-03    0.554346861470848265E-03    0.205061826866329899E+00    0.190259356391989293E+00    0.650644135590416226E+04
    0.186407174470265449E-02   -0.247940830648262379E-02    0.160147860633116834E+01   -0.251827240960282627E-02    0.217917510524314514E-02    0.204234964717682821E+00    0.191349705476877824E+00    0.650649059981822393E+04
   -0.113527323519708231E-01   -0.586199406486059144E-02    0.159786629282483972E+01   -0.105262051594720248E-02    0.124544376273650757E-02    0.207395780596378587E+00    0.189744525726316560E+00    0.650652806126466749E+04
    0.725504043267100572E-02    0.838042168403944562E-02    0.159845710899520355E+01   -0.102091824701992925E-02    0.386318107484082953E-02    0.206268073612363739E+00    0.189111819724257169E+00    0.650657996389282107E+04
   -0.151624751218008033E-02   -0.136838649372653786E-01    0.160034478084501730E+01   -0.806697328566591460E-03    0.131944775929308616E-02    0.208374718198241909E+00    0.190161147590671126E+00    0.650659869064365012E+04
   -0.139810556508250666E-01   -0.278464918428551452E-02    0.160132425618992835E+01   -0.218479635982577695E-02    0.142153031967723570E-02    0.207956006968048224E+00    0.188433252872142049E+00    0.650660284992863853E+04
    0.167280253786158414E-03    0.105284859151190870E-01    0.159940147281992773E+01   -0.240736461487214316E-02    0.245242428081330699E-02    0.204239125528051513E+00    0.190095686845699663E+00    0.650660431153989884E+04
   -0.614931050555119017E-02    0.477380413379877629E-02    0.160041926858240302E+01   -0.122272865554159428E-02    0.325713351798029597E-02    0.202290078802057460E+00    0.194115379967717272E+00    0.650660531780908696E+04
   -0.391000747598857501E-02    0.469078325144952311E-02    0.160050177777569425E+01    0.146391940174431798E-03    0.530586299062101897E-03    0.206660832217702733E+00    0.188552016389729044E+00    0.650660727734222928E+04
   -0.108258425422445119E-01    0.871068615113109769E-02    0.159926734012255811E+01   -0.138877646842297596E-02    0.368855870717992029E-02    0.204005656438177779E+00    0.192823456055700615E+00    0.650670263929995235E+04
    0.284764909399374579E-02   -0.688304356767472075E-02    0.159918392208972349E+01   -0.219727699740001302E-02    0.355073331231884910E-02    0.206578168296950720E+00    0.189554927918280547E+00    0.650670944165577748E+04
    0.607040514912033074E-02    0.459338094871302423E-04    0.159870437032374491E+01    0.698310604364352780E-03    0.124040541300610672E-02    0.204878001100530560E+00    0.190371143000843623E+00    0.650671423169341597E+04
    0.944338105790859007E-02    0.120983129339120050E-01    0.159978177217443251E+01   -0.407512697091490499E-03    0.281786031290956820E-02    0.208734701240161052E+00    0.187465388880994621E+00    0.650680877338124992E+04
    0.485926496237494045E-02    0.357536199336004308E-02    0.160005933013624091E+01    0.937306778074170795E-03    0.395128081859731845E-03    0.204854980474919318E+00    0.190862201347726079E+00    0.650692436956146776E+04
    0.940414072729297505E-03   -0.791677058505975938E-02    0.160082852937890219E+01   -0.989080521724317865E-03    0.782196105339917429E-03    0.205787940128803526E+00    0.191303908920855664E+00    0.650695093944200744E+04
    0.940414072729297505E-03   -0.791677058505975938E-02    0.160082852937890219E+01   -0.989080521724317865E-03    0.782196105339917429E-03    0.205787940128803526E+00    0.191303908920855664E+00    0.650695093944200744E+04
    0.392896799802588959E-02    0.101476172263257149E-02    0.159922188728046821E+01   -0.104137556897379276E-02    0.299022286429475497E-02    0.203325017219753906E+00    0.190653096905390285E+00    0.650698197434424583E+04
    0.174787006041985955E-02    0.539363018767522080E-02    0.160005830357343393E+01   -0.342905183926405822E-02    0.321827130714089343E-02    0.205224873972641553E+00    0.189477344876248649E+00    0.650700305614596255E+04
    0.174787006041985955E-02    0.539363018767522080E-02    0.160005830357343393E+01   -0.342905183926405822E-02    0.321827130714089343E-02    0.205224873972641553E+00    0.189477344876248649E+00    0.650700305614596255E+04
    0.288327966586166560E-02    0.372758527659054154E-02    0.159962087450677126E+01    0.929221061205201537E-03    0.189570498016796785E-02    0.204560040087867823E+00    0.191993838135786549E+00    0.650702460916334530E+04
    0.525099779312519430E-02    0.617667209371060223E-03    0.159989656326342566E+01   -0.251640565640863121E-02    0.326275043581667531E-02    0.203754610566460492E+00    0.191120444002926215E+00    0.650703549656402265E+04
    0.853717513829206458E-02   -0.322146196440636304E-02    0.160060380475461583E+01    0.299288264793083603E-03    0.299022214752255131E-02    0.207138067572442602E+00    0.189706805534156808E+00    0.650708075305535658E+04
    0.123745915411707045E-01    0.221598387202420711E-02    0.159951005408467672E+01   -0.119729999664971000E-02    0.250419696699086432E-02    0.205179075530152050E+00    0.192574141158558670E+00    0.650709965721260414E+04
   -0.968865445274194083E-02   -0.775556216817246524E-02    0.159959900502337748E+01   -0.304587896996714579E-02    0.184502631234893712E-02    0.209564171267045213E+00    0.188178766059447056E+00    0.650712316725185246E+04
   -0.402462302323381132E-02   -0.810987264879546935E-02    0.159933457563902537E+01   -0.126222068029723249E-02    0.152586879755152341E-02    0.209288241663460023E+00    0.188766280867288416E+00    0.650714961913038223E+04
    0.548602073611766626E-02    0.163695440139301554E-02    0.159936141445756030E+01   -0.280987498267208256E-02    0.281112167948163738E-02    0.208329871872356215E+00    0.188942097715734503E+00    0.650716621478120032E+04
    0.572758077419695906E-03    0.710393345086456074E-02    0.159962323919666960E+01   -0.305512611157309497E-02    0.262047553860125489E-02    0.203471453873923486E+00    0.193244016357958265E+00    0.650724740131373346E+04
    0.572758077419695906E-03    0.710393345086456074E-02    0.159962323919666960E+01   -0.305512611157309497E-02    0.262047553860125489E-02    0.203471453873923486E+00    0.193244016357958265E+00    0.650724740131373346E+04
   -0.838578057885285173E-02   -0.370066250805249717E-02    0.159954225622791490E+01   -0.358957531877647203E-02    0.288306239736993170E-02    0.206921789204950579E+00    0.188933592238615389E+00    0.650724752311337488E+04
    0.998842381296641095E-02    0.451869075815089852E-02    0.159887409265550628E+01   -0.204013644713987299E-02    0.395927761415585527E-02    0.206289597487464116E+00    0.190608663893233887E+00    0.650725046699675477E+04
   -0.133622527394151661E-01    0.176431368595847079E-02    0.160067445494259641E+01   -0.188291398639996426E-02    0.175587548582166052E-02    0.209085948330157756E+00    0.187406615832444529E+00    0.650726024783845969E+04
   -0.108385827931145162E-01   -0.125223446471406786E-02    0.159943644912270466E+01   -0.112606619919181062E-02    0.822680803905472035E-03    0.203409930414665957E+00    0.193280840057185904E+00    0.650733235806636094E+04
    0.100587158341359575E-01   -0.587553476211000701E-02    0.159913874297521619E+01   -0.738890132276683498E-03    0.139180944012460596E-02    0.207297402068543107E+00    0.190510760459745271E+00    0.650735982316256559E+04
    0.100587158341359575E-01   -0.587553476211000701E-02    0.159913874297521619E+01   -0.738890132276683498E-03    0.139180944012460596E-02    0.207297402068543107E+00    0.190510760459745271E+00    0.650735982316256559E+04
    0.753631496513849138E-02    0.678786638669046094E-02    0.159976068982870356E+01   -0.187619655039196259E-02    0.142666307980918281E-02    0.205168308827553075E+00    0.192899275948836740E+00    0.650736748941237420E+04
   -0.297949187555694283E-02    0.113486114909534877E-01    0.160013047979010214E+01   -0.199086530098261522E-02    0.436220023576672309E-02    0.205384479450961388E+00    0.190817194478441365E+00    0.650737633943888886E+04
   -0.297949187555694283E-02    0.113486114909534877E-01    0.160013047979010214E+01   -0.199086530098261522E-02    0.436220023576672309E-02    0.205384479450961388E+00    0.190817194478441365E+00    0.650737633943888886E+04
   -0.735050927603472098E-02    0.480301516414319816E-03    0.159920214220295809E+01   -0.864731430820619507E-03    0.394701750207392208E-02    0.202861900403090739E+00    0.192500570050796488E+00    0.650738656948447533E+04
   -0.501267411090997733E-02    0.440828540327508830E-02    0.160047329069968192E+01   -0.152223873584363665E-02    0.390740527256217864E-02    0.206838008304707333E+00    0.189151589914072465E+00    0.650739213649409976E+04
    0.450664555082611658E-02   -0.257753780333153397E-03    0.159851326685083106E+01   -0.105709899182225738E-02    0.225449105061195166E-02    0.202727285544524571E+00    0.192944700391615015E+00    0.650742052442512613E+04
   -0.971584363126106777E-02   -0.539670846822065935E-03    0.159963932373421391E+01   -0.201563715157593304E-02    0.279737586666773362E-02    0.203777557030591555E+00    0.190684478513511585E+00    0.650742441107830018E+04
   -0.520398806176562180E-02   -0.867466517229727001E-02    0.159949877374854199E+01   -0.196462797964193055E-02    0.227355192303028497E-02    0.207047254141119075E+00    0.188489007043841944E+00    0.650743481992817215E+04
    0.104598309366235563E-01    0.710602235908645852E-02    0.160096726500373010E+01    0.465250125522786615E-03    0.220956654825659555E-02    0.206457870781381281E+00    0.190352671690313946E+00    0.650746807558649562E+04
   -0.120035186178979684E-01    0.708796623663466782E-02    0.160058769468544138E+01   -0.199000580122866023E-02    0.284139909227966057E-02    0.207875082097445096E+00    0.189787438898702671E+00    0.650747711130700918E+04
   -0.529629955975241540E-02   -0.248084217226804014E-02    0.160080054056197962E+01   -0.101443302436823109E-02    0.265245642816893962E-02    0.204665360291618803E+00    0.192457199496799597E+00    0.650748087673634473E+04
    0.116585365628150434E-01    0.126345985370888390E-01    0.159981812741530449E+01   -0.129372780337704972E-02    0.247427344445195346E-02    0.207309260785310950E+00    0.190745761483963661E+00    0.650752034069485308E+04
    0.116585365628150434E-01    0.126345985370888390E-01    0.159981812741530449E+01   -0.129372780337704972E-02    0.247427344445195346E-02    0.207309260785310950E+00    0.190745761483963661E+00    0.650752034069485308E+04
    0.633303747131146438E-02    0.805735158962399105E-02    0.159929353434569932E+01   -0.168430007004476872E-02    0.374013757989062222E-02    0.206055661631716597E+00    0.191770084948562985E+00    0.650752270145572311E+04
    0.109808693946399499E-01   -0.600090864012923662E-03    0.159883398648541086E+01   -0.248062907379529272E-03    0.124905771302932095E-02    0.206759467283683163E+00    0.190410819444952001E+00    0.650754231258795789E+04
    0.617660138715705413E-02    0.111842460227049786E-01    0.160087050385091656E+01   -0.168410279176636410E-02    0.280262327282310413E-02    0.206051996245714353E+00    0.191578239844229919E+00    0.650754648022708534E+04
   -0.429651144155805513E-02    0.119760742595264921E-01    0.160002558337372314E+01   -0.286208546312631345E-03    0.202565401179910076E-02    0.204842642691296734E+00    0.191362666752998040E+00    0.650755902772424270E+04
   -0.429651144155805513E-02    0.119760742595264921E-01    0.160002558337372314E+01   -0.286208546312631345E-03    0.202565401179910076E-02    0.204842642691296734E+00    0.191362666752998040E+00    0.650755902772424270E+04
    0.471237383828788589E-02    0.122925645049691383E-01    0.159848341325043819E+01   -0.169451292554450672E-02    0.134833462133811038E-02    0.206734834363172193E+00    0.190978353439026388E+00    0.650756625096663083E+04
    0.581451123582060053E-02    0.307855294243701517E-02    0.160024851557219083E+01   -0.636945605232145984E-04    0.391011810186470826E-02    0.206432787489380043E+00    0.189407657842183691E+00    0.650757836106672949E+04
   -0.102550638514943716E-01   -0.325902187391339301E-03    0.160040818414655073E+01   -0.672379812075567945E-04    0.165155645465931995E-02    0.206071278202205610E+00    0.191703048126193709E+00    0.650758634589089161E+04
    0.458170305953555131E-02   -0.329514251053712607E-02    0.159955527705953315E+01   -0.181950316232781686E-02    0.241744178919551644E-02    0.203013370275379468E+00    0.192902748678885128E+00    0.650762104804469527E+04
    0.554057147907511226E-02   -0.681605709433687115E-02    0.159953618448885870E+01   -0.473549838544363804E-03    0.905159926646874791E-03    0.205021610834997342E+00    0.191061313120024584E+00    0.650765034203800224E+04
    0.554057147907511226E-02   -0.681605709433687115E-02    0.159953618448885870E+01   -0.473549838544363804E-03    0.905159926646874791E-03    0.205021610834997342E+00    0.191061313120024584E+00    0.650765034203800224E+04
   -0.739537338673582848E-02   -0.353059192810671564E-02    0.159926047795938997E+01   -0.140659642328183518E-03    0.385536676545182144E-03    0.204058127941306289E+00    0.192154537498547356E+00    0.650765258473300310E+04
    0.215128519499751679E-03   -0.593100398975899504E-02    0.160052803162872492E+01   -0.168714133271408140E-02    0.741831985255787850E-03    0.205361815036052664E+00    0.191316793326339107E+00    0.650767501436973726E+04
    0.106304669159234394E-01    0.211002083673382653E-02    0.159940830055866323E+01    0.116161948453431192E-03    0.168941864542883303E-02    0.206030139748724139E+00    0.189573830922120268E+00    0.650767596942012278E+04
   -0.461917276943456852E-02   -0.637384578319300714E-03    0.159970531553878481E+01   -0.111011434479538077E-02    0.108680625892203101E-02    0.201558033090385780E+00    0.193738535924355665E+00    0.650769885230617911E+04
   -0.591144598153472024E-02   -0.345675373057585677E-03    0.159878830377271863E+01   -0.577174792520923846E-03    0.237604924415765100E-02    0.206804541930547869E+00    0.188389868013175366E+00    0.650770575695243861E+04
   -0.144887775158317900E-01   -0.620434278854915464E-02    0.160010682507197788E+01   -0.165859261440992004E-02    0.317873300627858875E-02    0.208848337054145211E+00    0.189188875895925007E+00    0.650774645512500319E+04
   -0.114203482333641564E-01   -0.394182831926562140E-02    0.159857997570738020E+01   -0.251362610564445036E-02    0.122167684816607350E-02    0.206211439431347093E+00    0.190053219101033233E+00    0.650776900331524121E+04
   -0.114203482333641564E-01   -0.394182831926562140E-02    0.159857997570738020E+01   -0.251362610564445036E-02    0.122167684816607350E-02    0.206211439431347093E+00    0.190053219101033233E+00    0.650776900331524121E+04
   -0.113259600993770269E-01    0.281668899498259840E-03    0.159965938061937774E+01   -0.238588648670809943E-02    0.121512468638333595E-02    0.203820419126472002E+00    0.191536385861992037E+00    0.650777014996246362E+04
   -0.181629615879743724E-02   -0.406479001691474118E-03    0.159920493044253620E+01   -0.197918603851335870E-02    0.505430881564923238E-03    0.204091130155744871E+00    0.191828869642736960E+00    0.650779891914740074E+04
    0.246889001081007859E-02    0.111976790326179139E-01    0.159978661037598124E+01   -0.316038086777704257E-03    0.136374359345113041E-02    0.208657486221330180E+00    0.188867629313147517E+00    0.650780930266831274E+04
    0.817078673815387069E-02    0.206103722758387009E-02    0.159861434554946369E+01   -0.859180199651588200E-03    0.179010443469591559E-02    0.207942274645399161E+00    0.188826461730922435E+00    0.650781576501288509E+04
   -0.360163425373294952E-03   -0.378184324838900729E-02    0.159887842786397139E+01   -0.171868800966811712E-02    0.335986357241280752E-02    0.206931639440097515E+00    0.189790676654346596E+00    0.650781586443932156E+04
   -0.569340944606668269E-02    0.839389583465721678E-02    0.160038960194788360E+01   -0.217524962429933898E-02    0.118871524309332381E-02    0.205432485458734687E+00    0.191319552791603259E+00    0.650783478972616558E+04
    0.671493670330532751E-02    0.720668051327742840E-02    0.159895834888396271E+01   -0.145841546284835102E-02    0.494692625897647322E-03    0.205418934443108631E+00    0.191749244725151896E+00    0.650783740951684740E+04
    0.583979939389742391E-02    0.657884229101080107E-02    0.160095420052132442E+01   -0.249589978426016440E-02    0.169702025555529073E-02    0.205285736200883279E+00    0.191430140986225128E+00    0.650784595369031558E+04
    0.511648331364504029E-02   -0.210520246716759457E-02    0.160025491816823862E+01   -0.103829822669784344E-02    0.625367216728258107E-03    0.204297200121011324E+00    0.190645407425470370E+00    0.650787000968472057E+04
    0.268998267158617041E-02   -0.704090765850368290E-02    0.159963521142636433E+01   -0.146334560481031295E-02    0.227316737319737186E-02    0.204191887471838279E+00    0.191897287007034373E+00    0.650789840654619729E+04
   -0.248164364862125779E-02   -0.366692629357430651E-03    0.159838954828848889E+01   -0.131107094408805460E-02    0.290027680965545577E-02    0.204145812901738138E+00    0.191903847129133970E+00    0.650790916654995453E+04
   -0.413384656397184757E-02   -0.574528945383704845E-02    0.159922278924087347E+01    0.232787671457298758E-03    0.259769394015927019E-02    0.205908556850495333E+00    0.189658225743133041E+00    0.650791679977068998E+04
   -0.760763071983283721E-02    0.186738986999630341E-02    0.160058710055739351E+01   -0.174499916047268539E-02    0.356189270288117610E-02    0.203245359671413384E+00    0.192332242876534137E+00    0.650792778569416987E+04
    0.741185671817634097E-02    0.353113436751471832E-02    0.160042151678040501E+01   -0.702033907771257922E-03    0.440637360085675269E-03    0.206436915175969155E+00    0.189115313366659099E+00    0.650793166193708385E+04
    0.556198784322097222E-02    0.425626689165677346E-02    0.160015745576144863E+01   -0.209075489892212489E-02    0.744867651922064586E-03    0.203624156525877842E+00    0.191916813945514658E+00    0.650794105772826242E+04
    0.291276807686606921E-03    0.903448199032435011E-03    0.160111780417482352E+01   -0.432127188971508504E-03    0.270260577762707543E-02    0.203981449733819514E+00    0.191576884838258577E+00    0.650794417528649137E+04
   -0.622405956479723643E-02   -0.406029246166958024E-02    0.159849550890685244E+01   -0.265631972140858291E-02    0.226264964125171822E-02    0.205142803239407728E+00    0.191094769884792459E+00    0.650794685357389790E+04
   -0.518049580405656115E-02    0.388902338262399816E-02    0.159955665382018020E+01   -0.439876575535003513E-03    0.302255816692403433E-02    0.207374366923811781E+00    0.188799893841074817E+00    0.650795610782519725E+04
    0.728568289416729699E-03   -0.186687369843588401E-02    0.159943778759445876E+01   -0.213887441641985761E-02    0.127757768848699290E-02    0.204718102448448153E+00    0.191974536059641321E+00    0.650796432703318260E+04
   -0.955959577581976666E-02   -0.834075713347058736E-04    0.160026481347340810E+01   -0.521479769587803029E-03    0.136069446513132383E-02    0.203574396355905685E+00    0.192586441864207730E+00    0.650799122158344107E+04
   -0.342015563145743823E-02    0.950153863838207151E-02    0.159914719151624052E+01   -0.568797886441126566E-03    0.277285233900489243E-02    0.203650191672043263E+00    0.191703564079792638E+00    0.650800157593881886E+04
   -0.105955390746031667E-01   -0.100438407867914706E-02    0.159987585568220991E+01   -0.298446856219516032E-02    0.798662296403933195E-03    0.205736768349748744E+00    0.190674295294294915E+00    0.650801571517784032E+04
   -0.105273544572805468E-02    0.697465667868533024E-02    0.159882644894284098E+01   -0.119893650658889003E-02    0.135935178909906231E-02    0.206756046459006027E+00    0.189463547835293178E+00    0.650803195344573214E+04
    0.199954789260433719E-02    0.136808223569643700E-01    0.159910314385636321E+01   -0.172237310058699850E-02    0.218348582143685450E-02    0.204986867687189517E+00    0.191859879812563860E+00    0.650803954814924873E+04
   -0.129573250122796170E-01   -0.751772406586977224E-02    0.159951185126981277E+01   -0.129426825810619690E-02    0.131590423405260316E-02    0.209355105778754491E+00    0.188162502854026026E+00    0.650806417192719800E+04
    0.930225311485100362E-02    0.783796245188531776E-02    0.159951387828675995E+01   -0.132017251798141177E-02    0.354950684361581134E-02    0.204979921906569301E+00    0.190941041856366955E+00    0.650806947605815549E+04
   -0.800924318880344085E-02    0.597866918095338491E-02    0.159965175380264846E+01    0.320571021343948152E-04    0.185742477162394951E-02    0.206557212941305773E+00    0.189208153372436932E+00    0.650810046675049944E+04
    0.890945548925617609E-03    0.988696200416542929E-02    0.160037757727956920E+01   -0.220843566688375039E-02    0.335676912096290496E-02    0.204230678500838037E+00    0.190806550367969729E+00    0.650810127194332563E+04
    0.684023287731849467E-02   -0.222782940953875422E-02    0.159918829456002798E+01   -0.227329100412212081E-02    0.177827538038424987E-02    0.207575865543384641E+00    0.189128567702582018E+00    0.650811360182566204E+04
   -0.384549402877296716E-02   -0.272378055872318824E-02    0.159910705959969590E+01   -0.244902043326086121E-03    0.871061535486285102E-03    0.204684385430582372E+00    0.191737080788934450E+00    0.650811871476363194E+04
   -0.127007440398007958E-02   -0.528843446395571202E-03    0.159991874974953130E+01   -0.957405003307831262E-03    0.273945566704477750E-02    0.207005723171935996E+00    0.189578999095725814E+00    0.650812944436227008E+04
   -0.108419880165143249E-01   -0.220435755231425173E-02    0.160111439445137127E+01   -0.158421332401325926E-02    0.165609940888688904E-02    0.207702480724446803E+00    0.188839583444944253E+00    0.650813468416536671E+04
   -0.282358732344923247E-02   -0.143449990706383414E-03    0.159902441982693611E+01   -0.140606201045965725E-02    0.150174307279201031E-02    0.203400999261318854E+00    0.192929737546075730E+00    0.650815099369852032E+04
   -0.466918914223476804E-02    0.545377389470072353E-02    0.160104151196966971E+01   -0.153816071002189653E-02    0.248418553375363144E-02    0.204294242415483329E+00    0.190546021387031972E+00    0.650815819907866899E+04
   -0.365478747369039165E-02    0.707248531917065680E-02    0.160026592011529978E+01   -0.119694396275536063E-03    0.116028039324813899E-02    0.204715049018084766E+00    0.190922367712409807E+00    0.650817343094718672E+04
   -0.454400913764466119E-02   -0.507992682116593906E-04    0.159905845928944568E+01   -0.114680402423496686E-02    0.126572929747128062E-02    0.204057628099820060E+00    0.192524466111244075E+00    0.650817684726059997E+04
   -0.390833866309434671E-02    0.782867942194045291E-02    0.160014098045857933E+01   -0.254426068110267817E-02    0.144203151267041857E-02    0.206605703915276329E+00    0.189755772428099379E+00    0.650819186614884711E+04
   -0.677539083337737585E-02    0.562376157812243590E-02    0.160024808720989475E+01   -0.521435628746944507E-04    0.112133329417332195E-02    0.205541318102547721E+00    0.190474009959526153E+00    0.650819266961904759E+04
   -0.156834554882279631E-02    0.671646588177756375E-02    0.159987477199918637E+01   -0.134561540634930326E-03    0.293571341121522155E-02    0.203000395387635812E+00    0.192768027967894273E+00    0.650819315283272499E+04
   -0.610001075706316856E-02   -0.894083949742822785E-02    0.160070419418931698E+01   -0.159096842471353941E-02    0.221720271036788793E-02    0.206701969961911702E+00    0.190716748064322067E+00    0.650820311403517189E+04
   -0.636892685651493321E-02   -0.385393804596269405E-02    0.159938301496264690E+01   -0.211547182928174728E-02    0.359502203840937921E-02    0.207527429810315356E+00    0.189068095572394013E+00    0.650824433515640339E+04
   -0.106909291631474123E-01   -0.291334471588719762E-02    0.160084424567480310E+01   -0.228508892394803983E-02    0.172312081167867444E-02    0.205049068138095619E+00    0.190825029877467078E+00    0.650826091531205384E+04
   -0.854187050553905855E-02   -0.146939459875933352E-02    0.159993492231900802E+01    0.158526032785973324E-03    0.154393433092207236E-02    0.206302094230300298E+00    0.190866250748718519E+00    0.650860916615323822E+04
   -0.108080474468733884E-01   -0.347193240551630505E-02    0.160003266500065555E+01   -0.967650648866164921E-04    0.257240078157242773E-02    0.207301286783891703E+00    0.189359138691415491E+00    0.650873629684449224E+04
   -0.361121894417385032E-04   -0.646625043846084640E-02    0.159940289832111016E+01   -0.787350017660222922E-03    0.190805604052013650E-02    0.204968640547736669E+00    0.191130719084327300E+00    0.650897086957303873E+04
   -0.361121894417385032E-04   -0.646625043846084640E-02    0.159940289832111016E+01   -0.787350017660222922E-03    0.190805604052013650E-02    0.204968640547736669E+00    0.191130719084327300E+00    0.650897086957303873E+04
   -0.102310113593571308E-01    0.964104926870608717E-03    0.160053821455187162E+01   -0.136962802372823803E-02    0.239950972839008802E-02    0.206495010177695393E+00    0.190766093866654413E+00    0.650871058653506134E+04
   -0.849113026312653049E-02    0.433761866659667815E-03    0.159930110960099858E+01   -0.185250551564449016E-02    0.205401440029609906E-02    0.205099914395212413E+00    0.190805701893581869E+00    0.650959563379407882E+04
   -0.849113026312653049E-02    0.433761866659667815E-03    0.159930110960099858E+01   -0.185250551564449016E-02    0.205401440029609906E-02    0.205099914395212413E+00    0.190805701893581869E+00    0.650959563379407882E+04
   -0.849113026312653049E-02    0.433761866659667815E-03    0.159930110960099858E+01   -0.185250551564449016E-02    0.205401440029609906E-02    0.205099914395212413E+00    0.190805701893581869E+00    0.650959563379407882E+04
    0.678589273804270244E-02   -0.297963929225577955E-02    0.160063791673184985E+01   -0.177854046145465650E-02    0.169907753580860583E-02    0.206706906663372436E+00    0.189650862358258537E+00    0.650834579604806095E+04
   -0.100564421683654072E-01    0.315047155352387144E-03    0.159893766222820810E+01   -0.746002139243937728E-03    0.238699020669373534E-02    0.205055352270019448E+00    0.191042141888056738E+00    0.650897709141814448E+04
    0.302285755044026227E-02    0.111274573615633907E-01    0.159868317274961491E+01   -0.144966613416933347E-02    0.235807036146172414E-02    0.207418658404150441E+00    0.189147598883235124E+00    0.650846161592216595E+04
    0.475822052948447847E-02    0.117148889694628187E-01    0.159962542361629745E+01   -0.880416475416178940E-03    0.140756842879820776E-02    0.206841964354203545E+00    0.190844134369378748E+00    0.650869259749551748E+04
    0.260429549109611642E-02    0.128759082721941354E-02    0.160086618195128660E+01   -0.101657238507754958E-02    0.223586669545033185E-02    0.203344855416860953E+00    0.191744536005966221E+00    0.650854277241661930E+04
    0.315226181829836131E-02    0.426831257949763804E-02    0.159982558995104474E+01   -0.136609187302446072E-02    0.844229152270986128E-03    0.204521068528126237E+00    0.191189797878408535E+00    0.650923156873233711E+04
    0.315226181829836131E-02    0.426831257949763804E-02    0.159982558995104474E+01   -0.136609187302446072E-02    0.844229152270986128E-03    0.204521068528126237E+00    0.191189797878408535E+00    0.650923156873233711E+04
   -0.561490615906784941E-02    0.236403928387948076E-02    0.160072895309876095E+01   -0.163036428464659859E-03    0.207323380094595090E-02    0.203850801549984251E+00    0.191602112445246497E+00    0.650843334154667536E+04
   -0.580328731824147990E-02   -0.468991330602555948E-02    0.159968787837293536E+01   -0.126255281485883677E-02    0.264164091190412014E-02    0.205427890779283251E+00    0.191257827873843211E+00    0.650951079922762983E+04
   -0.580328731824147990E-02   -0.468991330602555948E-02    0.159968787837293536E+01   -0.126255281485883677E-02    0.264164091190412014E-02    0.205427890779283251E+00    0.191257827873843211E+00    0.650951079922762983E+04
    0.125332769657449561E-02    0.116134648999531784E-01    0.160007270583042338E+01   -0.494129694913389580E-03    0.180984597552743859E-02    0.206383182833716650E+00    0.190997699746474292E+00    0.650847126285547893E+04
    0.861539514531372425E-02    0.112944626154329632E-01    0.160012361190047336E+01   -0.150336277410598076E-02    0.266569968729863608E-02    0.208937006732906133E+00    0.189085975697058234E+00    0.650862028939002266E+04
   -0.103961627545786015E-01    0.442642913397771679E-03    0.159925236949415939E+01   -0.168489274129761347E-02    0.210434234135754373E-02    0.205379121327951719E+00    0.190832579344698466E+00    0.650951176688198484E+04
   -0.103961627545786015E-01    0.442642913397771679E-03    0.159925236949415939E+01   -0.168489274129761347E-02    0.210434234135754373E-02    0.205379121327951719E+00    0.190832579344698466E+00    0.650951176688198484E+04
   -0.103961627545786015E-01    0.442642913397771679E-03    0.159925236949415939E+01   -0.168489274129761347E-02    0.210434234135754373E-02    0.205379121327951719E+00    0.190832579344698466E+00    0.650951176688198484E+04
   -0.143705408149181688E-02    0.485740386358572349E-02    0.160005060834944657E+01   -0.514002313711572618E-04    0.228137752488695965E-02    0.204466303727003695E+00    0.191558098671466670E+00    0.650872968891778146E+04
   -0.424400866632451798E-03   -0.575460965845101154E-02    0.159999029887238153E+01   -0.207208754639034379E-02    0.317335019537475470E-02    0.206771397025342862E+00    0.189604891042565671E+00    0.650845645840878660E+04
    0.968528190643209086E-03    0.589058100130568883E-02    0.160006971906666595E+01   -0.121675931105568792E-02    0.243826722268389870E-02    0.206528244188982413E+00    0.188731686037002966E+00    0.650895989047754483E+04
    0.968528190643209086E-03    0.589058100130568883E-02    0.160006971906666595E+01   -0.121675931105568792E-02    0.243826722268389870E-02    0.206528244188982413E+00    0.188731686037002966E+00    0.650895989047754483E+04
    0.787002845074573527E-02    0.569548012809007950E-02    0.159880076292209661E+01   -0.101755243072094797E-02    0.341553104404681814E-02    0.205837709509148287E+00    0.191349220397119713E+00    0.650831061870462327E+04
   -0.147612237277638437E-03   -0.480453657614911354E-02    0.159954840984514512E+01   -0.334903665257420768E-03    0.300201458421388073E-02    0.204041519754760037E+00    0.191476918986870887E+00    0.650829449662245679E+04
   -0.286364470052737682E-02   -0.568391988478990362E-02    0.160030681938525099E+01   -0.157248293716654472E-02    0.312665537803666696E-02    0.207079108375933074E+00    0.189177333439847273E+00    0.650868353571524858E+04
   -0.286364470052737682E-02   -0.568391988478990362E-02    0.160030681938525099E+01   -0.157248293716654472E-02    0.312665537803666696E-02    0.207079108375933074E+00    0.189177333439847273E+00    0.650868353571524858E+04
    0.316713294956540549E-02    0.103712743751770489E-01    0.160049705872484727E+01   -0.966851294720296362E-03    0.242887460237896586E-02    0.204947126619188652E+00    0.191828291838125775E+00    0.650872539363238684E+04
    0.875109730200872467E-02    0.981554918394136194E-02    0.159952556565602722E+01   -0.975227849538729029E-03    0.164750050200085612E-02    0.205481082440162499E+00    0.191861093553015005E+00    0.650850635456161035E+04
   -0.750744652000433568E-02   -0.483392317932298241E-03    0.159955568007717353E+01   -0.188867699904558687E-02    0.235056832441928260E-02    0.205058139986429883E+00    0.190182875250631073E+00    0.650951012812066256E+04
   -0.750744652000433568E-02   -0.483392317932298241E-03    0.159955568007717353E+01   -0.188867699904558687E-02    0.235056832441928260E-02    0.205058139986429883E+00    0.190182875250631073E+00    0.650951012812066256E+04
   -0.750744652000433568E-02   -0.483392317932298241E-03    0.159955568007717353E+01   -0.188867699904558687E-02    0.235056832441928260E-02    0.205058139986429883E+00    0.190182875250631073E+00    0.650951012812066256E+04
   -0.215360753743568936E-02   -0.270134526514222064E-02    0.159946289395899788E+01   -0.130539659545314025E-02    0.250807136796130266E-02    0.206323531102417163E+00    0.190245589874162235E+00    0.650899498246080111E+04
   -0.215360753743568936E-02   -0.270134526514222064E-02    0.159946289395899788E+01   -0.130539659545314025E-02    0.250807136796130266E-02    0.206323531102417163E+00    0.190245589874162235E+00    0.650899498246080111E+04
    0.984848188795957140E-02    0.448363561880684661E-02    0.159881814931915711E+01   -0.123863905132925566E-02    0.240205441591814567E-02    0.206540937315570050E+00    0.191142424530139132E+00    0.650854938088547897E+04
    0.329564022062681962E-02    0.675962144197168272E-02    0.160075354732878261E+01   -0.167798769415884101E-02    0.132576607686490109E-02    0.204722082496309854E+00    0.190885344330859796E+00    0.650875449477772599E+04
    0.487438148271550353E-02   -0.131768857228614037E-02    0.160062009153305485E+01   -0.232924207386892023E-03    0.216927114606133616E-02    0.204408486144792123E+00    0.191681264262558465E+00    0.650833837847446739E+04
    0.734365273186544151E-02    0.838595848994145437E-02    0.160015441826907190E+01   -0.140809781459638370E-02    0.196738782788954394E-02    0.205966093361149932E+00    0.190200480858851995E+00    0.650936826879518048E+04
    0.734365273186544151E-02    0.838595848994145437E-02    0.160015441826907190E+01   -0.140809781459638370E-02    0.196738782788954394E-02    0.205966093361149932E+00    0.190200480858851995E+00    0.650936826879518048E+04
   -0.388842533250746518E-02   -0.734233331313150351E-03    0.159927552264961426E+01   -0.162648718835044248E-02    0.179401507177914419E-02    0.204563620170873067E+00    0.191170937884998782E+00    0.650943994521179229E+04
   -0.388842533250746518E-02   -0.734233331313150351E-03    0.159927552264961426E+01   -0.162648718835044248E-02    0.179401507177914419E-02    0.204563620170873067E+00    0.191170937884998782E+00    0.650943994521179229E+04
    0.700116222890187836E-02   -0.300928287371069391E-02    0.159912011019682443E+01   -0.100241940169005952E-02    0.194938154421616587E-02    0.205309784532073825E+00    0.191789191423467453E+00    0.650828987467527259E+04
   -0.713120232075648702E-02    0.460914246616672772E-02    0.159957487281087540E+01   -0.221376520755700319E-02    0.248210311730064992E-02    0.206785739094631493E+00    0.189891941399950276E+00    0.650833685932027947E+04
    0.366242435833439347E-02    0.829183435221129451E-02    0.159911449449321141E+01   -0.236137434111724888E-02    0.224548382842539290E-02    0.205197492480920257E+00    0.191905075484959997E+00    0.650856994553327058E+04
    0.256149510949742318E-03    0.510669772296144797E-02    0.159902424297478896E+01   -0.237266361521639661E-02    0.187624074188072411E-02    0.204443313857104986E+00    0.190710555068794446E+00    0.650875022398756482E+04
   -0.202340378796742309E-02   -0.800410846728970282E-02    0.159979162545077247E+01   -0.116760715485291974E-02    0.671753339299392162E-03    0.205675554114874093E+00    0.190367028938635580E+00    0.650850063860919090E+04
    0.805089172436676120E-04    0.372559393812783380E-02    0.159910951126668821E+01   -0.214526259811686961E-02    0.136788859641591757E-02    0.203486651636253568E+00    0.191390179078613387E+00    0.650856795130002502E+04
    0.500273478768971727E-02    0.613027920872972944E-02    0.159959382079066481E+01   -0.604721153493855659E-03    0.205156763495935139E-02    0.203499030845654599E+00    0.193038071814385287E+00    0.650865324646390582E+04
    0.500273478768971727E-02    0.613027920872972944E-02    0.159959382079066481E+01   -0.604721153493855659E-03    0.205156763495935139E-02    0.203499030845654599E+00    0.193038071814385287E+00    0.650865324646390582E+04
   -0.573052203564823701E-02   -0.246931808000487672E-02    0.159962230999587018E+01   -0.696830776012050796E-03    0.194261899920012185E-02    0.206872485068370970E+00    0.190381412089809104E+00    0.650856010384980254E+04
   -0.585904841301642006E-02   -0.600259091626669699E-03    0.160030930857857445E+01   -0.145803883766392416E-02    0.383390826696049453E-02    0.204120916518993251E+00    0.191740111674405911E+00    0.650841586552226545E+04
   -0.359211191092858500E-02    0.631451451513230771E-02    0.159955034715327638E+01   -0.784497936287223852E-03    0.285425867957845789E-02    0.206398808498501701E+00    0.189421075313718934E+00    0.650870891208319699E+04
    0.839305660869577030E-02    0.172001225398093604E-02    0.159984652899236335E+01   -0.153568763090198646E-02    0.226780427282170360E-02    0.206714448459901362E+00    0.190952557431037728E+00    0.650860263958657742E+04
   -0.327101786927647652E-02   -0.598951733838208773E-02    0.159952589959076263E+01   -0.174285234510355319E-02    0.257265514700093408E-02    0.206431085102517786E+00    0.190724027044310768E+00    0.650895212776753488E+04
   -0.116277252169065346E-01    0.697327958767045916E-05    0.160086877548139861E+01   -0.130366843282851588E-02    0.269437928760210251E-02    0.207155236603432047E+00    0.189648766175579325E+00    0.650865411110047171E+04
   -0.210200616782396524E-02    0.611715205002779511E-02    0.160009259854388475E+01   -0.297132375151902290E-02    0.251013762081612026E-02    0.204831192458861361E+00    0.190383737169637801E+00    0.650853071781701965E+04
   -0.889480650215975291E-02   -0.175330138152863813E-03    0.159941672872314578E+01   -0.314792160595121382E-02    0.213683600015028997E-02    0.206005609894257397E+00    0.189994778263159747E+00    0.650843081606817486E+04
   -0.108860573585009054E-01   -0.421737087844382616E-02    0.159892599517517175E+01   -0.691987146578011691E-03    0.169547186696200982E-02    0.205441240121401553E+00    0.191483037231739678E+00    0.650862398522349940E+04
