    0.713619127692692068E+01    0.747330675402796807E+01    0.416064595921671199E+01   -0.407479988883419075E-02    0.467233740692079300E+04
    0.194206413934433297E+01    0.102962263788456188E+01    0.692509400099494954E+01   -0.117368386763894161E-02    0.467310857441804819E+04
    0.171736095488691660E+02    0.790029119828261450E+01    0.649474336603522318E+01   -0.387769184379826992E-02    0.467329956327293075E+04
    0.720365256440072788E+01    0.617728899974918377E+01    0.280311144162942227E+01   -0.370977112906245576E-02    0.467403752050996354E+04
    0.671134030841239415E+01    0.735251313056302447E+01    0.876721308299268287E+01   -0.139137838552250148E-02    0.467409436587329401E+04
    0.708668214113313333E+01    0.419782273502016956E+01    0.763284043902705989E+01   -0.369293195980580080E-02    0.467422621506152427E+04
    0.144579307229893033E+02    0.874197884508279399E+00    0.751816888225683755E+01   -0.366837778071205101E-02    0.467433774929249194E+04
    0.189924931825599366E+02    0.695748161757849815E+01    0.855559944825822072E+01   -0.361286244688174829E-02    0.467458014759362868E+04
    0.808505383776204667E+01    0.261434448750153647E+01    0.508101680877783402E+01   -0.357767914712958657E-02    0.467474020198395010E+04
    0.438040283151092336E+01    0.533485087126649304E+01    0.274441198350151616E+01   -0.209819956462664603E-02    0.467495123050435814E+04
    0.138590292189909334E+02    0.688372926750878023E+01    0.800090560021446606E+01   -0.173430764851745245E-02    0.467534044601668757E+04
    0.120003146485438457E+02    0.342266352189143674E+01    0.704290129267084808E+01   -0.178457708050128172E-02    0.467549078813280539E+04
    0.128254810306064098E+02    0.839786244083984101E+01    0.661624811091695619E+01   -0.335697940322510213E-02    0.467552217998873675E+04
    0.128254810306064098E+02    0.839786244083984101E+01    0.661624811091695619E+01   -0.335697940322510213E-02    0.467552217998873675E+04
    0.106177658280391860E+02    0.507414667519220330E+01    0.468912252776853933E+01   -0.336379892136950964E-02    0.467555196014011744E+04
    0.603150426788385285E+01    0.551375307276391347E+01    0.880665317925748425E+01   -0.329199988491157836E-02    0.467571296505494320E+04
    0.293695027122197505E+01    0.199808594409472517E+01    0.871774521799119739E+01   -0.329166705709027507E-02    0.467571389372876547E+04
    0.300652613453340889E+01    0.500486428079432422E+01    0.499003526715135770E+01   -0.188358100288055219E-02    0.467578642684398255E+04
    0.300652613453340889E+01    0.500486428079432422E+01    0.499003526715135770E+01   -0.188358100288055219E-02    0.467578642684398255E+04
    0.140672804983674951E+02    0.261175402701975967E+01    0.827124145858909188E+01   -0.191597664213671859E-02    0.467584227842988548E+04
    0.140672804983674951E+02    0.261175402701975967E+01    0.827124145858909188E+01   -0.191597664213671859E-02    0.467584227842988548E+04
    0.149316410273752371E+02    0.941144252139052995E+01    0.571829923079853231E+01   -0.197808470139781978E-02    0.467600128936289548E+04
    0.149316410273752371E+02    0.941144252139052995E+01    0.571829923079853231E+01   -0.197808470139781978E-02    0.467600128936289548E+04
    0.152832882095556482E+02    0.510950168994011733E+01    0.834709469441931873E+01   -0.200818417259662763E-02    0.467605380519058690E+04
    0.193373123498844546E+01    0.250086623206223768E+01    0.773657743430894840E+01   -0.315384003591956397E-02    0.467606385601482179E+04
    0.193373123498844546E+01    0.250086623206223768E+01    0.773657743430894840E+01   -0.315384003591956397E-02    0.467606385601482179E+04
    0.129362527323992715E+02    0.177772861705215357E+01    0.228788786063490335E+01   -0.237735546023787325E-02    0.467609624652450839E+04
    0.129362527323992715E+02    0.177772861705215357E+01    0.228788786063490335E+01   -0.237735546023787325E-02    0.467609624652450839E+04
    0.158342583569458206E+01    0.721047191589144187E+01    0.778511899996165013E+01   -0.313777415840810203E-02    0.467609958738487694E+04
    0.141836652689450222E+02    0.908238551817731610E+00    0.701399586929888486E+01   -0.312763563771167874E-02    0.467612135852913161E+04
    0.141836652689450222E+02    0.908238551817731610E+00    0.701399586929888486E+01   -0.312763563771167874E-02    0.467612135852913161E+04
    0.277519932750349252E+01    0.588850071500682914E+00    0.365520162685742633E+01   -0.204160326466584774E-02    0.467614748054188021E+04
    0.277519932750349252E+01    0.588850071500682914E+00    0.365520162685742633E+01   -0.204160326466584774E-02    0.467614748054188021E+04
    0.126850476264809124E+02    0.388923070903257173E+01    0.822400695757952249E+01   -0.308089652159349026E-02    0.467621671803361551E+04
    0.126850476264809124E+02    0.388923070903257173E+01    0.822400695757952249E+01   -0.308089652159349026E-02    0.467621671803361551E+04
    0.135358971120450704E+02    0.481710606197466973E+00    0.437841900161187425E+01   -0.211220256937416639E-02    0.467626498068942055E+04
    0.110288341545961366E+02    0.680853973243901578E+01    0.602193573911701563E+01   -0.214594632100217897E-02    0.467631989314297334E+04
    0.110288341545961366E+02    0.680853973243901578E+01    0.602193573911701563E+01   -0.214594632100217897E-02    0.467631989314297334E+04
    0.897427257518912569E+01    0.373569111269354703E+01    0.885505779008039084E+01   -0.216469374087757682E-02    0.467634459997751219E+04
    0.897427257518912569E+01    0.373569111269354703E+01    0.885505779008039084E+01   -0.216469374087757682E-02    0.467634459997751219E+04
    0.144221529090274068E+02    0.531078517933353922E+01    0.526050373150275519E+01   -0.301901300072648926E-02    0.467634800359299516E+04
    0.144221529090274068E+02    0.531078517933353922E+01    0.526050373150275519E+01   -0.301901300072648926E-02    0.467634800359299516E+04
    0.790254011815362567E+01    0.856803897649418822E+01    0.884093470312561180E+01   -0.300125299852671557E-02    0.467635853994083845E+04
    0.146646705754276141E+02    0.597244766948126560E+00    0.869397694751908290E+01   -0.217645450376258154E-02    0.467636292965384837E+04
    0.151720968385837196E+02    0.191056598174871062E+01    0.571641628759213027E+01   -0.218297355488605849E-02    0.467637563190806577E+04
    0.151720968385837196E+02    0.191056598174871062E+01    0.571641628759213027E+01   -0.218297355488605849E-02    0.467637563190806577E+04
    0.121459155888943986E+02    0.250479187285617044E+01    0.958021141845890867E+01   -0.218930382452942052E-02    0.467638240109767594E+04
    0.121459155888943986E+02    0.250479187285617044E+01    0.958021141845890867E+01   -0.218930382452942052E-02    0.467638240109767594E+04
    0.701221895268978557E+01    0.362608944153094859E+01    0.700637603021568367E+01   -0.221131946872310525E-02    0.467641485911180189E+04
    0.701221895268978557E+01    0.362608944153094859E+01    0.700637603021568367E+01   -0.221131946872310525E-02    0.467641485911180189E+04
    0.160165750875908728E+02    0.412324724388086050E+01    0.826548104676594164E+01   -0.222096280732120288E-02    0.467642788979316174E+04
    0.160165750875908728E+02    0.412324724388086050E+01    0.826548104676594164E+01   -0.222096280732120288E-02    0.467642788979316174E+04
    0.171045531952364946E+02    0.295301784386346577E+01    0.742753282588120811E+01   -0.222452324075450569E-02    0.467643289300445122E+04
    0.134012725773800074E+02    0.736393690220839403E+01    0.495838119129053290E+01   -0.220613531946234342E-02    0.467645051521033929E+04
    0.136990263605286984E+02    0.418093649149599322E+01    0.482476362644092305E+01   -0.294785301859956661E-02    0.467647242382227887E+04
    0.136990263605286984E+02    0.418093649149599322E+01    0.482476362644092305E+01   -0.294785301859956661E-02    0.467647242382227887E+04
    0.575370307929766600E+01    0.166860166166992974E+01    0.918241099780270531E+01   -0.226874303437729630E-02    0.467648957727208290E+04
    0.394577175172960715E+01    0.266451888821384131E+01    0.504883851234829351E+01   -0.226398316152320866E-02    0.467649692966413113E+04
    0.376985494277507716E+01    0.695891572169178474E+01    0.779100778401269878E+01   -0.289642856022775952E-02    0.467650599517725823E+04
    0.113284024778428432E+02    0.236081392891974007E+01    0.403391978508826909E+01   -0.295441005174623683E-02    0.467650878033508343E+04
    0.296470761827091778E+01    0.222699477954481528E+01    0.964603643391833998E+01   -0.228821698418912867E-02    0.467651235821396949E+04
    0.296470761827091778E+01    0.222699477954481528E+01    0.964603643391833998E+01   -0.228821698418912867E-02    0.467651235821396949E+04
    0.510493195452909099E+01    0.606669891177896048E+01    0.518781211375572759E+01   -0.227144569831838616E-02    0.467651636813604182E+04
    0.140080702397671608E+02    0.712115348024379369E+01    0.822487994938391864E+01   -0.229998516417795340E-02    0.467652554206216155E+04
    0.642282199417905275E+01    0.600626130444671880E+01    0.762061288228977673E+01   -0.230841893736555281E-02    0.467653477852147444E+04
    0.642282199417905275E+01    0.600626130444671880E+01    0.762061288228977673E+01   -0.230841893736555281E-02    0.467653477852147444E+04
    0.490843805070936412E+01    0.724205888241240103E+01    0.563500806058030079E+01   -0.286852998110398438E-02    0.467655046892688642E+04
    0.490843805070936412E+01    0.724205888241240103E+01    0.563500806058030079E+01   -0.286852998110398438E-02    0.467655046892688642E+04
    0.151844411357290561E+02    0.997346634835978918E+01    0.567194374161618775E+01   -0.231156672609755809E-02    0.467655353620163987E+04
    0.161066367214361716E+01    0.724910529740355170E+01    0.655282303837448765E+01   -0.285539678478652359E-02    0.467655370768590728E+04
    0.172730594296003197E+02    0.924872004331407815E+01    0.556001934952358390E+01   -0.286942061814055016E-02    0.467655497213367198E+04
    0.268231053638448058E+01    0.201248285145755368E+01    0.780074715778897598E+01   -0.284198691418890981E-02    0.467656487002374251E+04
    0.626797009416131523E+01    0.248654157617290927E+01    0.688203488691928555E+01   -0.281884834678558516E-02    0.467658674673000496E+04
    0.109596565061163158E+02    0.356028435996288017E+01    0.538464451632142449E+01   -0.281760295523181270E-02    0.467659741442701397E+04
    0.124991977284186291E+02    0.971937667719993215E+01    0.773860351948951219E+01   -0.279319944804090614E-02    0.467660799854320339E+04
    0.121695864661030644E+02    0.953731430214284259E+01    0.691623549733175480E+01   -0.238927983321457482E-02    0.467660973170591205E+04
    0.104516037095887100E+02    0.263313349551432863E+01    0.552897369466543331E+01   -0.279302182460194892E-02    0.467661347027676129E+04
    0.900781107977118012E+01    0.702523591795296642E+01    0.818892257020694103E+01   -0.240057736500942642E-02    0.467661676102494857E+04
    0.158623141194760819E+02    0.625329854027579790E+00    0.917190668538103182E+01   -0.240259602489123480E-02    0.467661811286155444E+04
    0.191902502578717638E+02    0.317936528882160896E+00    0.808949715398459546E+01   -0.241098389031746407E-02    0.467662397098131987E+04
    0.151815122570349992E+02    0.603305941866235784E+01    0.900470578852658576E+01   -0.276949355485056614E-02    0.467662513797047814E+04
    0.186604713848717765E+02    0.211529440519671175E+01    0.631956090046527663E+01   -0.274290768866192192E-02    0.467664303990488770E+04
    0.182903513696756725E+02    0.720952475849862395E+01    0.615740586784207977E+01   -0.274534328401576655E-02    0.467664522024645612E+04
    0.169337179409841774E+02    0.237493638997328649E+01    0.262506288081281447E+01   -0.221107996252523087E-02    0.467664573698289132E+04
    0.152746046279295715E+02    0.581745285804818568E+01    0.504857412447548981E+01   -0.240870273282423053E-02    0.467665190359962435E+04
    0.393208803759902370E+01    0.842677752420585691E+01    0.591927460011359940E+01   -0.247529295777915159E-02    0.467666881640472639E+04
    0.930349071076683209E+01    0.883236667022613453E+01    0.954820390743508085E+01   -0.251209294512222403E-02    0.467667386441033523E+04
    0.108052782603338535E+02    0.628721688750454888E+01    0.627282001050904015E+01   -0.265986995510292257E-02    0.467668042970871102E+04
    0.842399542477718555E+01    0.537309144781001446E+01    0.713910587320803458E+01   -0.254028116290372363E-02    0.467668145845182516E+04
    0.159145010980029173E+02    0.974823893480805559E+01    0.843297843369997224E+01   -0.256485567857245300E-02    0.467668467597158178E+04
    0.874757062933396412E+01    0.718980954826600183E+01    0.653908770013834939E+01   -0.255250683056962302E-02    0.467668532018869155E+04
    0.233296143753171981E+00    0.462839376870767172E+01    0.856616644118637893E+01   -0.259972144924547344E-02    0.467668591209317947E+04
    0.154385507864151865E+02    0.468034093239939697E+01    0.660677929316962320E+01   -0.258306736701874318E-02    0.467668711973828977E+04
    0.197973041175497944E+01    0.226031601938542837E+01    0.554945423026562423E+01   -0.257687735174949584E-02    0.467668998488370016E+04
    0.161899298254682051E+02    0.525972065006786860E+01    0.579407839010411152E+01   -0.261956349098224628E-02    0.467669120992225180E+04
    0.135900195220878413E+02    0.685800196206272439E+01    0.479507020240419735E+01   -0.243915092376534304E-02    0.467669721655750072E+04
    0.271044856220738550E+01    0.426348852903678655E+01    0.517942703682794559E+01   -0.264446438881893453E-02    0.467669738338110074E+04
    0.452899877911423765E+01    0.914352973672859548E+01    0.456848010388936743E+01   -0.280052410784448202E-02    0.467671083411968175E+04
    0.106573975228370532E+02    0.677541844586856712E+01    0.506236036469844919E+01   -0.260672686371143936E-02    0.467671963792543465E+04
    0.110613914396067656E+02    0.753201308025155392E+01    0.496562403734495739E+01   -0.256270803855496165E-02    0.467672939228443011E+04
    0.197728266761063836E+02    0.623243645272319036E+01    0.384490900538867564E+01   -0.246192060581018612E-02    0.467691883053054335E+04
    0.129272621370412857E+02    0.452324194974612936E+01    0.388051677033464593E+01   -0.272765992921508715E-02    0.467683826644973760E+04
    0.952608785716333095E+01    0.367799809490297669E+01    0.368807217974172552E+01   -0.249675240816993327E-02    0.467686835839598371E+04
    0.167267683382453427E+02    0.610423975845164168E+01    0.378050703797951826E+01   -0.280655952848496426E-02    0.467689204294971387E+04
    0.137166329446528774E+02    0.784662717683864308E+01    0.384898635710171533E+01   -0.290430905785554749E-02    0.467682799261184573E+04
    0.528467290198391737E+01    0.847903115254469597E+01    0.317267983476954285E+01   -0.254394529201806829E-02    0.467684353904796535E+04
    0.616314893140231224E+01    0.458111265057868344E+01    0.416441794825750833E+01   -0.256235990075504017E-02    0.467679530573271222E+04
    0.151988985441503406E+02    0.142188569852085367E+01    0.374067064434820473E+01   -0.272340988513031235E-02    0.467673182337847629E+04
