    0.958094541859922089E+01    0.198634177181083826E+01    0.983684110343413920E+01    0.274853376300641772E+00   -0.112149004759043828E+04
    0.102615667435645719E+02    0.301930102058070515E+01    0.938658241775732094E+01    0.300355831014068375E+00   -0.112104076653931884E+04
    0.739387981055300347E+01    0.896422594800809058E+01    0.237745276629125257E+01    0.288382305373109604E+00   -0.112057292733802183E+04
    0.197516444799668278E+01    0.821379957818864348E+01    0.322193026795271464E+01    0.298945273713971504E+00   -0.112032349667922995E+04
    0.187243218395033004E+02    0.530223553628724176E+01    0.687069998435709905E+01    0.298545236222928168E+00   -0.112017774668593847E+04
    0.173951256275177002E+02    0.776582062244415283E+01    0.329810261726379395E+01    0.299354195594787598E+00   -0.111996771292778431E+04
    0.150220292028527922E+02    0.593385606473753491E+01    0.440549647338494310E+01    0.278351739419913979E+00   -0.111954706229563999E+04
    0.192750114876363909E+02    0.652184136354755495E+01    0.747227270998845228E+01    0.278833771598194780E+00   -0.111946374670505747E+04
    0.299785936075695059E+01    0.238951136370512751E+01    0.651750921303918318E+01    0.278880298566856366E+00   -0.111944429540970896E+04
    0.110967974045889051E+02    0.294662689923090360E+00    0.336853048810294098E+01    0.279015206335360144E+00   -0.111935909618822052E+04
    0.120687497368289485E+02    0.829209749589319678E+01    0.674379725466114621E+01    0.279283858931858253E+00   -0.111928274454634266E+04
    0.139804648256321009E+02    0.788784802915193151E+01    0.780483845881746774E+01    0.296177590227761467E+00   -0.111923760354138085E+04
    0.162103344883848912E+02    0.732129570096216131E+01    0.274767762929940140E+01    0.276679483557040529E+00   -0.111917080345730346E+04
    0.192752959678447162E+02    0.123121390295522826E+01    0.609635002389324399E+01    0.279795233883356920E+00   -0.111909279390491406E+04
    0.297921030137279663E+01    0.688325661226911656E+01    0.353103506553992830E+01    0.279058987661209290E+00   -0.111897724389348673E+04
    0.120904803887410655E+02    0.881711694616506136E+01    0.394584100101323010E+01    0.279798875201252129E+00   -0.111872753494670746E+04
    0.119461638549144737E+02    0.810141902428608418E+01    0.898506159891034883E+01    0.280902002761706848E+00   -0.111872352429030116E+04
    0.435271364410943917E+01    0.205096398297219640E+01    0.622701267382497647E+01    0.280985452278292636E+00   -0.111869652377368698E+04
    0.435271364410943917E+01    0.205096398297219640E+01    0.622701267382497647E+01    0.280985452278292636E+00   -0.111869652377368698E+04
    0.165985609618470242E+02    0.231094431715946058E+01    0.571685211686953565E+01    0.294304530004484421E+00   -0.111864331698339493E+04
    0.165985609618470242E+02    0.231094431715946058E+01    0.571685211686953565E+01    0.294304530004484421E+00   -0.111864331698339493E+04
    0.954467645509433460E+01    0.893150587876822932E+01    0.638240626960240220E+01    0.294198806305969951E+00   -0.111861353365406512E+04
    0.954467645509433460E+01    0.893150587876822932E+01    0.638240626960240220E+01    0.294198806305969951E+00   -0.111861353365406512E+04
    0.195305730750144235E+02    0.919058314439199364E+01    0.656385734659251341E+01    0.294064295597165737E+00   -0.111857803687541764E+04
    0.195305730750144235E+02    0.919058314439199364E+01    0.656385734659251341E+01    0.294064295597165737E+00   -0.111857803687541764E+04
    0.159927249267087177E+02    0.486744470424630471E+01    0.786213168815225316E+01    0.281441468293591068E+00   -0.111856415406657743E+04
    0.159927249267087177E+02    0.486744470424630471E+01    0.786213168815225316E+01    0.281441468293591068E+00   -0.111856415406657743E+04
    0.102619296629763586E+02    0.738423014682413736E+01    0.345712017429661067E+01    0.295358653571577756E+00   -0.111850503816533683E+04
    0.102619296629763586E+02    0.738423014682413736E+01    0.345712017429661067E+01    0.295358653571577756E+00   -0.111850503816533683E+04
    0.175562300809346183E+02    0.463266584891274569E+01    0.467014933788029651E+01    0.292767424875161275E+00   -0.111821660994392823E+04
    0.175562300809346183E+02    0.463266584891274569E+01    0.467014933788029651E+01    0.292767424875161275E+00   -0.111821660994392823E+04
    0.208200294046640089E+01    0.478217169204968595E+01    0.297377582905095039E+01    0.292405524082370194E+00   -0.111821122236214319E+04
    0.208200294046640089E+01    0.478217169204968595E+01    0.297377582905095039E+01    0.292405524082370194E+00   -0.111821122236214319E+04
    0.498560989471222005E+01    0.277809838828666944E+01    0.430117035298875550E+01    0.292713765652894864E+00   -0.111820663829302771E+04
    0.498560989471222005E+01    0.277809838828666944E+01    0.430117035298875550E+01    0.292713765652894864E+00   -0.111820663829302771E+04
    0.155202859352160001E+02    0.634629666346204413E+01    0.712913161316887312E+01    0.282883219653305096E+00   -0.111820561110133394E+04
    0.155202859352160001E+02    0.634629666346204413E+01    0.712913161316887312E+01    0.282883219653305096E+00   -0.111820561110133394E+04
    0.400302574757577823E+01    0.645871998985587670E+01    0.480471043498278405E+01    0.282688157860485401E+00   -0.111819387778581495E+04
    0.138607123595723891E+02    0.743099988712978021E+01    0.524850476612642503E+01    0.282832130870384058E+00   -0.111818501816293065E+04
    0.138607123595723891E+02    0.743099988712978021E+01    0.524850476612642503E+01    0.282832130870384058E+00   -0.111818501816293065E+04
    0.149023018578014188E+02    0.423915070818220718E+00    0.593884273083994607E+01    0.283040360945133740E+00   -0.111817292828540917E+04
    0.114845622211093197E+02    0.480316273044315345E+01    0.688960940830277835E+01    0.283131031678379719E+00   -0.111815379701107531E+04
    0.114845622211093197E+02    0.480316273044315345E+01    0.688960940830277835E+01    0.283131031678379719E+00   -0.111815379701107531E+04
    0.889385855298347394E+01    0.280594272562586600E+01    0.788460636191467046E+01    0.283451449330181404E+00   -0.111809221547577454E+04
    0.889385855298347394E+01    0.280594272562586600E+01    0.788460636191467046E+01    0.283451449330181404E+00   -0.111809221547577454E+04
    0.456921335706931853E+01    0.219803395937630611E-01    0.767650330850132789E+01    0.291810798393246529E+00   -0.111807819040869458E+04
    0.456921335706931853E+01    0.219803395937630611E-01    0.767650330850132789E+01    0.291810798393246529E+00   -0.111807819040869458E+04
    0.134197889548547273E+02    0.714512547388101993E+00    0.720090057502003944E+01    0.291216219431520651E+00   -0.111797992919498665E+04
    0.107747522649931362E+02    0.302692716596989264E+01    0.352283948989759921E+01    0.292287911747597162E+00   -0.111797076196970534E+04
    0.107747522649931362E+02    0.302692716596989264E+01    0.352283948989759921E+01    0.292287911747597162E+00   -0.111797076196970534E+04
    0.615031762842171315E+01    0.511534722563859567E+01    0.848016059317806992E+01    0.291083080333109923E+00   -0.111795998162344790E+04
    0.129847863682212612E+02    0.675360814216388583E+01    0.835650211988629010E+01    0.290970296691860142E+00   -0.111794359497974983E+04
    0.173266993988064115E+02    0.925011189794294886E+01    0.385628977099069736E+01    0.282359988590888067E+00   -0.111788761810644473E+04
    0.173266993988064115E+02    0.925011189794294886E+01    0.385628977099069736E+01    0.282359988590888067E+00   -0.111788761810644473E+04
    0.327025320992855306E+00    0.440541255932395259E+01    0.502031397403469093E+01    0.290371201171575777E+00   -0.111784910344722766E+04
    0.327025320992855306E+00    0.440541255932395259E+01    0.502031397403469093E+01    0.290371201171575777E+00   -0.111784910344722766E+04
    0.167231773261399788E+02    0.962019037363415563E+01    0.614579079151752694E+01    0.285091873031500853E+00   -0.111783755862447470E+04
    0.167231773261399788E+02    0.962019037363415563E+01    0.614579079151752694E+01    0.285091873031500853E+00   -0.111783755862447470E+04
    0.752885010412200462E+01    0.176818203507738758E+01    0.663956427571297780E+01    0.285167531926413975E+00   -0.111783692852795571E+04
    0.106956700683621708E+02    0.965530726800810091E+00    0.314377067265206733E+01    0.290975962956062650E+00   -0.111783580303502140E+04
    0.106956700683621708E+02    0.965530726800810091E+00    0.314377067265206733E+01    0.290975962956062650E+00   -0.111783580303502140E+04
    0.148712268831515466E+02    0.328211029942556509E+01    0.754672663919462750E+01    0.285186817690812999E+00   -0.111783520998328777E+04
    0.513058475944277603E+01    0.241335957382456767E+01    0.973681296888448600E+01    0.289993827959609263E+00   -0.111782444631869294E+04
    0.513058475944277603E+01    0.241335957382456767E+01    0.973681296888448600E+01    0.289993827959609263E+00   -0.111782444631869294E+04
    0.126581038003897994E+01    0.567134351372791379E+01    0.739709565221072651E+01    0.285328417921784538E+00   -0.111782007229339729E+04
    0.102289098692967499E+02    0.911085434981339226E+01    0.577816747150565924E+01    0.290044789990571150E+00   -0.111781554863602719E+04
    0.136137895594810798E+01    0.117773480413528864E+01    0.784771417374557245E+01    0.285467782721454011E+00   -0.111780669161019705E+04
    0.136137895594810798E+01    0.117773480413528864E+01    0.784771417374557245E+01    0.285467782721454011E+00   -0.111780669161019705E+04
    0.108078968762795071E+02    0.178356061154430456E+01    0.991455261262626664E+01    0.285492965543349131E+00   -0.111780433299694323E+04
    0.854527521153553415E+01    0.892123886488040752E+00    0.442225038722193986E+01    0.289844859356348294E+00   -0.111779534248453615E+04
    0.185694912017432081E+02    0.378331153557463562E+01    0.969728149310108734E+01    0.285661542161248505E+00   -0.111778900438458095E+04
    0.482096873470290888E+01    0.409821548732526697E+01    0.750069739776635558E+01    0.289263594044296468E+00   -0.111776129500435513E+04
    0.482096873470290888E+01    0.409821548732526697E+01    0.750069739776635558E+01    0.289263594044296468E+00   -0.111776129500435513E+04
    0.268570227381887561E+01    0.654621079909394421E+01    0.482556161306167297E+01    0.289819235630450978E+00   -0.111776123388818974E+04
    0.142711059527527873E+02    0.667442683954043492E+01    0.911343642552618149E+01    0.286035246614918970E+00   -0.111775955427146801E+04
    0.137091287248505811E+02    0.298017217009523216E+00    0.416030778295055903E+01    0.289162524345968119E+00   -0.111774673585771188E+04
    0.167650200260387621E+02    0.415553987612567166E+01    0.888387955749634273E+01    0.289034825236860415E+00   -0.111774652440220029E+04
    0.757039982304639913E+01    0.607387398981342219E+01    0.702225026062528102E+01    0.286234142891809373E+00   -0.111774542292960064E+04
    0.757039982304639913E+01    0.607387398981342219E+01    0.702225026062528102E+01    0.286234142891809373E+00   -0.111774542292960064E+04
    0.959083287440984300E+01    0.632803033221112088E+00    0.548841171177038412E+01    0.286554401779230972E+00   -0.111772733712888362E+04
    0.153405237809426396E+02    0.504153264438653270E+01    0.917425299847687370E+01    0.286640386704402728E+00   -0.111772511978693296E+04
    0.560376775665093874E+01    0.693789239472938224E+01    0.472301648762027071E+01    0.289581947288991559E+00   -0.111772185130295634E+04
    0.108153708744138157E+02    0.489441544939717921E+00    0.725483571031468699E+01    0.286758744139260280E+00   -0.111772024549247749E+04
    0.108153708744138157E+02    0.489441544939717921E+00    0.725483571031468699E+01    0.286758744139260280E+00   -0.111772024549247749E+04
    0.147051000864130454E+02    0.151529100360414026E+01    0.993474869441775965E+01    0.286769346968562377E+00   -0.111771989689039083E+04
    0.140785702222401277E+02    0.439114843109134867E+01    0.886046000154603774E+01    0.288378022936063516E+00   -0.111771586210461237E+04
    0.322860742951135427E+01    0.148098542436335823E+01    0.538395229151797672E+01    0.286775595542429818E+00   -0.111771530212278276E+04
    0.178996728029859664E+00    0.555858237341089101E+01    0.616208807669895009E+01    0.286830507588611727E+00   -0.111771418645066069E+04
    0.460592037431302792E+01    0.283211426838224956E+01    0.422196930838121531E+01    0.285821347375043722E+00   -0.111771372777089982E+04
    0.143879497470435940E+02    0.108056263422193344E+01    0.247905662925509596E+01    0.290634663070636012E+00   -0.111771337532509529E+04
    0.129318445761167666E+02    0.126238107343403927E+01    0.916145877245241280E+01    0.288111365138965514E+00   -0.111770874862533879E+04
    0.916361609571551483E+01    0.352077127128727252E+01    0.717363448719374475E+01    0.287153040672757598E+00   -0.111770819176267560E+04
    0.702999305700701171E+01    0.629693877674007574E+01    0.546875018620708531E+01    0.288583344204861980E+00   -0.111770674263059345E+04
    0.170202950167051767E+02    0.584826846010835233E+01    0.591516681298878133E+01    0.288275776221738278E+00   -0.111770534021331105E+04
    0.411810491330432171E+01    0.571571898976168580E+01    0.799690323096692168E+01    0.287500066887214745E+00   -0.111770389240825762E+04
    0.103117655997634152E+02    0.588744445768648461E+01    0.560533795159822112E+01    0.287077908861190778E+00   -0.111769749288974208E+04
    0.158594179273822000E+02    0.855775192194360557E+01    0.547776268687894863E+01    0.286860421391230025E+00   -0.111769261873599044E+04
    0.106662057218846478E+02    0.554676917681988435E+01    0.559394648518334492E+01    0.287581732788837918E+00   -0.111769143079629498E+04
    0.135301961259433323E+02    0.539175962130724429E+01    0.517904665422825872E+01    0.287558067122162031E+00   -0.111767856061145039E+04
    0.246674680555642745E+01    0.403122867258939799E+01    0.461693701776130538E+01    0.288024700252479171E+00   -0.111766656892331139E+04
    0.104442717994842056E+02    0.993744340645845492E+00    0.371691617598302493E+01    0.287990796878277555E+00   -0.111765334590234579E+04
    0.350377658498194178E+01    0.146069977412386542E+01    0.309555752308988197E+01    0.285986328255394717E+00   -0.111764392684656877E+04
    0.955880917623330162E+00    0.459471197936326714E+01    0.395622371309226217E+01    0.287634612695836234E+00   -0.111761415643860551E+04
    0.424876645647507178E+01    0.889532837533394982E+01    0.421939266305167138E+01    0.285903463811746139E+00   -0.111758029616133126E+04
    0.116320263077655905E+02    0.279659671905251184E+01    0.356963338435318533E+01    0.289103045874474551E+00   -0.111756760359953705E+04
    0.736385830130396712E+01    0.398281861028765771E+01    0.319736328360482780E+01    0.290582313603349185E+00   -0.111754262478120381E+04
    0.425643988828545350E+01    0.197713439597899643E+01    0.311528110453750529E+01    0.287818805676018696E+00   -0.111753935554418649E+04
    0.122731990474752166E+02    0.769622412321739446E+01    0.416772699772857180E+01    0.286414937176168172E+00   -0.111753237625437851E+04
    0.170965941833092501E+02    0.717480196704972428E+01    0.282569365023086760E+01    0.281072865231982272E+00   -0.111752886462537231E+04
    0.116490962243439888E+02    0.281646088673520367E+01    0.241903290141257798E+01    0.288141485434682210E+00   -0.111751442951169020E+04
    0.808123094858992275E+01    0.942582872641795788E+01    0.399934829927823543E+01    0.289699624518184207E+00   -0.111750401264992161E+04
    0.147910806806829349E+02    0.304889696269417776E+01    0.274127166177207116E+01    0.290675784625191058E+00   -0.111744314471448183E+04
    0.639443906912880689E+01    0.372764006692586936E+01    0.271976022800162198E+01    0.286320494860462738E+00   -0.111739811299036342E+04
    0.109953413451215383E+02    0.208215327159091501E+01    0.289769860211242403E+01    0.287660144388814043E+00   -0.111739192098061812E+04
    0.117248814421698970E+02    0.729524633847994153E+01    0.273296749179162290E+01    0.286488609936480954E+00   -0.111699696406205203E+04
    0.110535709572914875E+02    0.920895632529211916E+01    0.283085470617825408E+01    0.286867945104970712E+00   -0.111686656102368397E+04
    0.165755382149890877E+02    0.848095136265804506E+01    0.278994146325477210E+01    0.285971150325763812E+00   -0.111674203641317195E+04
    0.995006800628897459E+01    0.583520945351658504E+01    0.283326194792193498E+01    0.287364413421817400E+00   -0.111704110661085519E+04
    0.859957222081808226E+01    0.514945642761224320E+01    0.285799326172969437E+01    0.285861839064063261E+00   -0.111716317263136034E+04
