    0.162339654727026028E+01    0.846940120041566935E+01    0.822680199487122366E+01   -0.824182244664739549E-03    0.465120555743616933E+04
    0.147934198771445313E+02    0.742194747200363381E+01    0.869374680720753190E+01   -0.367277179454650327E-02    0.465138823183685417E+04
    0.134387084572517956E+02    0.371841648669955660E+01    0.821006058540237404E+01   -0.341334216665467594E-02    0.465270568464030293E+04
    0.134371795208561928E+01    0.266066045572073318E+01    0.780255414946487846E+01   -0.120172558463704782E-02    0.465288090966379787E+04
    0.639718708371711298E+01    0.214047580082882449E+01    0.863261232275836221E+01   -0.329935258712743540E-02    0.465318864679319449E+04
    0.161565699608547000E+02    0.952938405311635606E+01    0.328273154589314942E+01   -0.348720855478612535E-02    0.465320066148911064E+04
    0.190838865986222963E+02    0.168025553984239062E+01    0.658572876814139008E+01   -0.135162546959188834E-02    0.465342283870776555E+04
    0.167483177104086813E+02    0.556359824960385829E+01    0.635731730352306457E+01   -0.135597971671486128E-02    0.465343921695940116E+04
    0.279524086886507028E+01    0.652640734051242966E+01    0.814862481062797528E+01   -0.139219102948573425E-02    0.465355665633242461E+04
    0.845507450956528750E+01    0.170050463565192572E+00    0.266938607760771163E+01   -0.314484811656112750E-02    0.465381545501373694E+04
    0.790116426484609891E+00    0.439084842437300704E+01    0.893205743531460072E+01   -0.148661048308229571E-02    0.465384797830373100E+04
    0.142308361738342306E+02    0.720825310406612574E+00    0.329977658678899566E+01   -0.150352211108095712E-02    0.465397384512014742E+04
    0.108281897661165516E+02    0.918393958954405498E+01    0.555052379641060156E+01   -0.302335738881043259E-02    0.465414239552199342E+04
    0.345217221260872620E+01    0.876497488897972943E+01    0.841927289271319523E+01   -0.162466099539237963E-02    0.465422097987089546E+04
    0.599120378700427647E+01    0.742106318333887138E+01    0.358649811029146193E+01   -0.155466416339256064E-02    0.465438776061755652E+04
    0.108103622536611574E+02    0.191067993820705961E+01    0.477671080175976748E+01   -0.172511807887532065E-02    0.465446708970527652E+04
    0.108103622536611574E+02    0.191067993820705961E+01    0.477671080175976748E+01   -0.172511807887532065E-02    0.465446708970527652E+04
    0.746924879016583176E+01    0.208371134641105993E+01    0.883603952000019532E+01   -0.178700906959083916E-02    0.465457711534882401E+04
    0.746924879016583176E+01    0.208371134641105993E+01    0.883603952000019532E+01   -0.178700906959083916E-02    0.465457711534882401E+04
    0.217630827598702714E+01    0.950927104990579153E+01    0.359501100253721972E+01   -0.297375145038125677E-02    0.465462130042850640E+04
    0.217630827598702714E+01    0.950927104990579153E+01    0.359501100253721972E+01   -0.297375145038125677E-02    0.465462130042850640E+04
    0.512034826764780249E+01    0.598116643445144547E+01    0.807630259696411201E+01   -0.184450492715548808E-02    0.465468161285272618E+04
    0.512034826764780249E+01    0.598116643445144547E+01    0.807630259696411201E+01   -0.184450492715548808E-02    0.465468161285272618E+04
    0.173721700810045654E+02    0.495799095429535086E+01    0.671655916159392063E+01   -0.272578792181232821E-02    0.465477544146734908E+04
    0.173721700810045654E+02    0.495799095429535086E+01    0.671655916159392063E+01   -0.272578792181232821E-02    0.465477544146734908E+04
    0.927732165722680868E+01    0.734522504287612588E+01    0.666818673675057028E+01   -0.272229892738395929E-02    0.465478166052111555E+04
    0.927732165722680868E+01    0.734522504287612588E+01    0.666818673675057028E+01   -0.272229892738395929E-02    0.465478166052111555E+04
    0.169762573295680341E+01    0.549926901695723913E+01    0.403859192696585367E+01   -0.280459929532650420E-02    0.465478361708842931E+04
    0.169762573295680341E+01    0.549926901695723913E+01    0.403859192696585367E+01   -0.280459929532650420E-02    0.465478361708842931E+04
    0.506397737099656986E+01    0.121284163984909307E-01    0.764849474504046256E+01   -0.271530268491027016E-02    0.465479077337844228E+04
    0.701637929296648277E+01    0.532573178184555651E+01    0.398577074315149993E+01   -0.280919090177622621E-02    0.465481513785759853E+04
    0.820737464565477381E+01    0.969987059505036697E+01    0.637170787850719478E+01   -0.193497477235449189E-02    0.465482633260273997E+04
    0.820737464565477381E+01    0.969987059505036697E+01    0.637170787850719478E+01   -0.193497477235449189E-02    0.465482633260273997E+04
    0.125185539902951888E+02    0.915953904415436604E+01    0.540324225784271306E+01   -0.193786950440233419E-02    0.465484900257496156E+04
    0.125185539902951888E+02    0.915953904415436604E+01    0.540324225784271306E+01   -0.193786950440233419E-02    0.465484900257496156E+04
    0.388780960056446112E+01    0.874231090162709989E+01    0.313559632651817921E+01   -0.202204671322414598E-02    0.465488866768448406E+04
    0.168006095507621076E+02    0.488976531703634032E+00    0.360069864317637567E+01   -0.266090525094320185E-02    0.465490478148340662E+04
    0.168006095507621076E+02    0.488976531703634032E+00    0.360069864317637567E+01   -0.266090525094320185E-02    0.465490478148340662E+04
    0.152949753541265672E+02    0.125465289627649446E+01    0.767095199186357846E+01   -0.261066710892954301E-02    0.465493004525611741E+04
    0.152949753541265672E+02    0.125465289627649446E+01    0.767095199186357846E+01   -0.261066710892954301E-02    0.465493004525611741E+04
    0.126067051587179169E+01    0.634482285163545523E+01    0.903676161365767072E+01   -0.259658437426890654E-02    0.465494545932754590E+04
    0.718879330013690243E+01    0.526321422009762063E+01    0.698349428683643225E+01   -0.259022573308687054E-02    0.465495285273792706E+04
    0.115328316049277184E+02    0.631462782223702757E+01    0.985076605304607256E+01   -0.258434196799739446E-02    0.465495822854759172E+04
    0.115328316049277184E+02    0.631462782223702757E+01    0.985076605304607256E+01   -0.258434196799739446E-02    0.465495822854759172E+04
    0.192218558241007074E+02    0.214571604958949846E+01    0.348804921095564424E+01   -0.268999562264504721E-02    0.465501366379784395E+04
    0.192218558241007074E+02    0.214571604958949846E+01    0.348804921095564424E+01   -0.268999562264504721E-02    0.465501366379784395E+04
    0.157698423812123938E+02    0.967595967427594417E+01    0.591963253508303033E+01   -0.251782035987291319E-02    0.465502660813359580E+04
    0.167772115545767306E+02    0.589755011541088159E+01    0.468383016956658693E+01   -0.207037655691100220E-02    0.465503474686317441E+04
    0.167772115545767306E+02    0.589755011541088159E+01    0.468383016956658693E+01   -0.207037655691100220E-02    0.465503474686317441E+04
    0.112507466319450433E+02    0.194785858534296041E+01    0.639353946933629658E+01   -0.249048926244632707E-02    0.465503759179838107E+04
    0.254931189753099563E+01    0.643572469147138726E+01    0.604556912934219781E+01   -0.247785889316298746E-02    0.465505007648448918E+04
    0.254931189753099563E+01    0.643572469147138726E+01    0.604556912934219781E+01   -0.247785889316298746E-02    0.465505007648448918E+04
    0.208449044873791767E+01    0.856267015048331714E+01    0.493334441543893476E+01   -0.254102063179340032E-02    0.465505110131124275E+04
    0.691793236630002251E+00    0.670753841765543979E-01    0.697142554388730318E+01   -0.243715370028152467E-02    0.465506632843754960E+04
    0.135842153084635608E+02    0.723234929344229904E+01    0.485633874657305142E+01   -0.211519942796722926E-02    0.465506633192561094E+04
    0.271626507086082380E+01    0.860720374094323226E+01    0.516033507549924941E+01   -0.214516372112716347E-02    0.465507159067129487E+04
    0.299611379462659855E+01    0.750196523664186987E+01    0.967348191470916419E+01   -0.221756263679318000E-02    0.465507404117718215E+04
    0.186069337771305534E+02    0.282147465673622099E-02    0.491048333008763649E+01   -0.221936427186442131E-02    0.465507472306756063E+04
    0.100731426202039120E+02    0.893715411287742967E+01    0.712950783961820633E+01   -0.241543109643549414E-02    0.465507606632372153E+04
    0.532234189190040574E+01    0.738677131043522817E+01    0.780339225706178752E+01   -0.222387300888970962E-02    0.465507653949700580E+04
    0.191852735058794863E+02    0.502372863447576812E+01    0.924238158692786982E+01   -0.240016600973724792E-02    0.465508037873466856E+04
    0.743350954908462747E+01    0.759009696590686733E+01    0.896111702879529304E+01   -0.225406055426868868E-02    0.465508529663904483E+04
    0.743350954908462747E+01    0.759009696590686733E+01    0.896111702879529304E+01   -0.225406055426868868E-02    0.465508529663904483E+04
    0.389272977540992704E+01    0.258724241780317543E+01    0.737081448869492917E+01   -0.225732478151308147E-02    0.465508620940738001E+04
    0.666425885022599918E+01    0.957063036633156017E+01    0.772655334999585364E+01   -0.237878405773939150E-02    0.465508642561518991E+04
    0.330385105420343628E+01    0.800955397143336612E+01    0.946751304765948021E+01   -0.236283104142032130E-02    0.465508928637161080E+04
    0.162120024749435281E+02    0.400420102298327940E+01    0.871214351788740160E+01   -0.227828699365895115E-02    0.465509001804910076E+04
    0.499814239944151240E+01    0.363507721908561265E+01    0.619584092009322873E+01   -0.226775946238089166E-02    0.465509038331903866E+04
    0.124201691547063842E+01    0.531353465618292908E+01    0.709118752502096328E+01   -0.235672170675071957E-02    0.465509085506979318E+04
    0.179674889753432190E+02    0.814326760469129951E+01    0.929929080516985351E+01   -0.234889951388128626E-02    0.465509125804351788E+04
    0.736707237359589939E+01    0.175443587165966780E+00    0.440507466330684672E+01   -0.236741506579607464E-02    0.465509140019479764E+04
    0.194720616316739132E+02    0.228827006945996919E+00    0.541531759474302810E+01   -0.228511839544354167E-02    0.465509149079931376E+04
    0.188565560878253216E+02    0.494090588506642181E+01    0.587186961833708665E+01   -0.237613592575280919E-02    0.465509173221306264E+04
    0.112383238170902278E+02    0.112679217273100019E+01    0.342156546995635402E+01   -0.255865680606481849E-02    0.465509234928362639E+04
    0.620574208215552581E+01    0.419419610703905121E+01    0.626157815111803728E+01   -0.229762052242421522E-02    0.465509438466941810E+04
    0.128579019996483024E+01    0.446177043216033198E+01    0.571757996690491765E+01   -0.227018306686987970E-02    0.465509503827841581E+04
    0.104884181583891571E+02    0.194119171393687617E+01    0.529004772787665800E+01   -0.229285277049240399E-02    0.465509792252607713E+04
    0.169703862572569975E+01    0.122468781893908174E+01    0.464664296455942960E+01   -0.237903678448025957E-02    0.465509807308018026E+04
    0.178879923878261771E+02    0.457324898577214789E+01    0.398747650189744363E+01   -0.203704983272545714E-02    0.465509847210007047E+04
    0.488899020379840366E+01    0.382460844420475166E+01    0.491515350184276834E+01   -0.240349519007165835E-02    0.465510426418907718E+04
    0.153307549403574299E+02    0.371657812790939701E+01    0.352780459911571143E+01   -0.195218350379311456E-02    0.465510795200883695E+04
    0.248893569419566862E+00    0.457522121391380843E+01    0.454971343256444349E+01   -0.233774185723201189E-02    0.465512260691237771E+04
    0.198110658793340089E+01    0.570539564506873731E+01    0.322881510225186297E+01   -0.221688452497803556E-02    0.465512320552484925E+04
    0.100217867434757650E+02    0.436689896840834191E+01    0.459928655779360440E+01   -0.240145592436824540E-02    0.465513024492725526E+04
    0.618958204170747184E+01    0.875383414820552908E+01    0.497984665229640555E+01   -0.233452468961281578E-02    0.465514243944613099E+04
    0.123509855816232150E+02    0.694639336039233157E+01    0.460773402500842799E+01   -0.224940508610804724E-02    0.465516098568918096E+04
    0.135499263498246076E+02    0.528030821058574151E+01    0.306594413486856254E+01   -0.187315752825045756E-02    0.465522311153372448E+04
    0.902357133225318364E+01    0.435178662600588773E+01    0.298147238983927210E+01   -0.273923255348662575E-02    0.465525371743878804E+04
    0.112410856181571468E+02    0.755162593831180828E+01    0.377577653722452489E+01   -0.263455211002550094E-02    0.465525850331386573E+04
    0.907818015126244759E+01    0.347972307233500366E+01    0.369091364067855565E+01   -0.244208818530800009E-02    0.465526161952720668E+04
    0.136993313545793924E+02    0.945672863786611906E+01    0.417844151618320048E+01   -0.218484269663543618E-02    0.465527934697066485E+04
    0.172254587564282708E+02    0.894726188794275856E+01    0.400136237327480160E+01   -0.217050161486542770E-02    0.465533251251018100E+04
    0.147125778154029767E+02    0.965278897720679474E+01    0.411933407139376584E+01   -0.225106977790145990E-02    0.465533319876073074E+04
    0.831553031206364857E+01    0.513165396046461364E+01    0.373237416936026634E+01   -0.241038047512309728E-02    0.465533733729593587E+04
    0.175542101458106679E+02    0.383357992539914694E+01    0.291549643853722884E+01   -0.265740035006833963E-02    0.465544110922785148E+04
    0.756291652511119761E+01    0.906348078307276417E+01    0.368644758721772448E+01   -0.249363575306593699E-02    0.465547882871017100E+04
    0.103612138316890920E+02    0.980190481592694596E+01    0.325458513378349679E+01   -0.262893645872241954E-02    0.465556032342516755E+04
    0.144147627159264218E+02    0.916709317358660591E+01    0.355092838033885094E+01   -0.225211382869194843E-02    0.465562760043914386E+04
    0.143990320665235387E+02    0.719945933959133200E+01    0.314729835514442335E+01   -0.277778631220626515E-02    0.465536554081525173E+04
    0.130427320525378434E+02    0.322261768276253768E+01    0.298890992736249750E+01   -0.232508291050570470E-02    0.465554049469620441E+04
    0.802050357274469761E+01    0.863885217973469111E+01    0.316767851787576937E+01   -0.218437555142558804E-02    0.465551275578879995E+04
    0.148652949058874224E+02    0.355726595220692410E+01    0.275724139348639419E+01   -0.211134271353830005E-02    0.465540485162373807E+04
    0.130240490693389752E+02    0.589896513688434521E+01    0.291332348858511025E+01   -0.227096136910398538E-02    0.465552605584007415E+04
