    0.105385235239173181E+02    0.644425458503751614E+01    0.263722022633893616E+01   -0.119165406017973652E-02    0.465504584363028607E+04
    0.158749667844877145E+02    0.112218232894356085E+01    0.946063972295913658E+01   -0.343952547851367196E-02    0.465543829703996562E+04
    0.883063629300490227E+01    0.378161412890062831E+00    0.756694083322927824E+01   -0.142256235616078364E-02    0.465579051092522786E+04
    0.126373902940702472E+02    0.206135309860623739E+01    0.947097004961439026E+01   -0.331920696679333105E-02    0.465591310919400166E+04
    0.485225591782671550E+01    0.375709111471695723E+01    0.712102424337372142E+01   -0.146019766968219500E-02    0.465591890740727558E+04
    0.485225591782671550E+01    0.375709111471695723E+01    0.712102424337372142E+01   -0.146019766968219500E-02    0.465591890740727558E+04
    0.112730947465233378E+02    0.498186044661089866E+01    0.747030921952827853E+01   -0.330652358247673916E-02    0.465595983111289024E+04
    0.705689469546704906E+01    0.466256350038902845E+01    0.755167925877855950E+01   -0.147409042934498746E-02    0.465596467413292430E+04
    0.986571988708485215E+01    0.604538038061085192E+01    0.406013331922818210E+01   -0.140519209898370967E-02    0.465600865104204422E+04
    0.986571988708485215E+01    0.604538038061085192E+01    0.406013331922818210E+01   -0.140519209898370967E-02    0.465600865104204422E+04
    0.188329559570834277E+02    0.988526000163869512E+01    0.725956970742278429E+01   -0.155799803482170596E-02    0.465622996208175209E+04
    0.188329559570834277E+02    0.988526000163869512E+01    0.725956970742278429E+01   -0.155799803482170596E-02    0.465622996208175209E+04
    0.673434697218637357E+01    0.397616558912341400E+01    0.606629782364420933E+01   -0.319816023138064232E-02    0.465633181388458434E+04
    0.162518182031475007E+02    0.415751031037478480E+01    0.276932244218642865E+01   -0.126663097972223859E-02    0.465636053748339418E+04
    0.162278346084313618E+02    0.471392055826707623E+00    0.845001883729090153E+01   -0.161675898693525166E-02    0.465640045093099525E+04
    0.238518947779692958E+01    0.822892847814331851E+01    0.442515786802809963E+01   -0.324521726476789674E-02    0.465640437413370273E+04
    0.238518947779692958E+01    0.822892847814331851E+01    0.442515786802809963E+01   -0.324521726476789674E-02    0.465640437413370273E+04
    0.963123842054944213E+01    0.756135655123829586E+01    0.870820572203169263E+01   -0.168887912527182493E-02    0.465659519219855702E+04
    0.963123842054944213E+01    0.756135655123829586E+01    0.870820572203169263E+01   -0.168887912527182493E-02    0.465659519219855702E+04
    0.178973367296725137E+02    0.864127876822513308E+01    0.744522313060624086E+01   -0.173051495411891132E-02    0.465670017533321152E+04
    0.178973367296725137E+02    0.864127876822513308E+01    0.744522313060624086E+01   -0.173051495411891132E-02    0.465670017533321152E+04
    0.107697962686957034E+02    0.296613338868681442E+01    0.583259852386104427E+01   -0.173524671842806288E-02    0.465671595795596295E+04
    0.403330818976537220E+01    0.675692363207466862E+01    0.423986515908555717E+01   -0.164840271880162259E-02    0.465671991313539729E+04
    0.403330818976537220E+01    0.675692363207466862E+01    0.423986515908555717E+01   -0.164840271880162259E-02    0.465671991313539729E+04
    0.973681386575631791E+01    0.766815088904339071E+01    0.435401641294475006E+01   -0.313355230509326788E-02    0.465675158370226291E+04
    0.973681386575631791E+01    0.766815088904339071E+01    0.435401641294475006E+01   -0.313355230509326788E-02    0.465675158370226291E+04
    0.121859506493699943E+02    0.323994268512358197E+01    0.919237752052131185E+01   -0.175327468977526379E-02    0.465675417783446937E+04
    0.121859506493699943E+02    0.323994268512358197E+01    0.919237752052131185E+01   -0.175327468977526379E-02    0.465675417783446937E+04
    0.736113978339548947E+01    0.801278953600688126E+00    0.963381823377078206E+01   -0.180895129604774496E-02    0.465688028693143133E+04
    0.736113978339548947E+01    0.801278953600688126E+00    0.963381823377078206E+01   -0.180895129604774496E-02    0.465688028693143133E+04
    0.556508926355132250E+01    0.863802984679846197E+01    0.633000626973965907E+01   -0.180946589764496846E-02    0.465688725133529988E+04
    0.556508926355132250E+01    0.863802984679846197E+01    0.633000626973965907E+01   -0.180946589764496846E-02    0.465688725133529988E+04
    0.144675517408357877E+02    0.729643484500956419E+01    0.503354561471634909E+01   -0.179012154045521399E-02    0.465689346730342004E+04
    0.144675517408357877E+02    0.729643484500956419E+01    0.503354561471634909E+01   -0.179012154045521399E-02    0.465689346730342004E+04
    0.959505429091456108E+01    0.120270765516571609E+01    0.379411759377425817E+01   -0.297439036433067017E-02    0.465703410810111473E+04
    0.959505429091456108E+01    0.120270765516571609E+01    0.379411759377425817E+01   -0.297439036433067017E-02    0.465703410810111473E+04
    0.192596795965000105E+02    0.820603310328057134E+01    0.370726182985641017E+01   -0.160996090356724242E-02    0.465705985890222655E+04
    0.192596795965000105E+02    0.820603310328057134E+01    0.370726182985641017E+01   -0.160996090356724242E-02    0.465705985890222655E+04
    0.697594942523977579E+01    0.587882494956311175E+00    0.272169157798751726E+01   -0.305534847141830657E-02    0.465708941956425952E+04
    0.117901159374183599E+02    0.608283683557954813E+01    0.263942094839609354E+01   -0.335689475004274929E-02    0.465710293524221379E+04
    0.117901159374183599E+02    0.608283683557954813E+01    0.263942094839609354E+01   -0.335689475004274929E-02    0.465710293524221379E+04
    0.204360094362571454E+01    0.491971812612157677E+01    0.962360628416898933E+01   -0.287659843405507765E-02    0.465712608093478229E+04
    0.204360094362571454E+01    0.491971812612157677E+01    0.962360628416898933E+01   -0.287659843405507765E-02    0.465712608093478229E+04
    0.352429450281175516E+01    0.106213495234923316E+01    0.780706772075800970E+01   -0.286384644287240864E-02    0.465714900566129381E+04
    0.113631610773011751E+02    0.668928690771695322E+01    0.386717909427010653E+01   -0.308050708923013339E-02    0.465715205548770882E+04
    0.113631610773011751E+02    0.668928690771695322E+01    0.386717909427010653E+01   -0.308050708923013339E-02    0.465715205548770882E+04
    0.150576642835597330E+02    0.694168550818279151E+01    0.635352812955972723E+01   -0.286138081930742416E-02    0.465715757254596610E+04
    0.150576642835597330E+02    0.694168550818279151E+01    0.635352812955972723E+01   -0.286138081930742416E-02    0.465715757254596610E+04
    0.123872060551432703E+02    0.539715626880452248E+01    0.622421003540944540E+01   -0.284680350509902702E-02    0.465718284930464051E+04
    0.123872060551432703E+02    0.539715626880452248E+01    0.622421003540944540E+01   -0.284680350509902702E-02    0.465718284930464051E+04
    0.118929645565436850E+02    0.554135306346533629E+00    0.538657178531941128E+01   -0.200074379198811325E-02    0.465723479803617010E+04
    0.118929645565436850E+02    0.554135306346533629E+00    0.538657178531941128E+01   -0.200074379198811325E-02    0.465723479803617010E+04
    0.137841641272449049E+02    0.322649491242089059E+01    0.521742219056610601E+01   -0.210061683678308686E-02    0.465738216466818812E+04
    0.134959753171799335E+02    0.568665535175681924E+01    0.433221165815933240E+01   -0.201499198563226400E-02    0.465741760266746951E+04
    0.134959753171799335E+02    0.568665535175681924E+01    0.433221165815933240E+01   -0.201499198563226400E-02    0.465741760266746951E+04
    0.192635570118012254E+02    0.514166601799413758E+01    0.632455439326850311E+01   -0.267148251368076739E-02    0.465741824514530163E+04
    0.685686701503883800E+01    0.303805295907185302E+01    0.233990085421187644E+01   -0.257856541558276753E-02    0.465742902488458276E+04
    0.685686701503883800E+01    0.303805295907185302E+01    0.233990085421187644E+01   -0.257856541558276753E-02    0.465742902488458276E+04
    0.159505106734764937E+02    0.196486904374444327E+00    0.782355111012801885E+01   -0.264394096091846720E-02    0.465744108634830991E+04
    0.159505106734764937E+02    0.196486904374444327E+00    0.782355111012801885E+01   -0.264394096091846720E-02    0.465744108634830991E+04
    0.116418699669904804E+02    0.896548452597036771E+01    0.507309205831507271E+01   -0.211289871379305438E-02    0.465744272505174104E+04
    0.116418699669904804E+02    0.896548452597036771E+01    0.507309205831507271E+01   -0.211289871379305438E-02    0.465744272505174104E+04
    0.173027956844847282E+02    0.686294347818856743E+01    0.600379157804510655E+01   -0.264814309785499358E-02    0.465744542421736696E+04
    0.173027956844847282E+02    0.686294347818856743E+01    0.600379157804510655E+01   -0.264814309785499358E-02    0.465744542421736696E+04
    0.167150164810258808E+02    0.609377766162019086E+01    0.666068583612086584E+01   -0.218605847670882980E-02    0.465745144945493485E+04
    0.167150164810258808E+02    0.609377766162019086E+01    0.666068583612086584E+01   -0.218605847670882980E-02    0.465745144945493485E+04
    0.377059332392098989E-01    0.782561558271062729E+01    0.706943547522319804E+01   -0.262180231633979410E-02    0.465746144639840350E+04
    0.325500920331225618E+01    0.162329313417236509E+01    0.654293854062545677E+01   -0.220993856054851889E-02    0.465746916246787805E+04
    0.325500920331225618E+01    0.162329313417236509E+01    0.654293854062545677E+01   -0.220993856054851889E-02    0.465746916246787805E+04
    0.896241785420332882E+01    0.652382844005721907E+01    0.647144241480289395E+01   -0.223035658512937829E-02    0.465748616790735196E+04
    0.879435013061870130E+01    0.321417232011779186E+01    0.921492671512041994E+01   -0.226393272527869449E-02    0.465750346423517476E+04
    0.100609117868622189E+02    0.904126667894712632E+01    0.795364339471157678E+01   -0.226490690571212738E-02    0.465750424758454756E+04
    0.184169531309632539E+02    0.241561829641665771E+01    0.447664688480971762E+01   -0.261919564463730659E-02    0.465751649607373110E+04
    0.184169531309632539E+02    0.241561829641665771E+01    0.447664688480971762E+01   -0.261919564463730659E-02    0.465751649607373110E+04
    0.135717485124861383E+02    0.991191598943779972E+01    0.688481655228490297E+01   -0.252909424008207484E-02    0.465752016476888002E+04
    0.191218132295392493E+02    0.104356682960613045E+01    0.552835485888332379E+01   -0.252962307212178938E-02    0.465752082890349175E+04
    0.208012476382674549E+01    0.833081455910473423E+01    0.719598451895808466E+01   -0.251863382845241013E-02    0.465752369581035782E+04
    0.132375239800570128E+02    0.967628574899151594E+01    0.464311282308632656E+01   -0.210428296324793873E-02    0.465752388495208106E+04
    0.190743088058951642E+02    0.733378279528719723E+01    0.855140847470487486E+01   -0.251167121220474687E-02    0.465752527397923768E+04
    0.396932622167104787E+01    0.911589249704573490E+01    0.839890692811784234E+01   -0.231147823520039264E-02    0.465752557440050259E+04
    0.137375622362716161E+02    0.564344964131369586E+00    0.800944391950718071E+01   -0.231989571896595859E-02    0.465752848449597514E+04
    0.559093633660650724E+01    0.711698885017530358E+01    0.631413481805913790E+01   -0.250955825988830039E-02    0.465753114151827504E+04
    0.664010760341345740E+01    0.953022710447320165E+01    0.749533579543625450E+01   -0.249180007601212949E-02    0.465753271931725612E+04
    0.399557639155075028E+01    0.155682044132388286E+01    0.408419656986630386E+01   -0.219792228190385242E-02    0.465753593215567162E+04
    0.141235867856031501E+02    0.643946518706436954E+01    0.500068661085872002E+01   -0.258940591930290065E-02    0.465753756897191397E+04
    0.126934446682521180E+02    0.609531222361417058E+01    0.870928963457947347E+01   -0.245957423995912805E-02    0.465753990495850667E+04
    0.869699003519932745E+01    0.782497302417247464E+00    0.847427880267778733E+01   -0.239926204697149537E-02    0.465754395718793057E+04
    0.377226985613486132E+01    0.903216327037635480E+01    0.787474289813821926E+01   -0.242128156825760499E-02    0.465754439302867104E+04
    0.178120902771075578E+02    0.783369744546368041E-01    0.488736961515935775E+01   -0.242546009889976766E-02    0.465754466350530038E+04
    0.290455480134596389E+01    0.852433333197929577E+00    0.565950901981664423E+01   -0.241267998583083454E-02    0.465754649150109253E+04
    0.930051908465824972E+01    0.922581040709701128E+01    0.630208417889936001E+01   -0.244772368594470269E-02    0.465754819557683641E+04
    0.105966884862335746E+02    0.903786757368910543E+01    0.533107783930067569E+01   -0.228376506765692877E-02    0.465755372692508445E+04
    0.991379357484652068E+01    0.118986870976446779E+01    0.390144808849715297E+01   -0.259812780353774198E-02    0.465756100889681329E+04
    0.722205809234481322E+01    0.221836789041226723E+01    0.376306540069995599E+01   -0.210632360067175561E-02    0.465756325205388566E+04
    0.104137532452168102E+02    0.217425352455003917E+01    0.440340957200718108E+01   -0.234400979174376189E-02    0.465759311011416958E+04
    0.176175212608783944E+02    0.296957875334613819E+01    0.371231028986183098E+01   -0.207145377799777819E-02    0.465760187951912121E+04
    0.613810368346171309E+01    0.991858525950483028E+01    0.516118914857196387E+01   -0.240561988267495863E-02    0.465760805637577050E+04
    0.138954927295399733E+01    0.893663626166024017E+01    0.496169470162763560E+01   -0.248310742979884758E-02    0.465762283555913746E+04
    0.168719678378394704E+02    0.850387035434486904E+00    0.313632822477226902E+01   -0.268593777007830603E-02    0.465764244078974207E+04
    0.120064600182277204E+02    0.777503253387428472E+01    0.393849797243681188E+01   -0.197912846040770862E-02    0.465765232215120704E+04
    0.103519177535307279E+02    0.778701325101438790E+01    0.447930103028119042E+01   -0.251005286444594411E-02    0.465770262315053697E+04
    0.101079324074740882E+02    0.614552495736275883E+01    0.428318777466264677E+01   -0.255215374384498705E-02    0.465770972006908141E+04
    0.324470254743231434E+01    0.277589227262058014E+01    0.367038064147082999E+01   -0.221916294180246609E-02    0.465775166166436611E+04
    0.116075859795593104E+02    0.403596141474709125E+01    0.368570048940425110E+01   -0.272231909807441053E-02    0.465776323539789337E+04
    0.116856460389526351E+02    0.789800096344405134E+01    0.431816282648609651E+01   -0.240350263171029699E-02    0.465778282146863876E+04
    0.757785735681425976E+01    0.637065586255119776E+01    0.335759607025211793E+01   -0.181768693937178760E-02    0.465781844936017842E+04
    0.123861986704503089E+02    0.243105238603230300E+00    0.229070467888608853E+01   -0.239167394470063410E-02    0.465782454493605655E+04
    0.116057281247346933E+01    0.230941987391765569E+01    0.328288816177462373E+01   -0.241409035267492467E-02    0.465788159325022571E+04
    0.733363963156879173E+01    0.549238416850745281E+01    0.264011513847209400E+01   -0.213390916834743649E-02    0.465791772545818185E+04
    0.181207338389077002E+02    0.739022263513631295E+01    0.400699624354793471E+01   -0.233111584520950821E-02    0.465791819914353982E+04
    0.257622966204161230E+01    0.734830134908748001E+01    0.309510135387679952E+01   -0.201285569485232241E-02    0.465796117568745831E+04
    0.613889770569179838E+01    0.711676582437577387E+01    0.371842707783710757E+01   -0.210289148548747917E-02    0.465797965906760874E+04
    0.125704891926968045E+02    0.799237657846644289E+01    0.370005900805842103E+01   -0.275637962913344303E-02    0.465805051575465950E+04
    0.117488201372173062E+02    0.819764551329870805E+01    0.368122792617262817E+01   -0.211858450963675615E-02    0.465812317197358607E+04
    0.388525283236739494E+01    0.922239951621820886E+01    0.383813939167627538E+01   -0.251391463860561881E-02    0.465817531476863951E+04
    0.714992103056146355E+01    0.617080000994148392E+01    0.361584305228881320E+01   -0.238353198075735850E-02    0.465819652578868136E+04
    0.147860077925875704E+02    0.492335940403097272E+01    0.326029655076024660E+01   -0.228667257942183344E-02    0.465844105019614926E+04
    0.158691169739755917E+02    0.352427423203822254E+01    0.274451953615842825E+01   -0.289033411216321756E-02    0.465849947743003395E+04
    0.507254136722315430E+01    0.593742369987726271E+01    0.297813064029619312E+01   -0.217496472045697331E-02    0.465852647977088782E+04
    0.122742728054023011E+02    0.776118114165903350E+01    0.342746399645397481E+01   -0.225780505648343066E-02    0.465854279236164439E+04
    0.873288420912373198E+01    0.691335615710188556E+01    0.326355341186869197E+01   -0.236649326888049849E-02    0.465871029246031321E+04
    0.122391983622004510E+02    0.792238515144028632E+01    0.314530375432021003E+01   -0.240817128005699210E-02    0.465901240037146999E+04
    0.147245511788555667E+02    0.942438202862464536E+01    0.305148742548677987E+01   -0.243644269423359816E-02    0.465922852325231361E+04
    0.113084707772164315E+02    0.810725862261674024E+01    0.307990518253065737E+01   -0.226625646813194415E-02    0.465900307126623557E+04
    0.175227518217335287E+02    0.728490341915202144E+01    0.279514535772587713E+01   -0.276729745441595121E-02    0.465893393447689050E+04
    0.125667970197848522E+02    0.906027937294526531E+01    0.315248565936268044E+01   -0.230604424479508019E-02    0.465906805474581961E+04
    0.965478946701950136E+01    0.886837820150341116E+01    0.310566831057948534E+01   -0.271819598312494914E-02    0.465896009817332197E+04
    0.145438305745147858E+02    0.671623648884513180E+01    0.277618670849322768E+01   -0.263603965740077939E-02    0.465895550219399593E+04
    0.116118315053123986E+02    0.701189199857940704E+01    0.303189332491618835E+01   -0.277327818101802404E-02    0.465884547925187599E+04
    0.197120714793948828E+02    0.960922945385327765E+01    0.319776454687029954E+01   -0.224338663544254580E-02    0.465907583569028156E+04
    0.168203169947375173E+02    0.341871711244377652E+01    0.266678426719442285E+01   -0.244734359933462819E-02    0.465888131308238735E+04
    0.126851828573942722E+02    0.769233037285669496E+01    0.283686928417164985E+01   -0.244141296560973498E-02    0.465898493341259746E+04
    0.142152798417443353E+02    0.885189498314879408E+01    0.317583678929032942E+01   -0.232880984860017737E-02    0.465905690717741982E+04
    0.848628099461545204E+01    0.857265032187236109E+01    0.297524058410732906E+01   -0.269943110639458972E-02    0.465889544575085165E+04
