   -0.115412169186083317E-01   -0.587421848363779003E-02    0.734918985519832813E+00    0.817389195235016928E+02    0.638626739907874441E+00    0.224602716034240180E+01    0.191538024109989635E+01   -0.172324049302628526E+06
   -0.110693383237695196E-01   -0.637243272101871254E-02    0.733913643745869981E+00    0.816467758702646336E+02    0.621556852291094586E+00    0.227866295874819258E+01    0.195197848887741121E+01   -0.172321134198756423E+06
   -0.104034413390785407E-01   -0.480234524677177182E-02    0.734996715659020028E+00    0.815408448795295016E+02    0.621570166778992572E+00    0.228268804347888610E+01    0.194733166101023825E+01   -0.172320615095117362E+06
   -0.125386852283761296E-01   -0.526353294581596767E-02    0.731866852211362717E+00    0.814283884613673905E+02    0.617099940619685428E+00    0.229155093700139290E+01    0.195463632116771890E+01   -0.172320580781395052E+06
   -0.114077521855729322E-01   -0.491208422930546323E-02    0.732809039448956590E+00    0.818420720366063392E+02    0.616398676937144008E+00    0.229161158281189259E+01    0.195734820832399103E+01   -0.172320211532510380E+06
   -0.129090486749340750E-01   -0.650105166113261815E-02    0.733415452452218508E+00    0.816545211699743021E+02    0.610414039554624810E+00    0.230448146629074335E+01    0.197207622960237816E+01   -0.172320205236891983E+06
   -0.112811869026239065E-01   -0.589240525960994625E-02    0.733418003526746354E+00    0.817622735726030641E+02    0.614242166523638722E+00    0.229884663785730670E+01    0.195905753988304676E+01   -0.172320081133410305E+06
   -0.129745091767961805E-01   -0.584371511334894934E-02    0.736282078555324793E+00    0.816144898508338059E+02    0.617302200443857418E+00    0.229126275266460633E+01    0.195671651296974503E+01   -0.172319999322604330E+06
   -0.123299962486228109E-01   -0.519505401522150044E-02    0.734977211400774877E+00    0.816764172411991609E+02    0.609686984644580487E+00    0.230667766255562601E+01    0.196751543984535360E+01   -0.172319998219506699E+06
   -0.130644644714943050E-01   -0.515908519796290897E-02    0.733022580834613580E+00    0.814461698634222842E+02    0.623971933685393276E+00    0.227516185684822103E+01    0.194388642691042990E+01   -0.172319734326771693E+06
   -0.130578637591426232E-01   -0.511843601061480469E-02    0.733771246622418216E+00    0.816225290912346111E+02    0.614269010040000007E+00    0.229639447864287627E+01    0.195699821951475905E+01   -0.172319729861848027E+06
   -0.121139320520288387E-01   -0.477735272303536716E-02    0.734335786711796557E+00    0.817336041160717315E+02    0.614955154426843897E+00    0.229723633006297812E+01    0.195905413307062948E+01   -0.172319651502113295E+06
   -0.112520857467756363E-01   -0.512031235079151662E-02    0.733583421716274220E+00    0.814220732895075798E+02    0.618916066870331516E+00    0.228794097455328505E+01    0.194718249143653699E+01   -0.172319645710570127E+06
   -0.128335308264363509E-01   -0.727238945846822235E-02    0.734137274161650977E+00    0.816329333918200462E+02    0.618944337498058550E+00    0.228591407156540605E+01    0.195156073969074684E+01   -0.172319427098106971E+06
   -0.128091042235944277E-01   -0.660567777077135810E-02    0.733658438839535521E+00    0.817239292533898691E+02    0.611043735944842403E+00    0.230363477278853246E+01    0.196773389334135529E+01   -0.172319417268991616E+06
   -0.120920022797377149E-01   -0.506752429395869886E-02    0.733079234197557383E+00    0.814657308292253930E+02    0.625134439462977087E+00    0.227387526530340800E+01    0.193670065123204682E+01   -0.172318989238270588E+06
   -0.112818165815111865E-01   -0.536811842151215055E-02    0.734329819692135954E+00    0.815934030007118452E+02    0.625338687151406614E+00    0.227506710187154715E+01    0.194240364279317368E+01   -0.172318939422021591E+06
   -0.119986274951918662E-01   -0.667092229101457455E-02    0.735412559512233166E+00    0.814109533184805798E+02    0.618949041011176981E+00    0.228530596381373252E+01    0.195343147321311417E+01   -0.172318875373755087E+06
   -0.126618301429375097E-01   -0.605124525183178223E-02    0.732341728772418099E+00    0.816910835955015244E+02    0.612416019100325504E+00    0.230032560265162500E+01    0.196637581797037231E+01   -0.172318871907361172E+06
   -0.116270376261850619E-01   -0.540068331240112394E-02    0.734767297156932786E+00    0.816346447078171735E+02    0.634257064738311560E+00    0.225658686661454144E+01    0.192086590568846782E+01   -0.172318816638254764E+06
   -0.111150835263603247E-01   -0.481631670667688385E-02    0.734779252509097702E+00    0.815745973184848054E+02    0.627140922787213451E+00    0.226886584580324646E+01    0.193417151427801515E+01   -0.172318741392737313E+06
   -0.130205600772275477E-01   -0.559462470581643251E-02    0.735521190929809832E+00    0.815104783453300143E+02    0.615194982755949527E+00    0.229573308340118354E+01    0.195688364393460335E+01   -0.172318707121065556E+06
   -0.120206900654819416E-01   -0.531943033317642307E-02    0.736531745138465865E+00    0.816592136641686608E+02    0.619854113786107663E+00    0.228468354468157608E+01    0.194681454418646749E+01   -0.172318614231990912E+06
   -0.129585762524803815E-01   -0.460068801754892013E-02    0.733181273501001707E+00    0.815470483477031962E+02    0.617325857208266382E+00    0.229058795410141514E+01    0.195548803230560120E+01   -0.172318582889637677E+06
   -0.120936273596615306E-01   -0.552870965083085506E-02    0.735659680781344028E+00    0.815337596558533733E+02    0.628803690376603441E+00    0.226802459694867364E+01    0.193462455043883019E+01   -0.172318554594461253E+06
   -0.115451314506330067E-01   -0.554959203091088399E-02    0.734340419618420670E+00    0.817011935929198359E+02    0.608858989290650410E+00    0.230779685079871655E+01    0.197231122255541735E+01   -0.172318527133418247E+06
   -0.127421079827423085E-01   -0.533396368929641308E-02    0.734849617806734745E+00    0.814852196808240592E+02    0.628410758994002006E+00    0.226554652658232314E+01    0.193666046504233647E+01   -0.172318337136121263E+06
   -0.107391147604395699E-01   -0.554368437415859658E-02    0.735278934397631367E+00    0.816541156142123583E+02    0.626208154961735652E+00    0.227323181637830585E+01    0.193524510824953522E+01   -0.172318303997622250E+06
   -0.125624013774187707E-01   -0.505169874176538032E-02    0.734122840863884685E+00    0.815201479237022539E+02    0.621460182820039453E+00    0.228242653126560935E+01    0.195063572983008671E+01   -0.172318122087130148E+06
   -0.106452734462376391E-01   -0.510513786819927901E-02    0.734691895600099398E+00    0.816192355398381579E+02    0.615994590211661919E+00    0.229372093320960602E+01    0.195641721963864890E+01   -0.172318119343145663E+06
   -0.110143603518575127E-01   -0.563442525883300904E-02    0.732874767139518601E+00    0.816075322116008977E+02    0.620739446228524727E+00    0.228384028555065210E+01    0.194544889320427083E+01   -0.172318083658442978E+06
   -0.124356048959947604E-01   -0.667779626490891398E-02    0.733517124331285020E+00    0.815126607563766896E+02    0.625304380726839359E+00    0.227252912872978241E+01    0.194137409792851190E+01   -0.172318063870633807E+06
   -0.109667758551128241E-01   -0.463318299322889107E-02    0.733847344874569041E+00    0.815687353423129622E+02    0.620942496029744606E+00    0.228317141496521625E+01    0.194942797999696538E+01   -0.172318039731033816E+06
   -0.131820038847591161E-01   -0.576977169817189089E-02    0.735638868953932823E+00    0.816721573778219607E+02    0.615094507967752224E+00    0.229453773889301038E+01    0.196067792535285834E+01   -0.172317993320484151E+06
   -0.136986734383385995E-01   -0.592092611701302857E-02    0.734493260391830605E+00    0.817527635375925286E+02    0.622546958592369859E+00    0.227878747363107648E+01    0.194668827457386806E+01   -0.172317908615032095E+06
   -0.125386764545729612E-01   -0.562396664094263164E-02    0.734553066151810707E+00    0.818973521011522365E+02    0.619449715891390418E+00    0.228639269529377387E+01    0.194965519764483575E+01   -0.172317895189572882E+06
   -0.127413907762822416E-01   -0.635608483496084061E-02    0.735221658351038920E+00    0.817127075535852470E+02    0.618654340681975445E+00    0.228715717929352991E+01    0.195652139439782258E+01   -0.172317869650596258E+06
   -0.115703777715336544E-01   -0.579757234651793497E-02    0.736621844193093178E+00    0.817248497289556042E+02    0.626559730350137234E+00    0.227157023367474586E+01    0.193602758140936637E+01   -0.172317833999246446E+06
   -0.125778701052475204E-01   -0.477572221491653470E-02    0.734765275982668831E+00    0.816387250095117167E+02    0.629262971263177984E+00    0.226572706288407444E+01    0.192894762398750697E+01   -0.172317829864344298E+06
   -0.126206538603200850E-01   -0.627183585386526660E-02    0.734592183035022606E+00    0.817176109721666677E+02    0.611739845070290778E+00    0.230191903454814328E+01    0.196638718896915976E+01   -0.172317749813037401E+06
   -0.111218633734601717E-01   -0.579809331184578600E-02    0.733218074308042089E+00    0.815653937801377253E+02    0.626260846000770144E+00    0.227179515003905896E+01    0.193639512206197018E+01   -0.172317740553252515E+06
   -0.122954388167738852E-01   -0.667937953206875282E-02    0.735207622644086234E+00    0.815430220502495473E+02    0.622874056749689986E+00    0.227709003511519414E+01    0.194828768105946115E+01   -0.172317732673354738E+06
   -0.131746930153206019E-01   -0.626063004593657105E-02    0.733787172454588132E+00    0.816911359623575635E+02    0.618389638001283437E+00    0.228959304999999347E+01    0.195041717192227093E+01   -0.172317679418664251E+06
   -0.121797875089216731E-01   -0.574637720463214326E-02    0.736294933471916213E+00    0.817495679296459485E+02    0.626708319519056589E+00    0.227188491413036919E+01    0.193358859062409705E+01   -0.172317674277350307E+06
   -0.130815502355221026E-01   -0.644043505714243011E-02    0.735461469437558968E+00    0.815667703267691735E+02    0.620201639996232901E+00    0.228496831533078026E+01    0.195091114760995210E+01   -0.172317630102781055E+06
   -0.122671589127864855E-01   -0.515555940752741772E-02    0.734571066127630123E+00    0.815618479949541353E+02    0.615662043816118110E+00    0.229187045006276158E+01    0.195702737267370597E+01   -0.172317604457828013E+06
   -0.130625024272489794E-01   -0.554089807009131019E-02    0.736279515762519043E+00    0.815826822571672068E+02    0.622141644441986386E+00    0.227972345697878609E+01    0.194801527212537851E+01   -0.172317582424866356E+06
   -0.128278843302168360E-01   -0.538109771416656838E-02    0.734210726945123016E+00    0.815549968829275826E+02    0.612014716738420117E+00    0.229999071875240624E+01    0.196724751008913623E+01   -0.172317517316372570E+06
   -0.122540783293320112E-01   -0.545039558049755478E-02    0.735765301487683265E+00    0.818053251579865162E+02    0.629290760839751662E+00    0.226512137942226532E+01    0.193277178934499894E+01   -0.172317433409448364E+06
   -0.130272954789661683E-01   -0.510857660446197449E-02    0.733891607957434911E+00    0.816069039257440068E+02    0.613923165088403944E+00    0.229738751166302535E+01    0.196382601423943770E+01   -0.172317426827009738E+06
   -0.122702396879424986E-01   -0.530053378777912542E-02    0.736517685859090721E+00    0.816454209938086848E+02    0.629567744477971813E+00    0.226433276850834231E+01    0.193116147991078080E+01   -0.172317383784209291E+06
   -0.122702396879424986E-01   -0.530053378777912542E-02    0.736517685859090721E+00    0.816454209938086848E+02    0.629567744477971813E+00    0.226433276850834231E+01    0.193116147991078080E+01   -0.172317383784209291E+06
   -0.127320573635290469E-01   -0.497637109702378337E-02    0.733904658621559403E+00    0.816323216908089222E+02    0.613117726655779127E+00    0.229811168404800092E+01    0.196329555319066240E+01   -0.172317352594180527E+06
   -0.113364910262192722E-01   -0.498537081260205881E-02    0.734361751494411630E+00    0.817197246195593578E+02    0.616624939686725715E+00    0.229093780614006093E+01    0.195455840225261901E+01   -0.172317314439502399E+06
   -0.117877048708915997E-01   -0.629747389104162031E-02    0.734064380258186322E+00    0.816279156112213116E+02    0.616792148335054580E+00    0.228898823360353720E+01    0.195874645191250285E+01   -0.172317149945014215E+06
   -0.117877048708915997E-01   -0.629747389104162031E-02    0.734064380258186322E+00    0.816279156112213116E+02    0.616792148335054580E+00    0.228898823360353720E+01    0.195874645191250285E+01   -0.172317149945014215E+06
   -0.116547061264291301E-01   -0.514942270888988762E-02    0.734077587595118208E+00    0.814296568602735533E+02    0.627129562441498756E+00    0.226968942698582188E+01    0.193542135853220931E+01   -0.172317096191895922E+06
   -0.116547061264291301E-01   -0.514942270888988762E-02    0.734077587595118208E+00    0.814296568602735533E+02    0.627129562441498756E+00    0.226968942698582188E+01    0.193542135853220931E+01   -0.172317096191895922E+06
   -0.127047274432359088E-01   -0.692798395127363492E-02    0.734635222594899107E+00    0.816140697800494621E+02    0.621983129434459769E+00    0.227968841393727706E+01    0.194513271759083350E+01   -0.172317036645162996E+06
   -0.121986602452572902E-01   -0.552560220020353356E-02    0.734501145750752205E+00    0.816581983774027549E+02    0.610676676131380103E+00    0.230331504558926303E+01    0.196972254750493025E+01   -0.172316978677016246E+06
   -0.124249267279688581E-01   -0.559866357421509846E-02    0.734855307696621329E+00    0.815577573383035030E+02    0.618871192447961072E+00    0.228911245462550772E+01    0.195166973587196679E+01   -0.172316942977185565E+06
   -0.129010568389671919E-01   -0.494066570143440222E-02    0.735519214753190820E+00    0.815290856817243110E+02    0.619452270831903795E+00    0.228561556712400504E+01    0.195135194038346027E+01   -0.172316833829610929E+06
   -0.129010568389671919E-01   -0.494066570143440222E-02    0.735519214753190820E+00    0.815290856817243110E+02    0.619452270831903795E+00    0.228561556712400504E+01    0.195135194038346027E+01   -0.172316833829610929E+06
   -0.109590331761144025E-01   -0.607820091331189114E-02    0.735346230522472499E+00    0.815079122439898924E+02    0.624078546513015420E+00    0.227595452041465895E+01    0.194237813952716021E+01   -0.172316808353936125E+06
   -0.123914054884166295E-01   -0.599902360868658641E-02    0.735404053503579513E+00    0.815641048570144278E+02    0.616142962836712105E+00    0.229199552516605731E+01    0.195498314831210096E+01   -0.172316759844989865E+06
   -0.123248941192199962E-01   -0.607331758803725513E-02    0.735902685447193727E+00    0.814378383880771395E+02    0.625903326266854410E+00    0.227249768207897729E+01    0.193939698314035924E+01   -0.172316739603612776E+06
   -0.123248941192199962E-01   -0.607331758803725513E-02    0.735902685447193727E+00    0.814378383880771395E+02    0.625903326266854410E+00    0.227249768207897729E+01    0.193939698314035924E+01   -0.172316739603612776E+06
   -0.121892858369503417E-01   -0.565095973437634239E-02    0.733276815888409317E+00    0.817026398502899838E+02    0.626058123469504957E+00    0.227257567420426909E+01    0.193525344294166990E+01   -0.172316723334787559E+06
   -0.122497858806671651E-01   -0.508529541840993787E-02    0.734237397821342563E+00    0.815513120975595456E+02    0.616578783873346858E+00    0.229360230822023015E+01    0.195496664228428485E+01   -0.172316704503142741E+06
   -0.114574603430224707E-01   -0.525136212987252840E-02    0.733388656050639076E+00    0.817603342528903170E+02    0.617932973255769014E+00    0.228801152575048272E+01    0.195478882796501852E+01   -0.172316689044918021E+06
   -0.114574603430224707E-01   -0.525136212987252840E-02    0.733388656050639076E+00    0.817603342528903170E+02    0.617932973255769014E+00    0.228801152575048272E+01    0.195478882796501852E+01   -0.172316689044918021E+06
   -0.125078849451809599E-01   -0.571205438483167720E-02    0.732980380210936033E+00    0.817569214728900278E+02    0.622522541168428312E+00    0.227881138776146175E+01    0.194554977261891904E+01   -0.172316687605941086E+06
   -0.125078849451809599E-01   -0.571205438483167720E-02    0.732980380210936033E+00    0.817569214728900278E+02    0.622522541168428312E+00    0.227881138776146175E+01    0.194554977261891904E+01   -0.172316687605941086E+06
   -0.127598132794855840E-01   -0.569435976870148308E-02    0.733328852077300919E+00    0.815629885473868796E+02    0.619060977508891663E+00    0.228470242778611876E+01    0.195362768331492420E+01   -0.172316656512181886E+06
   -0.117451134581280613E-01   -0.493695789091385707E-02    0.734943629714101876E+00    0.816789313780010247E+02    0.622827913992330728E+00    0.227985693885322371E+01    0.194040149760171321E+01   -0.172316632544973050E+06
   -0.116602526385276798E-01   -0.606333649379251372E-02    0.736331179346419562E+00    0.816131573886844706E+02    0.624087576737255678E+00    0.227595680652073007E+01    0.194349895906586911E+01   -0.172316594102758478E+06
   -0.116602526385276798E-01   -0.606333649379251372E-02    0.736331179346419562E+00    0.816131573886844706E+02    0.624087576737255678E+00    0.227595680652073007E+01    0.194349895906586911E+01   -0.172316594102758478E+06
   -0.117865011334678735E-01   -0.530864872899537796E-02    0.733999902397820980E+00    0.816689360747385678E+02    0.626252950067128888E+00    0.227346036784138494E+01    0.193444886531420712E+01   -0.172316520288277097E+06
   -0.117865011334678735E-01   -0.530864872899537796E-02    0.733999902397820980E+00    0.816689360747385678E+02    0.626252950067128888E+00    0.227346036784138494E+01    0.193444886531420712E+01   -0.172316520288277097E+06
   -0.123007964393225706E-01   -0.669884218411456994E-02    0.735477244661344232E+00    0.816712271352512857E+02    0.620427515673545149E+00    0.228369482291997894E+01    0.195046298019110576E+01   -0.172316483956402430E+06
   -0.123007964393225706E-01   -0.669884218411456994E-02    0.735477244661344232E+00    0.816712271352512857E+02    0.620427515673545149E+00    0.228369482291997894E+01    0.195046298019110576E+01   -0.172316483956402430E+06
   -0.114520363100182876E-01   -0.623760896230724643E-02    0.734387340875664707E+00    0.817231739505051280E+02    0.618846424193906564E+00    0.228830479815074739E+01    0.195108253757075545E+01   -0.172316460995641799E+06
   -0.122705918743587911E-01   -0.570683870097390966E-02    0.735783417434268339E+00    0.814536287921112745E+02    0.627988323354423117E+00    0.226831248405029573E+01    0.193526071373158581E+01   -0.172316458997324138E+06
   -0.122705918743587911E-01   -0.570683870097390966E-02    0.735783417434268339E+00    0.814536287921112745E+02    0.627988323354423117E+00    0.226831248405029573E+01    0.193526071373158581E+01   -0.172316458997324138E+06
   -0.124221512442110552E-01   -0.581990120362691106E-02    0.735002537682182933E+00    0.815018900857656945E+02    0.617752215332502352E+00    0.228744193873430257E+01    0.195414998091133585E+01   -0.172316439290806913E+06
   -0.111083873498659148E-01   -0.525847710921932641E-02    0.734377471771231471E+00    0.817017964604318792E+02    0.618292925786052106E+00    0.228928281009040990E+01    0.195154552022238126E+01   -0.172316438538400282E+06
   -0.121136290777067775E-01   -0.636341264184849941E-02    0.734610838418371381E+00    0.816909115000279655E+02    0.616560994135143425E+00    0.229046500775170614E+01    0.195577396600670150E+01   -0.172316431335589965E+06
   -0.132195230164929567E-01   -0.595466320701885498E-02    0.735392383753487922E+00    0.816204308773109375E+02    0.619493340438885043E+00    0.228562713158095132E+01    0.194867608947976989E+01   -0.172316361403927760E+06
   -0.116421967000084788E-01   -0.506927678404359237E-02    0.734183968286332922E+00    0.815758254556235727E+02    0.622069577869232226E+00    0.227980525787071375E+01    0.194980468896468029E+01   -0.172316325402195216E+06
   -0.116421967000084788E-01   -0.506927678404359237E-02    0.734183968286332922E+00    0.815758254556235727E+02    0.622069577869232226E+00    0.227980525787071375E+01    0.194980468896468029E+01   -0.172316325402195216E+06
   -0.125793543019665343E-01   -0.654806842926472510E-02    0.734167082563648377E+00    0.815494985515480124E+02    0.623513769552534458E+00    0.227827422516393518E+01    0.193974120867622357E+01   -0.172316316192203783E+06
   -0.125793543019665343E-01   -0.654806842926472510E-02    0.734167082563648377E+00    0.815494985515480124E+02    0.623513769552534458E+00    0.227827422516393518E+01    0.193974120867622357E+01   -0.172316316192203783E+06
   -0.127660246743776639E-01   -0.591106736264464597E-02    0.734430390163186342E+00    0.815893852963092883E+02    0.619227545530286028E+00    0.228486833122245825E+01    0.194931266743768572E+01   -0.172316299347250344E+06
   -0.113611426468545884E-01   -0.653590438633183061E-02    0.734912174812604846E+00    0.815126747297165934E+02    0.622243659437033636E+00    0.227994913416610512E+01    0.194536301234167808E+01   -0.172316285382859263E+06
   -0.122808176024237995E-01   -0.546591591900581243E-02    0.735614402637156717E+00    0.815320863381808181E+02    0.620908005118649409E+00    0.228161573653322858E+01    0.194594877299061197E+01   -0.172316273960963154E+06
   -0.114918546295445564E-01   -0.653325339003429754E-02    0.734192706126026051E+00    0.815043529856882145E+02    0.618082770150575556E+00    0.228844336485940358E+01    0.195419339079273535E+01   -0.172316226039707166E+06
   -0.114918546295445564E-01   -0.653325339003429754E-02    0.734192706126026051E+00    0.815043529856882145E+02    0.618082770150575556E+00    0.228844336485940358E+01    0.195419339079273535E+01   -0.172316226039707166E+06
   -0.117931126054656808E-01   -0.617469344009337687E-02    0.734107741013382498E+00    0.814683475272057223E+02    0.616645650195750017E+00    0.229267342796563112E+01    0.195491735660347099E+01   -0.172316166473437508E+06
   -0.117931126054656808E-01   -0.617469344009337687E-02    0.734107741013382498E+00    0.814683475272057223E+02    0.616645650195750017E+00    0.229267342796563112E+01    0.195491735660347099E+01   -0.172316166473437508E+06
   -0.113558731239599957E-01   -0.471884513278264441E-02    0.734531224506609126E+00    0.815562561689324781E+02    0.621462569025443057E+00    0.228086360920493991E+01    0.194804698425404355E+01   -0.172316134682648728E+06
   -0.113558731239599957E-01   -0.471884513278264441E-02    0.734531224506609126E+00    0.815562561689324781E+02    0.621462569025443057E+00    0.228086360920493991E+01    0.194804698425404355E+01   -0.172316134682648728E+06
   -0.120952713771630901E-01   -0.507500916610579417E-02    0.734606821276315713E+00    0.816051895810348498E+02    0.618881839627222874E+00    0.228873200836714341E+01    0.195117099194592347E+01   -0.172316110076178826E+06
   -0.121447801732210495E-01   -0.507739334356705190E-02    0.734121392695916253E+00    0.816063079616964160E+02    0.612896060563857481E+00    0.229985098803584398E+01    0.196402517692669321E+01   -0.172316066414835193E+06
   -0.121447801732210495E-01   -0.507739334356705190E-02    0.734121392695916253E+00    0.816063079616964160E+02    0.612896060563857481E+00    0.229985098803584398E+01    0.196402517692669321E+01   -0.172316066414835193E+06
   -0.122723575818429118E-01   -0.581115347510223826E-02    0.734801803339707016E+00    0.816357274976730025E+02    0.620198995988058055E+00    0.228179334399058709E+01    0.195230607635103448E+01   -0.172315998602334817E+06
   -0.122723575818429118E-01   -0.581115347510223826E-02    0.734801803339707016E+00    0.816357274976730025E+02    0.620198995988058055E+00    0.228179334399058709E+01    0.195230607635103448E+01   -0.172315998602334817E+06
   -0.123396911861013772E-01   -0.559901093040385094E-02    0.734112874349616584E+00    0.816314938640580436E+02    0.630314474197733121E+00    0.226382871171820188E+01    0.192991243893956033E+01   -0.172315976484953455E+06
   -0.123396911861013772E-01   -0.559901093040385094E-02    0.734112874349616584E+00    0.816314938640580436E+02    0.630314474197733121E+00    0.226382871171820188E+01    0.192991243893956033E+01   -0.172315976484953455E+06
   -0.108730680274178298E-01   -0.542618934509028848E-02    0.734151990441563207E+00    0.816302070583373904E+02    0.620680643013897804E+00    0.228366204316443611E+01    0.194923894951516119E+01   -0.172315941890514572E+06
   -0.108730680274178298E-01   -0.542618934509028848E-02    0.734151990441563207E+00    0.816302070583373904E+02    0.620680643013897804E+00    0.228366204316443611E+01    0.194923894951516119E+01   -0.172315941890514572E+06
   -0.126453143828864946E-01   -0.569417910123420391E-02    0.734473319355428034E+00    0.815187115369865438E+02    0.626847939829568324E+00    0.226930521535894325E+01    0.193901639835034945E+01   -0.172315927391307923E+06
   -0.114248190836938289E-01   -0.573637870083468400E-02    0.733111043922165750E+00    0.816765333320537508E+02    0.616338312072796102E+00    0.229225487876270773E+01    0.195804374925766256E+01   -0.172315874152176606E+06
   -0.114248190836938289E-01   -0.573637870083468400E-02    0.733111043922165750E+00    0.816765333320537508E+02    0.616338312072796102E+00    0.229225487876270773E+01    0.195804374925766256E+01   -0.172315874152176606E+06
   -0.113349635302614944E-01   -0.571485882029695250E-02    0.734795436441947780E+00    0.815883707958615076E+02    0.623042002910425330E+00    0.227669436440755479E+01    0.194679111972702712E+01   -0.172315784428251529E+06
   -0.131550893532929505E-01   -0.520263851273434184E-02    0.734156318230523519E+00    0.815568355537650405E+02    0.624641384269783995E+00    0.227520080302360483E+01    0.194030764158949731E+01   -0.172315760227992752E+06
   -0.130444583552547667E-01   -0.586784267409701504E-02    0.733594777964104772E+00    0.815304024518487722E+02    0.621625896390134769E+00    0.228161598863068260E+01    0.194808937143731442E+01   -0.172315749382887763E+06
   -0.128494118905660166E-01   -0.526108331382685833E-02    0.735055173772228398E+00    0.816160651886036419E+02    0.616985483694623915E+00    0.229120581330272488E+01    0.195645512869838067E+01   -0.172315746202966606E+06
   -0.128494118905660166E-01   -0.526108331382685833E-02    0.735055173772228398E+00    0.816160651886036419E+02    0.616985483694623915E+00    0.229120581330272488E+01    0.195645512869838067E+01   -0.172315746202966606E+06
   -0.123371345862478068E-01   -0.523338328450796003E-02    0.735060885793422436E+00    0.817879221097895623E+02    0.623562359786884568E+00    0.227778579197865305E+01    0.194124803328489115E+01   -0.172315740233526041E+06
   -0.123371345862478068E-01   -0.523338328450796003E-02    0.735060885793422436E+00    0.817879221097895623E+02    0.623562359786884568E+00    0.227778579197865305E+01    0.194124803328489115E+01   -0.172315740233526041E+06
   -0.126193629551359168E-01   -0.625628991590247620E-02    0.735046370485634482E+00    0.815144139072393017E+02    0.618236358169758082E+00    0.228707321066151392E+01    0.195501971097504046E+01   -0.172315730239697092E+06
   -0.126193629551359168E-01   -0.625628991590247620E-02    0.735046370485634482E+00    0.815144139072393017E+02    0.618236358169758082E+00    0.228707321066151392E+01    0.195501971097504046E+01   -0.172315730239697092E+06
   -0.125798726223304985E-01   -0.566716922239824013E-02    0.734791081739482488E+00    0.817415212498201811E+02    0.617864084099697397E+00    0.228781236595715587E+01    0.195365993495976586E+01   -0.172315702040675329E+06
   -0.125798726223304985E-01   -0.566716922239824013E-02    0.734791081739482488E+00    0.817415212498201811E+02    0.617864084099697397E+00    0.228781236595715587E+01    0.195365993495976586E+01   -0.172315702040675329E+06
   -0.128558384287179705E-01   -0.607628234908338775E-02    0.734276398098372418E+00    0.814787244665549082E+02    0.621635053704933660E+00    0.228140778492831986E+01    0.194860291215441683E+01   -0.172315658628564765E+06
   -0.121818281525789118E-01   -0.489632130296754117E-02    0.735265464056137796E+00    0.816487236890102395E+02    0.619955671842401856E+00    0.228363513724682576E+01    0.195153479563589882E+01   -0.172315633148383524E+06
   -0.121818281525789118E-01   -0.489632130296754117E-02    0.735265464056137796E+00    0.816487236890102395E+02    0.619955671842401856E+00    0.228363513724682576E+01    0.195153479563589882E+01   -0.172315633148383524E+06
   -0.126112328566976573E-01   -0.628136638217594110E-02    0.734378180306747508E+00    0.815028444649722559E+02    0.619656437385675551E+00    0.228397681166336630E+01    0.195263048615016621E+01   -0.172315620394857397E+06
   -0.127190931994002748E-01   -0.617295755484801190E-02    0.734526657764255742E+00    0.816952791123022450E+02    0.627283479812130507E+00    0.226898978024778497E+01    0.193493897063511144E+01   -0.172315594837107026E+06
   -0.127190931994002748E-01   -0.617295755484801190E-02    0.734526657764255742E+00    0.816952791123022450E+02    0.627283479812130507E+00    0.226898978024778497E+01    0.193493897063511144E+01   -0.172315594837107026E+06
   -0.122888665100824666E-01   -0.585976268040134564E-02    0.734692262375830296E+00    0.814819164945753869E+02    0.625614061695985768E+00    0.227274462255935328E+01    0.194171502503158711E+01   -0.172315561598230357E+06
   -0.124415006616864186E-01   -0.586999830782802563E-02    0.734511943282920132E+00    0.817466173293845486E+02    0.628419576174634620E+00    0.226744804149205992E+01    0.193303124036459306E+01   -0.172315496562149347E+06
   -0.124415006616864186E-01   -0.586999830782802563E-02    0.734511943282920132E+00    0.817466173293845486E+02    0.628419576174634620E+00    0.226744804149205992E+01    0.193303124036459306E+01   -0.172315496562149347E+06
   -0.116035749228930295E-01   -0.640976040562204075E-02    0.734605343277897171E+00    0.816724973156265719E+02    0.617371814103626848E+00    0.228987464534938212E+01    0.195581793960739536E+01   -0.172315482851956243E+06
   -0.116035749228930295E-01   -0.640976040562204075E-02    0.734605343277897171E+00    0.816724973156265719E+02    0.617371814103626848E+00    0.228987464534938212E+01    0.195581793960739536E+01   -0.172315482851956243E+06
   -0.125946053409905674E-01   -0.529543566625195576E-02    0.735937349009210928E+00    0.816494290124213222E+02    0.622488035348636615E+00    0.227909507573353975E+01    0.194597570539632203E+01   -0.172315474853243359E+06
   -0.125946053409905674E-01   -0.529543566625195576E-02    0.735937349009210928E+00    0.816494290124213222E+02    0.622488035348636615E+00    0.227909507573353975E+01    0.194597570539632203E+01   -0.172315474853243359E+06
   -0.129434061156983166E-01   -0.529079926398429243E-02    0.733611869584478216E+00    0.815988693464941690E+02    0.622508352183609115E+00    0.227925905972534526E+01    0.194644798101096850E+01   -0.172315473415669432E+06
   -0.120079693729959955E-01   -0.639455503729732030E-02    0.733750071959212269E+00    0.814872789823601380E+02    0.621120563679858573E+00    0.228206534564824359E+01    0.194708034586403245E+01   -0.172315460310358583E+06
   -0.119644078666262879E-01   -0.547600302333319574E-02    0.734653562459856690E+00    0.817841471275557836E+02    0.621763994756709737E+00    0.227985720664977976E+01    0.194843943145271981E+01   -0.172315438239222422E+06
   -0.119644078666262879E-01   -0.547600302333319574E-02    0.734653562459856690E+00    0.817841471275557836E+02    0.621763994756709737E+00    0.227985720664977976E+01    0.194843943145271981E+01   -0.172315438239222422E+06
   -0.129144505358289134E-01   -0.519605039387556738E-02    0.734546296964475820E+00    0.815256411106490475E+02    0.622324613040253882E+00    0.228053951875884930E+01    0.194347246643962102E+01   -0.172315348058251955E+06
   -0.129144505358289134E-01   -0.519605039387556738E-02    0.734546296964475820E+00    0.815256411106490475E+02    0.622324613040253882E+00    0.228053951875884930E+01    0.194347246643962102E+01   -0.172315348058251955E+06
   -0.114569421079793819E-01   -0.584964218262103673E-02    0.734665786532698872E+00    0.814377445810103353E+02    0.622009101093960237E+00    0.228029785369876237E+01    0.194587396270291890E+01   -0.172315314272777206E+06
   -0.119834438502761705E-01   -0.633253587706216793E-02    0.734780693811492691E+00    0.816235986916165217E+02    0.616466284178213697E+00    0.229247036579359342E+01    0.195554169980230608E+01   -0.172315307449488464E+06
   -0.118524950579181540E-01   -0.560129421101911683E-02    0.733443516447225274E+00    0.815527447266165240E+02    0.615884811853134262E+00    0.229342443524770978E+01    0.195585848195342438E+01   -0.172315285391163663E+06
   -0.118524950579181540E-01   -0.560129421101911683E-02    0.733443516447225274E+00    0.815527447266165240E+02    0.615884811853134262E+00    0.229342443524770978E+01    0.195585848195342438E+01   -0.172315285391163663E+06
   -0.128732753992279302E-01   -0.604713209168690480E-02    0.734461383606026752E+00    0.817607483641878190E+02    0.620906007717605624E+00    0.228308404712740831E+01    0.194836144739780970E+01   -0.172315277995240409E+06
   -0.119411658719054958E-01   -0.536075228740026839E-02    0.734483680837970443E+00    0.816037574662364449E+02    0.623870583410294444E+00    0.227485655619542371E+01    0.194348901620433145E+01   -0.172315228363505157E+06
   -0.119411658719054958E-01   -0.536075228740026839E-02    0.734483680837970443E+00    0.816037574662364449E+02    0.623870583410294444E+00    0.227485655619542371E+01    0.194348901620433145E+01   -0.172315228363505157E+06
   -0.127664593651070808E-01   -0.512866588921152226E-02    0.733958652411614842E+00    0.816690421668054682E+02    0.624538060196864864E+00    0.227536399571348191E+01    0.194051362837825137E+01   -0.172315222631500743E+06
   -0.120906367421861477E-01   -0.589680041515600745E-02    0.734050376508197155E+00    0.814439837281868222E+02    0.620946756050144932E+00    0.228360243320761702E+01    0.194622397863272245E+01   -0.172315210395229340E+06
   -0.119126230098664451E-01   -0.610544645067810556E-02    0.734915895286475829E+00    0.815825369180110727E+02    0.623413990303165133E+00    0.227665694485308467E+01    0.194115455159576422E+01   -0.172315202711368911E+06
   -0.127077635549046886E-01   -0.609730389349595614E-02    0.734615454050348893E+00    0.816445848395017464E+02    0.618735349339424867E+00    0.228652983887174033E+01    0.195540050948476374E+01   -0.172315152671322838E+06
   -0.123531138225319442E-01   -0.574821232316880849E-02    0.734687013196353211E+00    0.815687323826445407E+02    0.621820326056455652E+00    0.227901496224802758E+01    0.194653204509926625E+01   -0.172315131483793200E+06
   -0.124875444060761984E-01   -0.526420734561544763E-02    0.734270170510217923E+00    0.815405701587083769E+02    0.623322272463897264E+00    0.227920479682130539E+01    0.194183222847910053E+01   -0.172315115247876180E+06
   -0.121298373812639554E-01   -0.640270217766271584E-02    0.734009832601275169E+00    0.816150374329457122E+02    0.623608945692005867E+00    0.227732825064534783E+01    0.194065109735839725E+01   -0.172315111923996388E+06
   -0.121298373812639554E-01   -0.640270217766271584E-02    0.734009832601275169E+00    0.816150374329457122E+02    0.623608945692005867E+00    0.227732825064534783E+01    0.194065109735839725E+01   -0.172315111923996388E+06
   -0.120519705988495415E-01   -0.584746932984142251E-02    0.734303077951486083E+00    0.814267159288556428E+02    0.618910293716058435E+00    0.228629183398663516E+01    0.195285500389597955E+01   -0.172315072951270879E+06
   -0.121314339271308951E-01   -0.601363808561997983E-02    0.735384158870403537E+00    0.816043674329829685E+02    0.623249170803003016E+00    0.227766241312909123E+01    0.194642184994365697E+01   -0.172315053051573894E+06
   -0.121314339271308951E-01   -0.601363808561997983E-02    0.735384158870403537E+00    0.816043674329829685E+02    0.623249170803003016E+00    0.227766241312909123E+01    0.194642184994365697E+01   -0.172315053051573894E+06
   -0.124330295200219317E-01   -0.563584932683786326E-02    0.735581514177498175E+00    0.816712411584907017E+02    0.628239210703810613E+00    0.226727037034957757E+01    0.193369205156956236E+01   -0.172315023172750283E+06
   -0.126947541507736600E-01   -0.609395025986137102E-02    0.734766886011038789E+00    0.816240584406389047E+02    0.625232674378938813E+00    0.227388279137420168E+01    0.193684278396680720E+01   -0.172315011982400261E+06
   -0.118211060557661812E-01   -0.615691285815379765E-02    0.735425960745362817E+00    0.816258500957258093E+02    0.623427911968330140E+00    0.227813691800581131E+01    0.194396235116445171E+01   -0.172315003570585570E+06
   -0.125909124671783751E-01   -0.606126142662625697E-02    0.734944724010818673E+00    0.815176118141302481E+02    0.620594828402761700E+00    0.228406766427385577E+01    0.194952460487793711E+01   -0.172314962268263655E+06
   -0.117640776670712138E-01   -0.583654207331134062E-02    0.735334107650821300E+00    0.816761191187419087E+02    0.621984902481045099E+00    0.228161224615155511E+01    0.194531922750797270E+01   -0.172314959586061130E+06
   -0.115583215433892536E-01   -0.605441944040363816E-02    0.733667602825825771E+00    0.815951381753805407E+02    0.618616900314370888E+00    0.228814061709251071E+01    0.195099556593601586E+01   -0.172314952551172843E+06
   -0.123488637425405497E-01   -0.605446013944876179E-02    0.734211582897385862E+00    0.817110111780978485E+02    0.616982309225188708E+00    0.228984248153785952E+01    0.195734116120064616E+01   -0.172314941813657206E+06
   -0.116110054660098858E-01   -0.614067348997183928E-02    0.734703974612923583E+00    0.814818934930650869E+02    0.621181224609930416E+00    0.228220447840795382E+01    0.194830179719857211E+01   -0.172314935848628666E+06
   -0.117075745635847554E-01   -0.612921533828788417E-02    0.734711570212187359E+00    0.814961597510929892E+02    0.618179054729587230E+00    0.228784827621066356E+01    0.195388548516623284E+01   -0.172314891057969333E+06
   -0.122566017083737683E-01   -0.610658863129335139E-02    0.735146477224333017E+00    0.814934560478041590E+02    0.622830592727129484E+00    0.227876187665380447E+01    0.194594836667226345E+01   -0.172314869942863967E+06
   -0.117122283690111600E-01   -0.590980305958582492E-02    0.734870114373180394E+00    0.815583807618958900E+02    0.623938554277751134E+00    0.227529200110100627E+01    0.194470798041949244E+01   -0.172314868972004508E+06
   -0.119912765098528183E-01   -0.553308903041134937E-02    0.733983109325858418E+00    0.815694684942751707E+02    0.621267529400847729E+00    0.228127082113211532E+01    0.194526741536943382E+01   -0.172314857792740571E+06
   -0.130238136407713825E-01   -0.567540101305175765E-02    0.734188711148775264E+00    0.816872952164228394E+02    0.623825640408763760E+00    0.227727196851454750E+01    0.194177766233381477E+01   -0.172314851552740321E+06
   -0.118054427695045705E-01   -0.587595123748302188E-02    0.735170311686205169E+00    0.816593755576382136E+02    0.616689952226864402E+00    0.229082053882661851E+01    0.195689092994819447E+01   -0.172314814018086443E+06
   -0.123475401438190163E-01   -0.551026130782496671E-02    0.734476966035788159E+00    0.815741434669773184E+02    0.616030311927859398E+00    0.229172368914890701E+01    0.195974225006741842E+01   -0.172314796796560200E+06
   -0.122190006989905710E-01   -0.574117168273756504E-02    0.733693195406700527E+00    0.815793531989958609E+02    0.624725499857976430E+00    0.227604702109430601E+01    0.193983849831835720E+01   -0.172314796259865951E+06
   -0.122725506691423857E-01   -0.532421340989807767E-02    0.734409809712595729E+00    0.816035076231108576E+02    0.618437865493567274E+00    0.228903093106757982E+01    0.195051039253915004E+01   -0.172314745775084681E+06
   -0.117837580771943135E-01   -0.576001088808616828E-02    0.735393438358646234E+00    0.816637124861696577E+02    0.618643376698675529E+00    0.228756076759917981E+01    0.195123389825661242E+01   -0.172314715478337865E+06
   -0.124164393303220610E-01   -0.593194659029475796E-02    0.734074603632326683E+00    0.817300567469461186E+02    0.619495498217785157E+00    0.228461230633295864E+01    0.195162160333199042E+01   -0.172314715005492908E+06
   -0.113824021596118530E-01   -0.597862094940801014E-02    0.734348731855064329E+00    0.816020683272528231E+02    0.623677935372558667E+00    0.227771945593471070E+01    0.194170238580579779E+01   -0.172314713109286851E+06
   -0.125660342602128359E-01   -0.537563682903030061E-02    0.735298417521234038E+00    0.816020153079812900E+02    0.626296505211011212E+00    0.227148902940033892E+01    0.193605199312337950E+01   -0.172314679366445111E+06
   -0.127048293385210384E-01   -0.550722579346343659E-02    0.734860458351582979E+00    0.816014948438532315E+02    0.616810987438969005E+00    0.229106315729554844E+01    0.195696217539584327E+01   -0.172314678913892742E+06
   -0.125275523667089505E-01   -0.596145456627597374E-02    0.734275311587782031E+00    0.817109049846331459E+02    0.623408892630770484E+00    0.227751085854151603E+01    0.194117683459353851E+01   -0.172314640951834095E+06
   -0.125423144861659883E-01   -0.593155749349795307E-02    0.734011770818810971E+00    0.814707434844039824E+02    0.620540294976214324E+00    0.228324888578272134E+01    0.194974257216080149E+01   -0.172314630621578224E+06
   -0.121575474413526813E-01   -0.606862866347074748E-02    0.735410802441536005E+00    0.815592875958522683E+02    0.620298037089534349E+00    0.228352408601456203E+01    0.195102773674593100E+01   -0.172314589989734261E+06
   -0.121476030799552628E-01   -0.594924490797921549E-02    0.735402188916176591E+00    0.817048355333336218E+02    0.625484739875642570E+00    0.227263062184935372E+01    0.193951908778609883E+01   -0.172314566672969464E+06
   -0.121946548272883603E-01   -0.598893280159272685E-02    0.734570262749889569E+00    0.817313259077134262E+02    0.625154686300550932E+00    0.227348750079634865E+01    0.194086242599748804E+01   -0.172314542241795687E+06
   -0.125939760996346371E-01   -0.596682818644885937E-02    0.733930068297161453E+00    0.815824709141460289E+02    0.621091466370153888E+00    0.228292920096799357E+01    0.194518427717072195E+01   -0.172314505600595876E+06
   -0.125575767498859476E-01   -0.588988763921789726E-02    0.734558601437744985E+00    0.817232908697654352E+02    0.619244974220023336E+00    0.228589744189829913E+01    0.195293823392592403E+01   -0.172314454696252797E+06
   -0.118770501965088683E-01   -0.556812281597380502E-02    0.733872566483840139E+00    0.816363811976572578E+02    0.618043624480856368E+00    0.228780519353402179E+01    0.195301814337992141E+01   -0.172314447849028074E+06
   -0.127170967953841151E-01   -0.582083793191740754E-02    0.735043652488836408E+00    0.817185368142146444E+02    0.624814167526903108E+00    0.227461809122582892E+01    0.194074374082889389E+01   -0.172314445278606756E+06
   -0.126942289891920357E-01   -0.598839724144160576E-02    0.734368294300595581E+00    0.816608436382905296E+02    0.625188418029862802E+00    0.227325777800672046E+01    0.194050113104928124E+01   -0.172314420065277896E+06
   -0.124514956450124184E-01   -0.570377079334421621E-02    0.734010837565132412E+00    0.815210383062193813E+02    0.621407831208275252E+00    0.228249826217158969E+01    0.194776764126283530E+01   -0.172314418167449679E+06
   -0.127346749981013946E-01   -0.609968352923870132E-02    0.734325994123499415E+00    0.816366263338682216E+02    0.621043301069723053E+00    0.228189964557057179E+01    0.194981987589828920E+01   -0.172314362237077643E+06
   -0.123379133463942664E-01   -0.608006756355246834E-02    0.734638066007765822E+00    0.815930917175183339E+02    0.618874232604361696E+00    0.228737185654453246E+01    0.195343980021173413E+01   -0.172314328598358552E+06
   -0.125578810581280682E-01   -0.550535204420464150E-02    0.735238717327223457E+00    0.816015511702138241E+02    0.624244312972664805E+00    0.227626244629889207E+01    0.193937600093648532E+01   -0.172314321824476036E+06
   -0.122174720244740496E-01   -0.564233611375701636E-02    0.734065718996785854E+00    0.817419461345509148E+02    0.621510817772105928E+00    0.228131765531932462E+01    0.194804380473845895E+01   -0.172314287440981308E+06
   -0.122534750949763876E-01   -0.559887774521573758E-02    0.735367214113539891E+00    0.816622934377714813E+02    0.624512365083336740E+00    0.227442108202871651E+01    0.194248033363151840E+01   -0.172314274871034228E+06
   -0.118444488054863326E-01   -0.538572626032840594E-02    0.734696010846998204E+00    0.816479122289360788E+02    0.618840528952091962E+00    0.228607104615611512E+01    0.195184698321207728E+01   -0.172314253744007117E+06
   -0.122250829624399020E-01   -0.583080233028300445E-02    0.733992454151725982E+00    0.815331327925786411E+02    0.621608079296085303E+00    0.228198449494115296E+01    0.194760802955197310E+01   -0.172314234589250496E+06
   -0.121395654153782472E-01   -0.527162355668650551E-02    0.735275507131281980E+00    0.815873774331828230E+02    0.625572055307954233E+00    0.227329243654059621E+01    0.193886891871963285E+01   -0.172314229493014253E+06
   -0.116428065096932862E-01   -0.596639039841319850E-02    0.734931773912203878E+00    0.816577167473688235E+02    0.621453351677556887E+00    0.228080974188904761E+01    0.194690737590267959E+01   -0.172314224329413933E+06
   -0.123005133113887541E-01   -0.546480866723020060E-02    0.734357293091144836E+00    0.816449405114131253E+02    0.617229016897577143E+00    0.228938639182158399E+01    0.195615903167700766E+01   -0.172314197139775468E+06
   -0.121310520644531111E-01   -0.536722972255674301E-02    0.733773600575784224E+00    0.816271623926346308E+02    0.619064411515149016E+00    0.228735803397627002E+01    0.195141829445140269E+01   -0.172314143925062031E+06
   -0.122832123207016319E-01   -0.548506598386168821E-02    0.734671458817629963E+00    0.816616453927072143E+02    0.617649575413570351E+00    0.228862303080976348E+01    0.195560554053551461E+01   -0.172314136861654697E+06
   -0.126565420898821293E-01   -0.559422164660971621E-02    0.733884536144786770E+00    0.816397452064546627E+02    0.622848128339570928E+00    0.227877713664603387E+01    0.194514567490436874E+01   -0.172314086527135485E+06
   -0.121336927138966915E-01   -0.543030121028945535E-02    0.734580212010133016E+00    0.815898766298315650E+02    0.618130009304891481E+00    0.228750825576703232E+01    0.195385182989708905E+01   -0.172314022973175102E+06
   -0.123428520165629624E-01   -0.568007706043036076E-02    0.734034621608336435E+00    0.816046410007441807E+02    0.621212417157066876E+00    0.228318917443210267E+01    0.194679631668227926E+01   -0.172313940684084140E+06
   -0.121644366533267181E-01   -0.532071134424950271E-02    0.734380293925918748E+00    0.817076906449562159E+02    0.621331831109720567E+00    0.228189974523858341E+01    0.194771339026175139E+01   -0.172313932446444785E+06
   -0.120523544188691437E-01   -0.567958767764193025E-02    0.734990865837031881E+00    0.815958951728036936E+02    0.625219291759675166E+00    0.227339824108192579E+01    0.193937614833105143E+01   -0.172313687269856047E+06
   -0.124453292162708205E-01   -0.593771401174149858E-02    0.734584795679585678E+00    0.816512152292062581E+02    0.620971649155790839E+00    0.228282142139195221E+01    0.194708720223884657E+01   -0.172313496305971057E+06
   -0.123084011476552700E-01   -0.582503863408132851E-02    0.734231500346295807E+00    0.816278403082335018E+02    0.622145846656902646E+00    0.228057411386959474E+01    0.194529543816939388E+01   -0.172313334635121370E+06
   -0.123558860442719680E-01   -0.571768365166524812E-02    0.734941191498025059E+00    0.815451609289315371E+02    0.621621439306215384E+00    0.228109698809017392E+01    0.194720430528816491E+01   -0.172313521841969661E+06
   -0.117933964093436296E-01   -0.589000323540401962E-02    0.735046858610576948E+00    0.816898829497498156E+02    0.623523804024968431E+00    0.227728318288209231E+01    0.194303726222401507E+01   -0.172313950075844856E+06
   -0.123778243110903140E-01   -0.570672001543310464E-02    0.734632457131475958E+00    0.816304861661726164E+02    0.624772804607261367E+00    0.227529702782595900E+01    0.193998571422481292E+01   -0.172313582326383912E+06
   -0.117786431721880400E-01   -0.559940462063012075E-02    0.734188229771914003E+00    0.816636623685022727E+02    0.620847732850713707E+00    0.228239137621022703E+01    0.194875031743630256E+01   -0.172313624328363629E+06
   -0.121716981491878790E-01   -0.590172936450161518E-02    0.734865393730257832E+00    0.816209850536141204E+02    0.620741250473404449E+00    0.228403594189445824E+01    0.194688397059868734E+01   -0.172313949586666393E+06
   -0.125070452262951784E-01   -0.570637749526595271E-02    0.734795278613838088E+00    0.816542017200626447E+02    0.623215879907817460E+00    0.227761489075120105E+01    0.194440715400691788E+01   -0.172313543377777416E+06
   -0.127425083765233382E-01   -0.601844501895310111E-02    0.734966127641518252E+00    0.816250032006137474E+02    0.621375866511413522E+00    0.228168572823698002E+01    0.194708585503434484E+01   -0.172313904770285852E+06
   -0.127846862056983212E-01   -0.578077994962065272E-02    0.735078701762258424E+00    0.815986139090982761E+02    0.621897862412888136E+00    0.228045971489416566E+01    0.194544870793613200E+01   -0.172313972440741694E+06
   -0.121978706684165873E-01   -0.594079326589943332E-02    0.734156536208938393E+00    0.816951589905838205E+02    0.621176373542389748E+00    0.228175624151410705E+01    0.194839916990833539E+01   -0.172313770105830306E+06
   -0.121260744481610592E-01   -0.568639140543396489E-02    0.734326197398136760E+00    0.815376672631420831E+02    0.621620029480849490E+00    0.228114200147300616E+01    0.194522325501998483E+01   -0.172313689722487325E+06
   -0.117196573377143631E-01   -0.590875309554551777E-02    0.734973237696655790E+00    0.815281960284916352E+02    0.623014481385922192E+00    0.227835731971619637E+01    0.194363245063858114E+01   -0.172313988107314304E+06
