    0.989860477985690768E+00    0.180519293863500323E+02    0.265346172471627659E-01    0.399032049669855349E+01   -0.252897121928790797E-01   -0.102502971661352937E+01   -0.218001713363502131E+04
    0.995735553991466071E+00    0.694424740573927863E+02    0.267259217743975805E-01    0.399376069308427217E+01   -0.250630454888278731E-01   -0.102594811013626352E+01   -0.217879429799615900E+04
    0.992852640360637473E+00    0.793595068104158514E+02    0.267487492156182720E-01    0.399545219065113866E+01   -0.268098112749211755E-01   -0.102642483934099604E+01   -0.217845372792901617E+04
    0.999127940876839205E+00    0.232400727068458295E+02    0.265342933786244829E-01    0.399569280952430628E+01   -0.245848996079908177E-01   -0.102434224622790193E+01   -0.217798497948116255E+04
    0.964297264603882986E+00    0.410705271244400052E+02    0.264981540815117066E-01    0.399526860575580312E+01   -0.270523961602677811E-01   -0.102615940491054047E+01   -0.217733517884080084E+04
    0.997375458535013193E+00    0.221167632368532843E+02    0.264119571508244257E-01    0.399943769327023935E+01   -0.259805208394153879E-01   -0.102339490676146383E+01   -0.217732159206633332E+04
    0.977048811524847460E+00    0.564549751162699494E+02    0.265707356060554643E-01    0.399364076411863911E+01   -0.270955264422911221E-01   -0.102641541317742790E+01   -0.217728592433999347E+04
    0.969558333771171510E+00    0.598544239016609438E+02    0.264798645295408266E-01    0.399560823645188989E+01   -0.270106457163964662E-01   -0.102652968433492831E+01   -0.217720729007126647E+04
    0.991422456622579551E+00    0.202911515986830295E+02    0.265292945150135302E-01    0.399504930848965767E+01   -0.244018616716937219E-01   -0.102582861215805599E+01   -0.217714620852576991E+04
    0.988011906811191221E+00    0.324038190494321583E+02    0.265264808414838668E-01    0.399559589392920245E+01   -0.275271585070727687E-01   -0.102695129477560276E+01   -0.217709275150824942E+04
    0.984607443243941338E+00    0.544343989483934010E+02    0.265530707200853887E-01    0.399362022199405375E+01   -0.259846314994564530E-01   -0.102627878994260402E+01   -0.217622870509267977E+04
    0.989641167405708178E+00    0.821470824189775470E+02    0.266987475149426147E-01    0.399719046438845949E+01   -0.263843660194031798E-01   -0.102567816530128608E+01   -0.217589914598425821E+04
    0.979141222820496537E+00    0.433100094618139124E+02    0.264944198953121421E-01    0.399746759571655685E+01   -0.247520011451993968E-01   -0.102439690480903778E+01   -0.217569549047987857E+04
    0.970499754258388636E+00    0.683072115980685055E+02    0.265654751786424496E-01    0.399844055527027420E+01   -0.256334575490287861E-01   -0.102446514228504371E+01   -0.217564701189298103E+04
    0.996500384368466108E+00    0.771772711239722469E+02    0.264482272696830792E-01    0.399760682809271595E+01   -0.253542185312828697E-01   -0.102690214607817221E+01   -0.217563908600199647E+04
    0.998397403508408887E+00    0.111994734722272838E+03    0.266533291220279675E-01    0.399859247758783898E+01   -0.250927350199922454E-01   -0.102466408798429831E+01   -0.217554679212462725E+04
    0.999224826482087769E+00    0.177223011775322803E+02    0.265274754340954107E-01    0.399986359110262812E+01   -0.253212708831865550E-01   -0.102364872628084758E+01   -0.217551341488527851E+04
    0.959422145004907412E+00    0.619979435832445418E+02    0.266328394847899844E-01    0.399981769630467632E+01   -0.268482806021089516E-01   -0.102571931446906661E+01   -0.217550312182951620E+04
    0.993504017290095964E+00    0.249217121915536310E+02    0.264457997746138096E-01    0.399776381111097256E+01   -0.247649868631502415E-01   -0.102502628324012002E+01   -0.217540579312402042E+04
    0.967582798155806278E+00    0.649618389710025355E+02    0.265148469905043885E-01    0.399783754036901096E+01   -0.266942245986926743E-01   -0.102625549441404162E+01   -0.217528366723396812E+04
    0.982910931247024999E+00    0.706945825595818604E+02    0.265037915964777410E-01    0.399624179094138032E+01   -0.256136945882566788E-01   -0.102607488473819464E+01   -0.217522679592012173E+04
    0.985452331255795899E+00    0.546931795635206157E+02    0.266989380156896529E-01    0.399651523203292669E+01   -0.260328092910686211E-01   -0.102600305454984153E+01   -0.217520005131808557E+04
    0.985774581636126523E+00    0.326933806735329640E+02    0.265184412116223241E-01    0.399648533805281936E+01   -0.253487450258653262E-01   -0.102700576079252826E+01   -0.217515844161556379E+04
    0.991693141471238437E+00    0.902906281524178951E+02    0.266126032394521372E-01    0.399682369675416416E+01   -0.260149098283954418E-01   -0.102585245000847780E+01   -0.217509749956321684E+04
    0.982084019566964228E+00    0.665705168559880320E+02    0.265549155334204624E-01    0.399782085867396164E+01   -0.265868712589607745E-01   -0.102726697869960670E+01   -0.217502763055691139E+04
    0.982084019566964228E+00    0.665705168559880320E+02    0.265549155334204624E-01    0.399782085867396164E+01   -0.265868712589607745E-01   -0.102726697869960670E+01   -0.217502763055691139E+04
    0.987210747726869009E+00    0.211728779855546883E+02    0.267105135108984953E-01    0.399801971109997512E+01   -0.263654715577040163E-01   -0.102551376666140159E+01   -0.217501768192605687E+04
    0.995703811395513450E+00    0.804305081744124806E+02    0.265551698804611727E-01    0.399967580588595784E+01   -0.264800464505086305E-01   -0.102391075138854748E+01   -0.217495958955758306E+04
    0.995703811395513450E+00    0.804305081744124806E+02    0.265551698804611727E-01    0.399967580588595784E+01   -0.264800464505086305E-01   -0.102391075138854748E+01   -0.217495958955758306E+04
    0.987604449669952755E+00    0.483107361022660129E+02    0.266041078238160207E-01    0.399690179619324093E+01   -0.259527794526069819E-01   -0.102446080196913392E+01   -0.217491342192983939E+04
    0.987604449669952755E+00    0.483107361022660129E+02    0.266041078238160207E-01    0.399690179619324093E+01   -0.259527794526069819E-01   -0.102446080196913392E+01   -0.217491342192983939E+04
    0.982356183861791354E+00    0.151001147362188384E+02    0.266280305022995670E-01    0.399823144036350087E+01   -0.262826542892629321E-01   -0.102465120216360672E+01   -0.217491018676933254E+04
    0.986568469195332254E+00    0.542856298008151654E+02    0.265773015894100600E-01    0.399912462393550205E+01   -0.278986759684530204E-01   -0.102480621008609107E+01   -0.217490845561616334E+04
    0.964431540510475527E+00    0.590514888552569062E+02    0.264983831013137182E-01    0.399980513912415914E+01   -0.265530568794990936E-01   -0.102450342566239683E+01   -0.217480240629541913E+04
    0.964431540510475527E+00    0.590514888552569062E+02    0.264983831013137182E-01    0.399980513912415914E+01   -0.265530568794990936E-01   -0.102450342566239683E+01   -0.217480240629541913E+04
    0.983360845772720760E+00    0.351175980012088615E+02    0.264979910014188427E-01    0.399653702749876549E+01   -0.259949980158666084E-01   -0.102689857525183093E+01   -0.217476697537938253E+04
    0.980403962327246026E+00    0.199807908526484503E+02    0.265574004046233436E-01    0.399746506471921625E+01   -0.262906381953179162E-01   -0.102688615966129571E+01   -0.217457177641538601E+04
    0.979385999930780793E+00    0.739625176610537380E+02    0.264620468182215421E-01    0.399920044348286297E+01   -0.264912237722098043E-01   -0.102690548407033644E+01   -0.217449770463733512E+04
    0.978186450980898625E+00    0.384274201536410658E+02    0.265576743448451245E-01    0.399892615728900536E+01   -0.255644759126039713E-01   -0.102773350420773513E+01   -0.217446792323575301E+04
    0.967568652752973213E+00    0.314989250655739568E+02    0.265640417368553060E-01    0.399861495755332275E+01   -0.253989299146701111E-01   -0.102685688310600831E+01   -0.217446289868741587E+04
    0.967568652752973213E+00    0.314989250655739568E+02    0.265640417368553060E-01    0.399861495755332275E+01   -0.253989299146701111E-01   -0.102685688310600831E+01   -0.217446289868741587E+04
    0.983601340153286374E+00    0.395587308874700705E+01    0.265707915774208714E-01    0.399877326324019489E+01   -0.263323371994857273E-01   -0.102488633998576861E+01   -0.217446233250018213E+04
    0.983601340153286374E+00    0.395587308874700705E+01    0.265707915774208714E-01    0.399877326324019489E+01   -0.263323371994857273E-01   -0.102488633998576861E+01   -0.217446233250018213E+04
    0.993126034259122603E+00    0.554590594666004364E+02    0.264228841178704328E-01    0.399795534833211308E+01   -0.257826584009763285E-01   -0.102530635025153050E+01   -0.217435866386277849E+04
    0.986699156519287968E+00    0.794452759009247700E+02    0.265184246409985204E-01    0.399777337283428524E+01   -0.260879108078738119E-01   -0.102519625300384520E+01   -0.217429579089108756E+04
    0.985498340990050181E+00    0.344770957018268689E+02    0.266370855773239504E-01    0.399739298525383990E+01   -0.262957547045286101E-01   -0.102683429206390553E+01   -0.217429484412079364E+04
    0.991448473535612163E+00    0.304512041935955757E+02    0.265038306151968335E-01    0.399736085458724055E+01   -0.252261739048090898E-01   -0.102512228351379275E+01   -0.217427197996821542E+04
    0.991448473535612163E+00    0.304512041935955757E+02    0.265038306151968335E-01    0.399736085458724055E+01   -0.252261739048090898E-01   -0.102512228351379275E+01   -0.217427197996821542E+04
    0.994853142223299125E+00    0.821246360908065611E+02    0.265683337691727597E-01    0.399874199289623933E+01   -0.272753061640665512E-01   -0.102541086039961127E+01   -0.217421894988200347E+04
    0.994853142223299125E+00    0.821246360908065611E+02    0.265683337691727597E-01    0.399874199289623933E+01   -0.272753061640665512E-01   -0.102541086039961127E+01   -0.217421894988200347E+04
    0.979090320648385415E+00    0.272908356448499312E+02    0.264048631763293996E-01    0.399844720797326847E+01   -0.259937253150502971E-01   -0.102569833136845490E+01   -0.217418312111328032E+04
    0.978754100909833502E+00    0.155414229356295372E+02    0.263894574501124662E-01    0.399979166878802905E+01   -0.260135796480277064E-01   -0.102558269982254791E+01   -0.217412876989232245E+04
    0.987962002841496156E+00    0.310033711155273117E+02    0.265759123677346831E-01    0.399693475871763493E+01   -0.253672569169106944E-01   -0.102526229041259898E+01   -0.217409501915786677E+04
    0.987962002841496156E+00    0.310033711155273117E+02    0.265759123677346831E-01    0.399693475871763493E+01   -0.253672569169106944E-01   -0.102526229041259898E+01   -0.217409501915786677E+04
    0.997797896858504840E+00    0.418952817177406445E+02    0.266668924564308976E-01    0.399955023342240956E+01   -0.269284547161847097E-01   -0.102540399870816379E+01   -0.217397525958421738E+04
    0.997797896858504840E+00    0.418952817177406445E+02    0.266668924564308976E-01    0.399955023342240956E+01   -0.269284547161847097E-01   -0.102540399870816379E+01   -0.217397525958421738E+04
    0.975478104473550989E+00    0.618784671834808719E+02    0.265989319162334079E-01    0.399804541815845571E+01   -0.254901967615287391E-01   -0.102630077332387715E+01   -0.217396211621399470E+04
    0.976898845691028805E+00    0.281972949913015718E+02    0.265867928335577312E-01    0.399861900102464141E+01   -0.247035523978955708E-01   -0.102583212075672248E+01   -0.217395118940007796E+04
    0.976898845691028805E+00    0.281972949913015718E+02    0.265867928335577312E-01    0.399861900102464141E+01   -0.247035523978955708E-01   -0.102583212075672248E+01   -0.217395118940007796E+04
    0.980430092011298937E+00    0.236769886278262405E+02    0.265963493122964439E-01    0.399854711972728438E+01   -0.249730376225558957E-01   -0.102653140425126588E+01   -0.217393869805629038E+04
    0.983382501882722471E+00    0.176567192796779082E+02    0.265550541526079383E-01    0.399922260207218372E+01   -0.256319723991551146E-01   -0.102727528713540450E+01   -0.217382747063393526E+04
    0.983382501882722471E+00    0.176567192796779082E+02    0.265550541526079383E-01    0.399922260207218372E+01   -0.256319723991551146E-01   -0.102727528713540450E+01   -0.217382747063393526E+04
    0.975977295634584907E+00    0.408035661102701326E+02    0.264982740390097074E-01    0.399970829619098422E+01   -0.252150718770432700E-01   -0.102745700632698878E+01   -0.217378077677444617E+04
    0.975977295634584907E+00    0.408035661102701326E+02    0.264982740390097074E-01    0.399970829619098422E+01   -0.252150718770432700E-01   -0.102745700632698878E+01   -0.217378077677444617E+04
    0.966680936573694360E+00    0.326607746060794568E+02    0.265384588191130630E-01    0.399940390953383762E+01   -0.269428773907055656E-01   -0.102541590177459874E+01   -0.217376498688589891E+04
    0.987342117040684419E+00    0.470772095523606922E+02    0.266057685447776901E-01    0.399711051079437540E+01   -0.255205685596627714E-01   -0.102542128089211793E+01   -0.217375599339833479E+04
    0.987342117040684419E+00    0.470772095523606922E+02    0.266057685447776901E-01    0.399711051079437540E+01   -0.255205685596627714E-01   -0.102542128089211793E+01   -0.217375599339833479E+04
    0.987141314786339041E+00    0.319564359360629702E+02    0.264305782186549064E-01    0.399988168451866244E+01   -0.271904496086331181E-01   -0.102492642791524280E+01   -0.217364378048746858E+04
    0.987141314786339041E+00    0.319564359360629702E+02    0.264305782186549064E-01    0.399988168451866244E+01   -0.271904496086331181E-01   -0.102492642791524280E+01   -0.217364378048746858E+04
    0.966933686908221235E+00    0.250169793713012822E+02    0.265740524225541730E-01    0.399948742777528121E+01   -0.261973271159594706E-01   -0.102567704264553350E+01   -0.217362652169913781E+04
    0.966933686908221235E+00    0.250169793713012822E+02    0.265740524225541730E-01    0.399948742777528121E+01   -0.261973271159594706E-01   -0.102567704264553350E+01   -0.217362652169913781E+04
    0.971802309510058970E+00    0.572864400043547732E+02    0.265618918339993043E-01    0.399832397407197471E+01   -0.255053088327477327E-01   -0.102613985920026640E+01   -0.217359311868272562E+04
    0.993866445334695259E+00    0.181046667367675873E+02    0.266140834309293722E-01    0.399821542441422562E+01   -0.262564032178586038E-01   -0.102550356295151723E+01   -0.217352715670659745E+04
    0.994383778177403421E+00    0.231101353147690283E+02    0.265523273936031680E-01    0.399951002347878459E+01   -0.251155034239285944E-01   -0.102702415754102638E+01   -0.217352599449861100E+04
    0.994383778177403421E+00    0.231101353147690283E+02    0.265523273936031680E-01    0.399951002347878459E+01   -0.251155034239285944E-01   -0.102702415754102638E+01   -0.217352599449861100E+04
    0.976383012409894890E+00    0.352079246650657254E+02    0.264654587871627281E-01    0.399957237090134576E+01   -0.248905854982665806E-01   -0.102674694373243858E+01   -0.217350311178459378E+04
    0.976383012409894890E+00    0.352079246650657254E+02    0.264654587871627281E-01    0.399957237090134576E+01   -0.248905854982665806E-01   -0.102674694373243858E+01   -0.217350311178459378E+04
    0.990719623711792563E+00    0.400003401573607746E+02    0.266148854655504155E-01    0.399821418448394672E+01   -0.259659681019276910E-01   -0.102678380901453425E+01   -0.217349610230381950E+04
    0.990719623711792563E+00    0.400003401573607746E+02    0.266148854655504155E-01    0.399821418448394672E+01   -0.259659681019276910E-01   -0.102678380901453425E+01   -0.217349610230381950E+04
    0.978653279839267309E+00    0.691672648932986363E+02    0.265800250928565178E-01    0.399846935665426617E+01   -0.259154988378131543E-01   -0.102546547799365872E+01   -0.217349577419430534E+04
    0.978653279839267309E+00    0.691672648932986363E+02    0.265800250928565178E-01    0.399846935665426617E+01   -0.259154988378131543E-01   -0.102546547799365872E+01   -0.217349577419430534E+04
    0.985605632999591696E+00    0.221829163393341418E+02    0.266419276505159112E-01    0.399957541325867627E+01   -0.269424487869447012E-01   -0.102522193993032174E+01   -0.217345741003475359E+04
    0.985605632999591696E+00    0.221829163393341418E+02    0.266419276505159112E-01    0.399957541325867627E+01   -0.269424487869447012E-01   -0.102522193993032174E+01   -0.217345741003475359E+04
    0.980161620491790675E+00    0.438551625615315217E+02    0.264873179154851250E-01    0.399905798112495070E+01   -0.252436156540823027E-01   -0.102707322107641352E+01   -0.217345434948194179E+04
    0.987363178174930800E+00    0.349436509525455676E+02    0.265998030440570792E-01    0.399738648196348478E+01   -0.255327939693204241E-01   -0.102579709563336263E+01   -0.217345072672491733E+04
    0.974650103566555792E+00    0.376623915734822745E+02    0.266111537064934282E-01    0.399860318526789627E+01   -0.250934128797293959E-01   -0.102559290095884137E+01   -0.217344023899090189E+04
    0.974650103566555792E+00    0.376623915734822745E+02    0.266111537064934282E-01    0.399860318526789627E+01   -0.250934128797293959E-01   -0.102559290095884137E+01   -0.217344023899090189E+04
    0.976929445721302248E+00    0.686097064322955248E+02    0.264659043197887009E-01    0.399929982624569291E+01   -0.263256702853698205E-01   -0.102531902742574399E+01   -0.217342874263964404E+04
    0.980785783135568190E+00    0.498601653255016828E+02    0.264815659638003645E-01    0.399894846771579715E+01   -0.249664311633083121E-01   -0.102659717657652072E+01   -0.217337614467135609E+04
    0.980785783135568190E+00    0.498601653255016828E+02    0.264815659638003645E-01    0.399894846771579715E+01   -0.249664311633083121E-01   -0.102659717657652072E+01   -0.217337614467135609E+04
    0.992032250267621984E+00    0.168316659155441002E+02    0.265220520177686173E-01    0.399810317513143110E+01   -0.255432437440564833E-01   -0.102565025208310301E+01   -0.217337610957190100E+04
    0.992032250267621984E+00    0.168316659155441002E+02    0.265220520177686173E-01    0.399810317513143110E+01   -0.255432437440564833E-01   -0.102565025208310301E+01   -0.217337610957190100E+04
    0.983882928720174688E+00    0.226916732965907535E+02    0.265566412000389045E-01    0.399936107552085840E+01   -0.248942557128782951E-01   -0.102671934637223705E+01   -0.217337397607492767E+04
    0.966150267950494079E+00    0.410060634560892723E+02    0.266040958736382879E-01    0.399929462506842004E+01   -0.264511132355116398E-01   -0.102627360244435195E+01   -0.217336504002444963E+04
    0.966150267950494079E+00    0.410060634560892723E+02    0.266040958736382879E-01    0.399929462506842004E+01   -0.264511132355116398E-01   -0.102627360244435195E+01   -0.217336504002444963E+04
    0.976674692350907314E+00    0.162823954471674668E+02    0.264975747268753094E-01    0.399920016177236359E+01   -0.258574339247078511E-01   -0.102625105232368585E+01   -0.217336268442348228E+04
    0.972735661898172621E+00    0.431005429237772262E+02    0.266014887466905492E-01    0.399819681968419838E+01   -0.254455585545568103E-01   -0.102599381912988297E+01   -0.217336133302756116E+04
    0.974538579727616261E+00    0.438094414692667726E+02    0.264411934832324107E-01    0.399851744981889867E+01   -0.262092720433186356E-01   -0.102590790302671775E+01   -0.217334732437624189E+04
    0.969693832738142358E+00    0.453439552662282068E+02    0.266245461394376895E-01    0.399894686584260883E+01   -0.261368847411117995E-01   -0.102640499233345439E+01   -0.217329749783863554E+04
    0.994465039122289562E+00    0.252988041669424710E+02    0.266518523730132594E-01    0.399902767936803016E+01   -0.261199666901369698E-01   -0.102573257411574392E+01   -0.217320268392226171E+04
    0.994465039122289562E+00    0.252988041669424710E+02    0.266518523730132594E-01    0.399902767936803016E+01   -0.261199666901369698E-01   -0.102573257411574392E+01   -0.217320268392226171E+04
    0.972654530629039504E+00    0.418083771690620836E+02    0.265778902138720623E-01    0.399900153919461010E+01   -0.269194663129132851E-01   -0.102648943194645370E+01   -0.217317175107398543E+04
    0.972654530629039504E+00    0.418083771690620836E+02    0.265778902138720623E-01    0.399900153919461010E+01   -0.269194663129132851E-01   -0.102648943194645370E+01   -0.217317175107398543E+04
    0.986695977951571157E+00    0.569094393400997376E+02    0.264336873461596157E-01    0.399939144806146007E+01   -0.265640196977092076E-01   -0.102505676901457710E+01   -0.217312362387128360E+04
    0.986695977951571157E+00    0.569094393400997376E+02    0.264336873461596157E-01    0.399939144806146007E+01   -0.265640196977092076E-01   -0.102505676901457710E+01   -0.217312362387128360E+04
    0.999097332293288121E+00    0.455549503245133351E+02    0.265015255173107131E-01    0.399883499855901592E+01   -0.260992165675559898E-01   -0.102549730076272549E+01   -0.217309716306855080E+04
    0.981468117168581955E+00    0.534562016461455016E+02    0.266043242844124887E-01    0.399817283628354803E+01   -0.254513284032753008E-01   -0.102614137419115692E+01   -0.217309524174990293E+04
    0.978873074345642635E+00    0.320951077659729478E+02    0.264840685981986533E-01    0.399927964335946706E+01   -0.266978673793158323E-01   -0.102681819319810397E+01   -0.217309312288535239E+04
    0.994201363502812407E+00    0.479033683658915450E+02    0.264805924317893931E-01    0.399847859422997010E+01   -0.263600355488759069E-01   -0.102603992785570997E+01   -0.217308283492426017E+04
    0.985708651823637982E+00    0.517439307078068111E+02    0.264739051841348279E-01    0.399878834599819344E+01   -0.250820431723134778E-01   -0.102555867130303069E+01   -0.217303347909175864E+04
    0.985708651823637982E+00    0.517439307078068111E+02    0.264739051841348279E-01    0.399878834599819344E+01   -0.250820431723134778E-01   -0.102555867130303069E+01   -0.217303347909175864E+04
    0.981783966684323994E+00    0.623102959672955450E+02    0.265897275914134916E-01    0.399907930473838169E+01   -0.256776293135937729E-01   -0.102669653060011945E+01   -0.217298876118162480E+04
    0.989473620815110477E+00    0.703655591499158817E+02    0.265443240812144772E-01    0.399867444605220479E+01   -0.263111684364012582E-01   -0.102634744455404792E+01   -0.217298419320721223E+04
    0.985870268920384651E+00    0.334205047168675691E+02    0.265054838941472665E-01    0.399878922128218850E+01   -0.259688595423707425E-01   -0.102476472290641829E+01   -0.217297653035086387E+04
    0.985870268920384651E+00    0.334205047168675691E+02    0.265054838941472665E-01    0.399878922128218850E+01   -0.259688595423707425E-01   -0.102476472290641829E+01   -0.217297653035086387E+04
    0.978411504440739765E+00    0.600742759253708627E+02    0.265733745463282225E-01    0.399864293763735246E+01   -0.258308281907141564E-01   -0.102525635629904555E+01   -0.217292778074561647E+04
    0.980139291460830453E+00    0.405188086244087131E+02    0.264177558545685073E-01    0.399930730213069596E+01   -0.255026986076085510E-01   -0.102580911347822545E+01   -0.217290763742246691E+04
    0.993081976209562400E+00    0.587901543726995968E+02    0.266264030135110324E-01    0.399936683157439576E+01   -0.256671232817561219E-01   -0.102652395215971382E+01   -0.217290039841340240E+04
    0.988658039433620406E+00    0.639088411645715055E+02    0.265402689530632348E-01    0.399873171143631101E+01   -0.258837224797136140E-01   -0.102660316794183260E+01   -0.217289334515662267E+04
    0.991661418848230447E+00    0.370960063774960247E+02    0.265256487332991980E-01    0.399853488608291974E+01   -0.259048421631797067E-01   -0.102505802177803007E+01   -0.217287375455379424E+04
    0.992546739138637113E+00    0.326839492817403681E+02    0.264413417224047473E-01    0.399916595889742066E+01   -0.256719966356591944E-01   -0.102562744921919990E+01   -0.217287150626124276E+04
    0.989658011543047333E+00    0.806195848273195423E+02    0.264627087962102173E-01    0.399985061354672755E+01   -0.265346825356777040E-01   -0.102594606830874424E+01   -0.217287104622726201E+04
    0.992294336376030595E+00    0.275300281045830459E+02    0.264905240822169499E-01    0.399867601435083486E+01   -0.263312281262417236E-01   -0.102557348297991124E+01   -0.217284029407665821E+04
    0.975993806861643387E+00    0.444348711916524408E+02    0.264594846484038984E-01    0.399898922699268988E+01   -0.255642299069345491E-01   -0.102621610107564920E+01   -0.217281975987098758E+04
    0.987507271844083157E+00    0.783537431927629484E+02    0.265862649982741943E-01    0.399933562297964507E+01   -0.261530476470464984E-01   -0.102577599715311707E+01   -0.217280676317144844E+04
    0.985569356097764970E+00    0.697660808533690897E+02    0.264949737326592404E-01    0.399925828005559314E+01   -0.261259600713553142E-01   -0.102516145240527168E+01   -0.217279771348809481E+04
    0.985877986046835630E+00    0.634803922532450287E+02    0.265505795068654259E-01    0.399860036375479444E+01   -0.261508390278300355E-01   -0.102640972619460880E+01   -0.217278924052649563E+04
    0.989508072948261264E+00    0.427050153478923775E+02    0.265605792319117441E-01    0.399917812331550815E+01   -0.264965976406731328E-01   -0.102478584336626932E+01   -0.217273441591079245E+04
    0.983665511030386019E+00    0.390993679083767418E+02    0.266480961063187069E-01    0.399932071090729835E+01   -0.255575036924586239E-01   -0.102641975193219803E+01   -0.217270175606490557E+04
    0.996220541045191643E+00    0.441772811930088949E+02    0.265301105773692696E-01    0.399928971840101877E+01   -0.258052992098223924E-01   -0.102500659359107682E+01   -0.217269094042116467E+04
    0.974765920577639555E+00    0.450556877213543885E+02    0.264622292317249139E-01    0.399935015513186443E+01   -0.262165713499424753E-01   -0.102653523361304733E+01   -0.217267466828269698E+04
    0.993101260006895581E+00    0.609070870024092699E+02    0.265384038588416631E-01    0.399879698908209402E+01   -0.255314103953235699E-01   -0.102574695596064958E+01   -0.217263448137976866E+04
    0.980748731172852439E+00    0.388454407607635019E+02    0.264501519209694620E-01    0.399983944659167578E+01   -0.251191607759182790E-01   -0.102514037974466521E+01   -0.217263072154789825E+04
    0.981000231573811110E+00    0.280405303973424402E+02    0.265900647051022544E-01    0.399879402974501241E+01   -0.260117359500925405E-01   -0.102632852654473106E+01   -0.217261543641711160E+04
    0.981487794381966872E+00    0.489982896544843882E+02    0.266379842753665524E-01    0.399962618239739331E+01   -0.259236994996395326E-01   -0.102675723307368671E+01   -0.217258887596665772E+04
    0.986476910210898561E+00    0.575581080748283895E+02    0.265008653039808320E-01    0.399883043298965868E+01   -0.264641949135793267E-01   -0.102625952542775534E+01   -0.217255329895679824E+04
    0.987116171530985298E+00    0.165972101823561253E+02    0.265078220972482098E-01    0.399928642413064850E+01   -0.254917969668955295E-01   -0.102583906320781493E+01   -0.217254642232305014E+04
    0.988937503123159978E+00    0.645927601361505026E+02    0.264442429566911635E-01    0.399981078322228933E+01   -0.258116527602005041E-01   -0.102633571661582601E+01   -0.217251689711079871E+04
    0.986934249347044101E+00    0.286450953648480962E+02    0.264177671667578037E-01    0.399989466255606807E+01   -0.256989216180639607E-01   -0.102608488961423516E+01   -0.217250890519089353E+04
    0.974219775027478141E+00    0.489609663131034765E+02    0.266116892885106156E-01    0.399909078168051435E+01   -0.258922478658200547E-01   -0.102601011036828260E+01   -0.217250364647020433E+04
    0.979791252247300237E+00    0.465306121066325105E+02    0.265199948781332691E-01    0.399960587412230417E+01   -0.254995803257434955E-01   -0.102696531068137586E+01   -0.217248044300947004E+04
    0.975666429480803288E+00    0.395509468794306258E+02    0.265888401712756142E-01    0.399961488282494138E+01   -0.263625770346174980E-01   -0.102682254784395499E+01   -0.217247675014724791E+04
    0.983999095235062127E+00    0.227091327775307796E+02    0.264588798835412552E-01    0.399984134955194470E+01   -0.260386271792023491E-01   -0.102654779166719123E+01   -0.217245843707607037E+04
    0.978997231478578867E+00    0.160985338492774730E+02    0.265349866099844102E-01    0.399983230659676048E+01   -0.260638613868848616E-01   -0.102566113282235238E+01   -0.217244358408557218E+04
    0.974153168908895584E+00    0.588000719431553591E+02    0.264907556450494908E-01    0.399956047227023337E+01   -0.263933192468502574E-01   -0.102575362959957372E+01   -0.217244254579831249E+04
    0.982885936026562712E+00    0.442347424092476871E+02    0.266255968369259743E-01    0.399898924648600218E+01   -0.259675275522056916E-01   -0.102540031142956423E+01   -0.217239514587066697E+04
    0.979560070807748096E+00    0.420711812163283270E+02    0.265574647534986587E-01    0.399940427843562407E+01   -0.257929358317065607E-01   -0.102477944875293403E+01   -0.217238459621008224E+04
    0.988497464570074369E+00    0.537194484570617519E+02    0.264275358560457363E-01    0.399987026265678702E+01   -0.262431355109246332E-01   -0.102627746290409760E+01   -0.217236999107194333E+04
    0.973442212678014229E+00    0.442522831368223777E+02    0.264921883064214020E-01    0.399946338444584581E+01   -0.255843787377773579E-01   -0.102630025889274323E+01   -0.217235212769560076E+04
    0.978808680906664286E+00    0.461527277930410094E+02    0.265767730977233933E-01    0.399942760203793624E+01   -0.262820180326945943E-01   -0.102682479999254861E+01   -0.217233910920303515E+04
    0.975934461627609551E+00    0.509130048356303746E+02    0.265523791296712677E-01    0.399899376118006122E+01   -0.265404084808287082E-01   -0.102567734165767321E+01   -0.217231963992965757E+04
    0.981046084391475448E+00    0.315369727439214174E+02    0.265529079090396948E-01    0.399899780874261612E+01   -0.265178863699116335E-01   -0.102553417822628856E+01   -0.217230065081441626E+04
    0.975759055509506812E+00    0.277559727735356958E+02    0.265681769894864916E-01    0.399955366077979813E+01   -0.256365503892908471E-01   -0.102608569893956836E+01   -0.217228018994315971E+04
    0.978410801641068417E+00    0.560696402298999459E+02    0.266031754415950554E-01    0.399945372764493401E+01   -0.264315699434324453E-01   -0.102625393174610680E+01   -0.217227502138122600E+04
    0.977438569169490457E+00    0.616854379575000209E+02    0.265016538139561143E-01    0.399989321140395315E+01   -0.260895067069259780E-01   -0.102649727331361085E+01   -0.217224668178974207E+04
    0.976837881313154410E+00    0.530984795338948956E+02    0.265241158134263411E-01    0.399921496682510291E+01   -0.258567440450064023E-01   -0.102637345189015838E+01   -0.217224170967766440E+04
    0.979465595708884251E+00    0.389527851818262008E+02    0.266166836566896978E-01    0.399931035328332829E+01   -0.257809081933504311E-01   -0.102538728384119127E+01   -0.217223556784712400E+04
    0.976966549776724591E+00    0.577338522198187292E+02    0.264538846411380077E-01    0.399990752504745917E+01   -0.261978603606117001E-01   -0.102594925996228525E+01   -0.217217978655979368E+04
    0.979977492661746163E+00    0.455634887613699888E+02    0.265255451135409867E-01    0.399996457265296712E+01   -0.263780935951728572E-01   -0.102699419611514409E+01   -0.217210350414798177E+04
    0.978339309387218803E+00    0.327326462097216080E+02    0.264588057945321642E-01    0.399972655239368802E+01   -0.260773374447547737E-01   -0.102557732909514487E+01   -0.217209873244455775E+04
    0.981748468962061915E+00    0.345123608107666797E+02    0.264693823904298478E-01    0.399967432147389168E+01   -0.253893723831128820E-01   -0.102554484568167137E+01   -0.217208628615091129E+04
    0.979136174243910196E+00    0.441406097022027524E+02    0.264895688263817250E-01    0.399943537766616464E+01   -0.254633362064439518E-01   -0.102560683521083562E+01   -0.217200416407828016E+04
    0.980224238325701824E+00    0.368572041903331495E+02    0.264706253535787125E-01    0.399957329769151437E+01   -0.260536160425064479E-01   -0.102633567420888250E+01   -0.217200253629653071E+04
    0.992526274048682433E+00    0.393869112254464682E+02    0.264922814414286292E-01    0.399950950865445076E+01   -0.262746589033844777E-01   -0.102577360834490072E+01   -0.217196045892192978E+04
    0.979502646083802775E+00    0.346074749007745055E+02    0.264986230558785611E-01    0.399967131877821602E+01   -0.266129341655418697E-01   -0.102619678863721653E+01   -0.217194560036379880E+04
    0.985315410166129890E+00    0.558976812985829383E+02    0.265949158579658028E-01    0.399936065418495224E+01   -0.262382578882241549E-01   -0.102563957864486865E+01   -0.217194145608696635E+04
    0.975400796871616071E+00    0.389909765813875637E+02    0.265228520091133034E-01    0.399981632733652415E+01   -0.255281734831716810E-01   -0.102641697156263900E+01   -0.217191531882485833E+04
    0.981746348430353688E+00    0.519412524303979026E+02    0.265237515007857895E-01    0.399920095378468066E+01   -0.262410135798846686E-01   -0.102549353814192123E+01   -0.217189180795378343E+04
    0.987662203474360290E+00    0.341655545504203744E+02    0.265435736841231652E-01    0.399924539989722216E+01   -0.255867069910654804E-01   -0.102583914234999640E+01   -0.217187631855282871E+04
    0.980245642091568392E+00    0.469657136575105483E+02    0.265094104776339018E-01    0.399946014136820471E+01   -0.263633959490308968E-01   -0.102634988515301329E+01   -0.217183873945741834E+04
    0.978684404008155262E+00    0.387126992577341937E+02    0.264673388814958555E-01    0.399984806469318421E+01   -0.263443649540545943E-01   -0.102620166118813172E+01   -0.217183141474479726E+04
    0.981760763388074498E+00    0.373293795331881029E+02    0.265982315002609958E-01    0.399940240557507698E+01   -0.261182310555061400E-01   -0.102583454893740300E+01   -0.217178550310117953E+04
    0.984161349838010846E+00    0.396885736043906121E+02    0.265696554158623942E-01    0.399928024372278834E+01   -0.262589498547173665E-01   -0.102618355849642073E+01   -0.217176672183731716E+04
    0.984437767231410854E+00    0.364593725379639366E+02    0.265768994042276455E-01    0.399955738158821550E+01   -0.258535108457264400E-01   -0.102642769838706238E+01   -0.217176293398942926E+04
    0.988979026710794074E+00    0.303711777265928049E+02    0.265297389184620119E-01    0.399949822593671334E+01   -0.261130580223410090E-01   -0.102608927929913696E+01   -0.217174100287517922E+04
    0.986114402713186955E+00    0.568563488879657086E+02    0.265023657428794142E-01    0.399974366414701388E+01   -0.265491613384930131E-01   -0.102597491289193754E+01   -0.217173199780078357E+04
    0.989483749447531480E+00    0.512667471357159101E+02    0.265694467484605019E-01    0.399945276461426058E+01   -0.258761374622245473E-01   -0.102563511174077826E+01   -0.217173043091000090E+04
    0.979679516891203583E+00    0.533120210985921119E+02    0.264639110922996537E-01    0.399997086512887456E+01   -0.262326606242773569E-01   -0.102582431019044673E+01   -0.217169378023873560E+04
    0.990645936274949346E+00    0.431051399800506161E+02    0.265020971159827916E-01    0.399987821108564745E+01   -0.258532970854393265E-01   -0.102611475900041871E+01   -0.217149576665453333E+04
    0.979901179447147275E+00    0.451742217231295768E+02    0.264791222006527417E-01    0.399975316563731642E+01   -0.259307430708642130E-01   -0.102629051281566386E+01   -0.217170226360766355E+04
    0.987949732540556180E+00    0.522633932044727416E+02    0.265120481551724164E-01    0.399983485394120741E+01   -0.259081332321422879E-01   -0.102521508261432714E+01   -0.217162094251622602E+04
    0.980631493874638549E+00    0.358051363617063032E+02    0.265285215288671647E-01    0.399989706678345058E+01   -0.263773556114579449E-01   -0.102643521129855841E+01   -0.217157405027208370E+04
    0.979363681674430886E+00    0.427918047857027091E+02    0.265850607511798551E-01    0.399994208734409673E+01   -0.262060243470837971E-01   -0.102576721428020634E+01   -0.217132849071553028E+04
    0.983118468326352302E+00    0.489723846131089431E+02    0.265677974964185493E-01    0.399946525033835876E+01   -0.257911690590607520E-01   -0.102557347685494205E+01   -0.217161534557651157E+04
    0.986378971574746410E+00    0.546399977849882674E+02    0.265075330111739713E-01    0.399999871879166768E+01   -0.262186367801891529E-01   -0.102614047686851495E+01   -0.217135502596832430E+04
    0.979276961955043213E+00    0.438466345273074438E+02    0.265459872276744592E-01    0.399963913122002346E+01   -0.266321062187809127E-01   -0.102597259892743398E+01   -0.217164052762893516E+04
    0.983847641111413429E+00    0.584250434116782742E+02    0.265439551485989467E-01    0.399976599715875381E+01   -0.257496725867298153E-01   -0.102611961237023164E+01   -0.217160603956799150E+04
    0.986718474167659343E+00    0.428364133187558238E+02    0.265391432975642279E-01    0.399946642620000326E+01   -0.258836195824402697E-01   -0.102565714371667260E+01   -0.217151670825123983E+04
    0.987627207876965452E+00    0.539894871004575947E+02    0.265487900767071155E-01    0.399987677774413397E+01   -0.257385660563798774E-01   -0.102587229346249331E+01   -0.217136203608822507E+04
    0.984718826865844887E+00    0.317596483465279000E+02    0.265392397816022925E-01    0.399980114959766864E+01   -0.254038153159415608E-01   -0.102605319763952507E+01   -0.217162795373641529E+04
    0.987210164344629826E+00    0.539983558974618560E+02    0.265513666602486646E-01    0.399980420733360553E+01   -0.266475564428966770E-01   -0.102602009431588437E+01   -0.217162051399166921E+04
