    0.146388603040598717E+02    0.466286389950886782E+00    0.147227125482857168E+01    0.809977792352694070E+00   -0.393233474990964623E+04
    0.113446210006615988E+02    0.391918842321694205E+01    0.277752135506172948E+01    0.799943882664550188E+00   -0.393219255235952278E+04
    0.183664510841798290E+02    0.781568313077315757E+01    0.717718314330121387E+01    0.872200183377493499E+00   -0.393205677426471311E+04
    0.428210099925256582E+01    0.327293422272951151E+01    0.972451506236617647E+01    0.867129493624031689E+00   -0.393110203895312407E+04
    0.141454408014741837E+02    0.574985672285296956E+00    0.532723947855558677E+01    0.801935259303974579E+00   -0.393093730267669162E+04
    0.359588246113296650E+01    0.734895347560456380E+00    0.336953749210688613E+01    0.803964825191286980E+00   -0.393061275314336126E+04
    0.112364021066790478E+02    0.462130707632935955E+01    0.571287951902850644E+01    0.863958638795115252E+00   -0.393056852692847588E+04
    0.784980964938300474E+01    0.426606253238577438E+01    0.244224288927350663E+01    0.838911757357581722E+00   -0.393040436716402473E+04
    0.104984056680417339E+02    0.790189363414646806E+01    0.949420403655480882E+01    0.862611253186769789E+00   -0.393035480368385652E+04
    0.943302869796752930E+01    0.597849726676940918E+01    0.956113696098327637E+01    0.806908607482910156E+00   -0.393006882451696902E+04
    0.592146197395703666E+01    0.697702458032125605E+01    0.725854524522524613E+01    0.807471815262346126E+00   -0.392998066945948767E+04
    0.855391801123311879E+01    0.819369831009005800E+01    0.589467121670907979E+01    0.857838597950172144E+00   -0.392967535969828987E+04
    0.124529029505078306E+02    0.702832110721963854E+01    0.738215421414847839E+01    0.810494165369931796E+00   -0.392954179712888526E+04
    0.124529029505078306E+02    0.702832110721963854E+01    0.738215421414847839E+01    0.810494165369931796E+00   -0.392954179712888526E+04
    0.690012046773222210E+01    0.835997333820784050E+01    0.731660387082009223E+01    0.856487608188378546E+00   -0.392950170344432263E+04
    0.164103917732184144E+02    0.321976864881520886E+00    0.458309996519805196E+01    0.810847770375886068E+00   -0.392949514728855047E+04
    0.164103917732184144E+02    0.321976864881520886E+00    0.458309996519805196E+01    0.810847770375886068E+00   -0.392949514728855047E+04
    0.113070609264053097E+02    0.690825818498294453E+01    0.871423178950055899E+01    0.856351340993701582E+00   -0.392948477157613888E+04
    0.252087553290619848E+01    0.535286627344360610E+01    0.989997964096869509E+01    0.811116639254989558E+00   -0.392945855899688422E+04
    0.883515390308602733E+01    0.716683221232272416E+01    0.287781591400779391E+01    0.827107858510209626E+00   -0.392943178919119919E+04
    0.883515390308602733E+01    0.716683221232272416E+01    0.287781591400779391E+01    0.827107858510209626E+00   -0.392943178919119919E+04
    0.466028098936851976E+01    0.652121938092483067E+01    0.942357549245792825E+01    0.812220649487794155E+00   -0.392931699884736372E+04
    0.106201051463150762E+02    0.281583620544280233E+01    0.789097267387754542E+01    0.812376967303113817E+00   -0.392929757798518312E+04
    0.834147161024592521E+01    0.565791361845776830E+01    0.720102671016135076E+01    0.812566754473613706E+00   -0.392927424906235592E+04
    0.150388326199623954E+02    0.734176313959627613E+01    0.891397119013848638E+01    0.854042876038185739E+00   -0.392921341255473681E+04
    0.956389740407886357E+01    0.768920360675133452E+01    0.306102868031114816E+01    0.843621168021653656E+00   -0.392921175019600832E+04
    0.956389740407886357E+01    0.768920360675133452E+01    0.306102868031114816E+01    0.843621168021653656E+00   -0.392921175019600832E+04
    0.634457913673854712E+01    0.130988741243865614E+01    0.580671109108141081E+01    0.814620392271008020E+00   -0.392903585146397472E+04
    0.129599845002618643E+02    0.363258565170383818E+01    0.378397277165004553E+01    0.815771876406359953E+00   -0.392898407590394527E+04
    0.172213920126985300E+02    0.276060669018295135E+01    0.309270574254636443E+01    0.818304629079397383E+00   -0.392893797320575095E+04
    0.172213920126985300E+02    0.276060669018295135E+01    0.309270574254636443E+01    0.818304629079397383E+00   -0.392893797320575095E+04
    0.756172639278525072E+01    0.136360172636613619E+01    0.882507419303902907E+01    0.815987360047609078E+00   -0.392889117275283343E+04
    0.756172639278525072E+01    0.136360172636613619E+01    0.882507419303902907E+01    0.815987360047609078E+00   -0.392889117275283343E+04
    0.421436891671898284E+01    0.442072467655803969E+01    0.620962617933154348E+01    0.850766791373749554E+00   -0.392887546016466058E+04
    0.156067177110918607E+02    0.374058031158173376E+01    0.681712441584762630E+01    0.816332394354619906E+00   -0.392885662535295887E+04
    0.156067177110918607E+02    0.374058031158173376E+01    0.681712441584762630E+01    0.816332394354619906E+00   -0.392885662535295887E+04
    0.105634837743516350E+02    0.826429671995563098E+01    0.919481284238369767E+01    0.849413262835331029E+00   -0.392875130740989243E+04
    0.105634837743516350E+02    0.826429671995563098E+01    0.919481284238369767E+01    0.849413262835331029E+00   -0.392875130740989243E+04
    0.801264192552528343E+01    0.529643016482290374E+01    0.623339602680396609E+01    0.817922594570896111E+00   -0.392870684144378629E+04
    0.140141963190251406E+02    0.788139251251443129E+00    0.825516761758035145E+01    0.818817302616287934E+00   -0.392862867099590949E+04
    0.140141963190251406E+02    0.788139251251443129E+00    0.825516761758035145E+01    0.818817302616287934E+00   -0.392862867099590949E+04
    0.103085096898948230E+02    0.521214798284835634E+01    0.686252163043192098E+01    0.819060285982617486E+00   -0.392860850889198900E+04
    0.103085096898948230E+02    0.521214798284835634E+01    0.686252163043192098E+01    0.819060285982617486E+00   -0.392860850889198900E+04
    0.597762635336298676E+01    0.970856685831888910E+01    0.954958277290149127E+01    0.847577594545894319E+00   -0.392859885265163666E+04
    0.597762635336298676E+01    0.970856685831888910E+01    0.954958277290149127E+01    0.847577594545894319E+00   -0.392859885265163666E+04
    0.115824337020978767E+02    0.820938678878834693E+01    0.390393131018718975E+01    0.845658737356927759E+00   -0.392858376759553130E+04
    0.115824337020978767E+02    0.820938678878834693E+01    0.390393131018718975E+01    0.845658737356927759E+00   -0.392858376759553130E+04
    0.156539400971426481E+02    0.165026096090674690E+01    0.924091887178788340E+01    0.820576868294253137E+00   -0.392848995411763099E+04
    0.719283859575917983E+01    0.383471454514139243E+01    0.773909972270450197E+01    0.820617798848820135E+00   -0.392848696180772185E+04
    0.719283859575917983E+01    0.383471454514139243E+01    0.773909972270450197E+01    0.820617798848820135E+00   -0.392848696180772185E+04
    0.140133403516385648E+02    0.146738369016261450E+01    0.893120816350050006E+01    0.820847678611007936E+00   -0.392847025950242460E+04
    0.456084743322585506E+01    0.477937509220452217E+01    0.599152247115785919E+01    0.821194578711684553E+00   -0.392844648305575174E+04
    0.456084743322585506E+01    0.477937509220452217E+01    0.599152247115785919E+01    0.821194578711684553E+00   -0.392844648305575174E+04
    0.192893567981557332E+02    0.112074567581936990E+01    0.273164530701068031E+01    0.840708671221769954E+00   -0.392844207617917664E+04
    0.119419870989490295E+02    0.747678795722811618E+01    0.767091661178979223E+01    0.845413370475368353E+00   -0.392844190167801662E+04
    0.109476112218359241E+02    0.283236770803174442E+01    0.308659205271349180E+01    0.838194336053124101E+00   -0.392839688259259083E+04
    0.772559844803149520E+01    0.751161599123994517E+01    0.546798701277124977E+01    0.844395443213295405E+00   -0.392838026710301483E+04
    0.772559844803149520E+01    0.751161599123994517E+01    0.546798701277124977E+01    0.844395443213295405E+00   -0.392838026710301483E+04
    0.144291993161459118E+02    0.102506614833551724E+01    0.934826228509832546E+01    0.844086100690220276E+00   -0.392835789669940368E+04
    0.618936945293407348E+01    0.596217618389455950E+01    0.343904789421319279E+01    0.835823096587650083E+00   -0.392835304584960249E+04
    0.521732365426752231E+01    0.340915008688407717E+01    0.324310588716323878E+01    0.836143183938639289E+00   -0.392834001954642326E+04
    0.167086027950160130E+02    0.388323096139108159E+01    0.427818788232246305E+01    0.823299982664736030E+00   -0.392833514233398091E+04
    0.197138631922188203E+02    0.491854567870087522E+00    0.313528900500058683E+01    0.842891524936638215E+00   -0.392833241713822463E+04
    0.197138631922188203E+02    0.491854567870087522E+00    0.313528900500058683E+01    0.842891524936638215E+00   -0.392833241713822463E+04
    0.174766849563267996E+02    0.780604404328941737E+01    0.934019309175196710E+01    0.823239752681505399E+00   -0.392831532574191624E+04
    0.185505046213833822E+02    0.786335075392880523E+01    0.519732851738807256E+01    0.842776292914292569E+00   -0.392829014344908774E+04
    0.185505046213833822E+02    0.786335075392880523E+01    0.519732851738807256E+01    0.842776292914292569E+00   -0.392829014344908774E+04
    0.841495932317418927E+01    0.592892963497637560E+01    0.591653294580878608E+01    0.842650850464064405E+00   -0.392827873331238015E+04
    0.841495932317418927E+01    0.592892963497637560E+01    0.591653294580878608E+01    0.842650850464064405E+00   -0.392827873331238015E+04
    0.191453845897027275E+01    0.127482720818718254E+01    0.430845199135971235E+01    0.841992824854141952E+00   -0.392825609844950714E+04
    0.172449249517392644E+02    0.876563105180847657E+01    0.704835409568783078E+01    0.824899503470851503E+00   -0.392822788142677837E+04
    0.602567197843657354E+01    0.245991069689242048E+01    0.428240767857443139E+01    0.825601261468183134E+00   -0.392821349425308199E+04
    0.602567197843657354E+01    0.245991069689242048E+01    0.428240767857443139E+01    0.825601261468183134E+00   -0.392821349425308199E+04
    0.989340584295635495E+01    0.554125306997549583E+01    0.610976501763351365E+01    0.841235287997356362E+00   -0.392821006192919549E+04
    0.155013459862907954E+02    0.210283462107804286E+01    0.872962085607987248E+01    0.840947997161994865E+00   -0.392819692171039833E+04
    0.155013459862907954E+02    0.210283462107804286E+01    0.872962085607987248E+01    0.840947997161994865E+00   -0.392819692171039833E+04
    0.185898070479323536E+02    0.620411479623692408E+01    0.609579670681762309E+01    0.840436661793162010E+00   -0.392817636759458901E+04
    0.124415618570176782E+02    0.494766801579041293E-01    0.307044438495823080E+01    0.840274883653084892E+00   -0.392817460356172114E+04
    0.124415618570176782E+02    0.494766801579041293E-01    0.307044438495823080E+01    0.840274883653084892E+00   -0.392817460356172114E+04
    0.916986695566571441E+01    0.528807678784147028E+00    0.389685789777526104E+01    0.840104834084774765E+00   -0.392817129650853485E+04
    0.620075659883835151E+01    0.909279976141170820E+01    0.728712628058939416E+01    0.826260393761465428E+00   -0.392816815424233573E+04
    0.133409863029492488E+02    0.596805299596226391E+01    0.393681920248526396E+01    0.837573816391138815E+00   -0.392816564025473235E+04
    0.164064461712211624E+02    0.817229904914646532E+01    0.443590918637816678E+01    0.827461381185291556E+00   -0.392815871861141022E+04
    0.188466934558623258E+02    0.170584072406043474E+01    0.593351518947340395E+01    0.826754793308846603E+00   -0.392814930437088515E+04
    0.175686755801936201E+02    0.588903085329550358E+01    0.996580278823363486E+01    0.826797427837939969E+00   -0.392814748893039541E+04
    0.147554522468248095E+02    0.360665835102508270E+01    0.654992188308116141E+01    0.839377195117746444E+00   -0.392813651585456682E+04
    0.323238188931633807E+01    0.905156024637729750E+01    0.681238063670299709E+01    0.839154202439419405E+00   -0.392812915793641469E+04
    0.929313243372495634E+01    0.892505445283345900E+01    0.419707961758239634E+01    0.830240376981119965E+00   -0.392812714283416062E+04
    0.165125739370758069E+02    0.243039789383364635E+01    0.725629521798927257E+01    0.828109276492863033E+00   -0.392810428618715105E+04
    0.175629027969745053E+02    0.260336307642316811E+01    0.563208642469667886E+01    0.828269835320608161E+00   -0.392810039512461663E+04
    0.143415702418403974E+02    0.180256468914554757E+01    0.353924114277235624E+01    0.832380521121516281E+00   -0.392809392540492763E+04
    0.152359361170974665E+02    0.776808591151268990E+00    0.442168501700880689E+01    0.828863843630801123E+00   -0.392808733359936195E+04
    0.138166222746461784E+02    0.421748135017839809E+00    0.836863875734220031E+01    0.828781489277577554E+00   -0.392808598069386744E+04
    0.615365276507004566E+01    0.153898616556610768E+01    0.678992188573094069E+01    0.837664675675282799E+00   -0.392808579790339081E+04
    0.366647188125922119E+01    0.730615161687762793E+01    0.796703796263846442E+01    0.837409502578326137E+00   -0.392807961287330318E+04
    0.128191772522283642E+02    0.465572380337491687E+01    0.492134403159378309E+01    0.829604875404356346E+00   -0.392807392819203415E+04
    0.128521480942736801E+02    0.640228052732144270E+01    0.862727949849178799E+01    0.829290070134319102E+00   -0.392807387988123037E+04
    0.437225043865215479E+01    0.467536585123507431E+00    0.413937981418039236E+01    0.836405691448647293E+00   -0.392806395183306176E+04
    0.134063855147956534E+02    0.399504404752451459E+01    0.508231233753160971E+01    0.836142642400330649E+00   -0.392805839864531299E+04
    0.807337702167797033E+01    0.804812769625420188E+01    0.963540340700924958E+01    0.836373137401922095E+00   -0.392805827710486392E+04
    0.130552202297158093E+02    0.361377747648235381E+01    0.496778040375874852E+01    0.830582153065971829E+00   -0.392805454992420982E+04
    0.814522086783614974E+01    0.937805498982802810E+01    0.667736537024774179E+01    0.836130128739213330E+00   -0.392805445235516845E+04
    0.584014143450345813E+01    0.458799784546404599E+01    0.502568292866488520E+01    0.835650579223896184E+00   -0.392805324644343955E+04
    0.192555229470361944E+02    0.769087379439170782E+01    0.571382509463085952E+01    0.835162516233897367E+00   -0.392804272833327786E+04
    0.197350662379326494E+02    0.619702229069283295E+01    0.561273774819815685E+01    0.831281136719946412E+00   -0.392804256712666529E+04
    0.112306761053289215E+02    0.726542136175162767E+01    0.986763785544453498E+01    0.832140632538572955E+00   -0.392803346721757134E+04
    0.136428537733069710E+02    0.932986430729632943E+01    0.984749984867639583E+01    0.832469131664353768E+00   -0.392803178373424316E+04
    0.318745547698196763E+01    0.385375975413538407E+01    0.871796383586146106E+01    0.833373700843242249E+00   -0.392803030396630766E+04
    0.117753516122132051E+02    0.580898473798082904E+01    0.786733229237476550E+01    0.832105698490721579E+00   -0.392803369545118312E+04
    0.843802326758437182E+01    0.937069161151470276E+01    0.751712158946720876E+01    0.834313096116976016E+00   -0.392803369474823330E+04
    0.417077614500111604E+01    0.595050930373438014E+01    0.806966611745813722E+01    0.834106696682704873E+00   -0.392803249674103790E+04
    0.645281331223304022E+01    0.654545760729370052E+01    0.681799064456992099E+01    0.834479395732002915E+00   -0.392803492240962714E+04
