    0.317148515736697223E+00    0.112114504062462927E+02    0.119842560770181472E+01   -0.252096552150725347E+04
    0.299651574720109337E+00    0.112865446341377780E+02    0.120339719009430546E+01   -0.251802669688845754E+04
    0.360640937546378160E+00    0.113447555679321255E+02    0.118545474849926036E+01   -0.251688773818477239E+04
    0.372767975087457459E+00    0.113939875617995270E+02    0.118115761916079975E+01   -0.251661526974955177E+04
    0.263152656434528787E+00    0.113756165017001489E+02    0.121840869620786973E+01   -0.251633463808037413E+04
    0.273713321457690062E+00    0.113927356546571339E+02    0.121891827482014170E+01   -0.251452392036325273E+04
    0.283318357261761411E+00    0.113927808832149129E+02    0.121675743879819387E+01   -0.251430670143182897E+04
    0.321461985298915676E+00    0.114507529271180317E+02    0.119572595973284979E+01   -0.251400429949376439E+04
    0.339741267743387310E+00    0.114581453802203654E+02    0.119077826049543156E+01   -0.251360465958943905E+04
    0.332805067570424495E+00    0.113968263023556631E+02    0.119925823440687096E+01   -0.251336809484171135E+04
    0.276347499491102933E+00    0.114945611154547969E+02    0.122624264210846912E+01   -0.251315514528590165E+04
    0.316297779999464068E+00    0.113975880319611580E+02    0.120488156087579745E+01   -0.251306844569319583E+04
    0.294442070267744049E+00    0.114202058104146023E+02    0.120785133886117557E+01   -0.251263577756223776E+04
    0.308810359879528096E+00    0.114047997157595464E+02    0.120402711485051639E+01   -0.251259303346659044E+04
    0.281079473320589635E+00    0.115089804015949202E+02    0.121057004903682364E+01   -0.251249813272216670E+04
    0.286039115236368768E+00    0.114206667391831331E+02    0.121450329026178050E+01   -0.251236282909840384E+04
    0.292739590926954452E+00    0.114360773439358674E+02    0.120872759287332054E+01   -0.251205868145990735E+04
    0.264087009415618301E+00    0.114951157501410623E+02    0.122824741874086429E+01   -0.251203269997001007E+04
    0.301474544283656665E+00    0.114205225627241287E+02    0.120910215888913619E+01   -0.251186951419726847E+04
    0.309252080235039140E+00    0.114230703005008056E+02    0.120485775224716996E+01   -0.251171981052209685E+04
    0.338000115327265205E+00    0.114813294569559368E+02    0.119331990645056285E+01   -0.251149910111301688E+04
    0.307676282203458107E+00    0.114400595578469062E+02    0.120840330227052828E+01   -0.251109311985656132E+04
    0.305940402472107187E+00    0.114386363699890445E+02    0.120665909895764489E+01   -0.251103522395305845E+04
    0.293684411318084204E+00    0.114500555145280636E+02    0.121376262845045035E+01   -0.251098153292984534E+04
    0.317682094606014931E+00    0.114740516418479750E+02    0.120029111800588129E+01   -0.251080772579660334E+04
    0.326272980420991454E+00    0.114946316542746931E+02    0.119734554925623882E+01   -0.251060168972446809E+04
    0.273772309232617694E+00    0.114834437017452196E+02    0.121782001170728882E+01   -0.251049749457882263E+04
    0.307091661343542044E+00    0.114972673167233843E+02    0.121386496984881553E+01   -0.251045181076188328E+04
    0.324882497738090414E+00    0.114580256032609018E+02    0.120107957003835919E+01   -0.251035689535596157E+04
    0.282393050879863605E+00    0.114714179351522105E+02    0.121751725214847806E+01   -0.251033282728718950E+04
    0.355106992933564958E+00    0.115720031729797928E+02    0.118867082319835804E+01   -0.251032901222271721E+04
    0.297292985024285916E+00    0.114607436616487508E+02    0.121116715790518970E+01   -0.251017124162039181E+04
    0.285440580323465865E+00    0.115268652577241486E+02    0.122273082363858032E+01   -0.251012479240948960E+04
    0.330891700743345452E+00    0.114690268007244889E+02    0.119937060309521959E+01   -0.251007875695370967E+04
    0.309272107780562744E+00    0.114685180926530261E+02    0.120928765183358555E+01   -0.251003725315432212E+04
    0.334429357118761039E+00    0.114792813157325142E+02    0.119726481489457459E+01   -0.251002379165648836E+04
    0.345755944817586980E+00    0.114861983467009576E+02    0.119550941673316413E+01   -0.251000970215359939E+04
    0.332389501313602509E+00    0.114737556016227238E+02    0.119994939008572277E+01   -0.250990689223112258E+04
    0.338933338927594252E+00    0.114880761612623417E+02    0.119673186780984153E+01   -0.250969994370480163E+04
    0.321946376334061757E+00    0.114765689962712987E+02    0.120258208586914517E+01   -0.250951256671205374E+04
    0.326621263261441364E+00    0.114840067404117505E+02    0.120353504179836079E+01   -0.250950223545059544E+04
    0.338894390559464964E+00    0.115014841802161012E+02    0.120077796353862598E+01   -0.250946267974658986E+04
    0.314058326289248568E+00    0.114761008930798809E+02    0.120521558192958622E+01   -0.250941516553621022E+04
    0.319691812789883012E+00    0.114951701697025239E+02    0.120129565743901456E+01   -0.250937870570657287E+04
    0.327597298829532091E+00    0.114953671701855704E+02    0.119944268703491930E+01   -0.250927154498584923E+04
    0.304616081570402542E+00    0.115272970462455859E+02    0.121565259125423442E+01   -0.250927099491937634E+04
    0.343164140953822583E+00    0.115021599102686221E+02    0.119630496274573228E+01   -0.250925816437753429E+04
    0.258746149176757645E+00    0.115423043827823886E+02    0.122660999357894296E+01   -0.250885062956196498E+04
    0.286905112337291990E+00    0.114991790469208901E+02    0.121536422484318885E+01   -0.250882020725494567E+04
    0.282425743509511551E+00    0.115074854585805326E+02    0.121866867503432430E+01   -0.250876500210828726E+04
    0.305169283229302812E+00    0.114995509229243211E+02    0.121127822942013119E+01   -0.250865008606957144E+04
    0.339699105531470480E+00    0.115444950966003166E+02    0.120323583679205459E+01   -0.250847779344603259E+04
    0.265362647895776960E+00    0.115392339794679746E+02    0.122549372731807704E+01   -0.250846513099775439E+04
    0.312093046304393273E+00    0.115202257309023235E+02    0.121118286618250526E+01   -0.250843789650900908E+04
    0.303925234496805641E+00    0.115215564659487057E+02    0.121397651371451931E+01   -0.250838305832124297E+04
    0.339048132754987075E+00    0.115198420448421324E+02    0.119812711514589099E+01   -0.250833174399482778E+04
    0.321514869094113809E+00    0.115337331398447400E+02    0.120893698978245223E+01   -0.250830011724273481E+04
    0.286673274044087989E+00    0.115190518472291323E+02    0.121423994147513903E+01   -0.250824726175645492E+04
    0.293720888179004991E+00    0.115267703398309429E+02    0.121734923694401909E+01   -0.250819163105569805E+04
    0.293115735140549449E+00    0.115118652672118102E+02    0.121456462852331226E+01   -0.250809445344414689E+04
    0.307118575044114550E+00    0.115695932168580935E+02    0.120459819795413292E+01   -0.250808652854947559E+04
    0.264668780410343030E+00    0.115575899507365296E+02    0.122269152940215187E+01   -0.250803102634257084E+04
    0.288513046454206390E+00    0.115195067630679286E+02    0.121417570455019552E+01   -0.250801912069885111E+04
    0.283732729637831582E+00    0.115501574944780128E+02    0.121414574319887092E+01   -0.250786898430768497E+04
    0.280474462882095488E+00    0.115275693543201196E+02    0.121860004541318245E+01   -0.250786608633647847E+04
    0.343926926689257895E+00    0.115659463526613600E+02    0.119464922505330073E+01   -0.250781729473501946E+04
    0.296030490316557926E+00    0.115167710102435077E+02    0.121324485988144892E+01   -0.250777806318468538E+04
    0.316699202535118407E+00    0.115207305953197743E+02    0.120446020994081548E+01   -0.250774747484822501E+04
    0.348662824775342273E+00    0.115554556845915766E+02    0.119472687333828431E+01   -0.250770355018607188E+04
    0.305520985198002415E+00    0.115251482577395183E+02    0.120796817095446052E+01   -0.250758833806682833E+04
    0.295953807264341617E+00    0.115213475235896148E+02    0.121299612295047687E+01   -0.250757791651888192E+04
    0.317647139150241120E+00    0.115293901755286186E+02    0.120393942653994834E+01   -0.250752402212512334E+04
    0.320614525487034174E+00    0.115420141934522213E+02    0.120217159244169713E+01   -0.250750314008831947E+04
    0.310264401853847127E+00    0.115220126524226210E+02    0.120907825529019264E+01   -0.250747537023837958E+04
    0.245807953379729965E+00    0.116227091698016736E+02    0.123061328490010746E+01   -0.250743363192870856E+04
    0.314072243014384189E+00    0.115365796004668741E+02    0.120482604386559045E+01   -0.250734297018948928E+04
    0.319819091252829590E+00    0.115298409067851022E+02    0.120653550843285284E+01   -0.250732560680241522E+04
    0.307006395053390280E+00    0.115420391663604551E+02    0.120712996875137635E+01   -0.250715339983975309E+04
    0.315463434270628118E+00    0.115339147808618954E+02    0.120826021895735347E+01   -0.250711385540618357E+04
    0.323384297748059657E+00    0.115435562233076450E+02    0.120665614295191892E+01   -0.250706235167508385E+04
    0.333877063879721825E+00    0.115710129543048925E+02    0.120563941025697341E+01   -0.250701915486950156E+04
    0.322905205251463656E+00    0.115390873778937042E+02    0.120577009602328400E+01   -0.250701202803158776E+04
    0.295666441337959607E+00    0.115458068939852563E+02    0.121150663000350489E+01   -0.250694490728229266E+04
    0.310329503279539398E+00    0.115444565367123460E+02    0.120644062563689780E+01   -0.250692509440906815E+04
    0.332960043890988433E+00    0.115585961893338034E+02    0.119954026385189150E+01   -0.250684292602761661E+04
    0.286386817302248520E+00    0.115463178727714038E+02    0.121662815767659849E+01   -0.250679839879348629E+04
    0.352495822708020434E+00    0.115800824435571599E+02    0.119508917845643614E+01   -0.250676963136144832E+04
    0.263758700458510742E+00    0.115810414915480848E+02    0.122494082293181528E+01   -0.250674001925612902E+04
    0.261770252461552166E+00    0.115846975765530047E+02    0.122583749305467515E+01   -0.250673994802746711E+04
    0.284949200794535451E+00    0.115505854680925655E+02    0.121724688796428837E+01   -0.250667006761802259E+04
    0.298546688627646217E+00    0.115438005938838000E+02    0.121215010283832392E+01   -0.250660350877383098E+04
    0.361825627888832491E+00    0.116040161235197701E+02    0.119257324925691410E+01   -0.250658439107656295E+04
    0.341098495234573140E+00    0.115779092806409327E+02    0.120203714934282724E+01   -0.250643844361590118E+04
    0.339357285018942689E+00    0.115809168529836111E+02    0.120319368919022196E+01   -0.250641967224567634E+04
    0.334884531901009752E+00    0.115649212846176592E+02    0.120258719408113457E+01   -0.250637784350281800E+04
    0.293259462342390698E+00    0.115520525053192209E+02    0.121401689487702913E+01   -0.250637433044968293E+04
    0.314294110434282625E+00    0.115500652245573896E+02    0.120790295511930168E+01   -0.250628982909562183E+04
    0.347083080296358537E+00    0.115988391944838334E+02    0.120136906558466250E+01   -0.250621045300889136E+04
    0.285069775978226470E+00    0.115616984991748666E+02    0.121760592243907406E+01   -0.250617684190669661E+04
    0.276296164877787742E+00    0.115817234098873545E+02    0.122398173659220100E+01   -0.250610891800469517E+04
    0.290206563179922106E+00    0.115648324405882033E+02    0.121785436954228121E+01   -0.250602361944032418E+04
    0.264898755419840870E+00    0.116000705420547821E+02    0.122809386161604017E+01   -0.250594587777644483E+04
    0.354383612350235022E+00    0.116245372587930493E+02    0.119346461488409705E+01   -0.250591891128128918E+04
    0.328253243730369015E+00    0.115831076506364887E+02    0.120169705626264833E+01   -0.250567725207993726E+04
    0.337725196951214890E+00    0.115881325343615558E+02    0.120278758012912812E+01   -0.250567647374721491E+04
    0.306623546135475489E+00    0.115687766310972737E+02    0.121253423069548183E+01   -0.250566675686741974E+04
    0.298019289293582568E+00    0.115694727827553265E+02    0.121535512596046091E+01   -0.250566671947486884E+04
    0.325940394356796115E+00    0.115978282033316731E+02    0.120886435628926003E+01   -0.250557171200846506E+04
    0.328379233337505849E+00    0.115811791798463606E+02    0.120244075597855793E+01   -0.250552197445674074E+04
    0.261347118143035961E+00    0.116300405663166408E+02    0.122492621328924822E+01   -0.250551069517122414E+04
    0.315208845666686110E+00    0.115971019563908513E+02    0.120473551488265862E+01   -0.250550883212784265E+04
    0.308637998154257298E+00    0.115717064567975658E+02    0.120876055977439356E+01   -0.250548947751037304E+04
    0.301216187804813351E+00    0.115711395425404291E+02    0.121396589197462013E+01   -0.250548742490739323E+04
    0.285181985748694522E+00    0.116069056328354563E+02    0.121515516815592561E+01   -0.250539587610609169E+04
    0.289724306409976540E+00    0.115777293099428160E+02    0.121644611141969250E+01   -0.250532182141318299E+04
    0.351913140499041155E+00    0.116249591101386667E+02    0.119541388910367208E+01   -0.250523912025219261E+04
    0.293317728548151468E+00    0.115786976751966737E+02    0.121608312598273360E+01   -0.250519031813444963E+04
    0.317363776537386566E+00    0.116262061390206277E+02    0.120370972390931574E+01   -0.250509026137297133E+04
    0.290280454366379725E+00    0.115903848887293712E+02    0.121502726749979573E+01   -0.250503074680096188E+04
    0.306982795299218236E+00    0.115798532875693141E+02    0.121155699478936274E+01   -0.250500976259367599E+04
    0.320072021110102800E+00    0.115881640212632231E+02    0.120548968084651986E+01   -0.250495574146398030E+04
    0.314973249203251093E+00    0.115980669242324641E+02    0.120616409858199969E+01   -0.250482372361067428E+04
    0.331545839098297712E+00    0.116122834698791149E+02    0.120106677902553138E+01   -0.250476179484046952E+04
    0.281335991439842170E+00    0.116016956450486806E+02    0.122141908486659978E+01   -0.250466145573366748E+04
    0.313716732024194256E+00    0.115922891465551494E+02    0.121035968564739416E+01   -0.250464107134129381E+04
    0.316876693687457467E+00    0.115918062779946140E+02    0.120869612244345048E+01   -0.250462892147351704E+04
    0.332872694651982604E+00    0.116156323240382875E+02    0.120601943307683013E+01   -0.250462812630030476E+04
    0.309513674309131459E+00    0.115892053832515582E+02    0.121046742637934135E+01   -0.250460802799235989E+04
    0.299046956515227724E+00    0.116129170236440125E+02    0.121101682211487827E+01   -0.250456064273778065E+04
    0.322894457713481742E+00    0.116190063782269153E+02    0.120329292755653428E+01   -0.250452652870614156E+04
    0.283666223878634105E+00    0.116468486323330449E+02    0.121565375314755220E+01   -0.250449475038975834E+04
    0.332620378017559837E+00    0.116385837620832060E+02    0.120821882457376373E+01   -0.250442727047697326E+04
    0.287263450421741062E+00    0.116070810535824052E+02    0.121649069460709369E+01   -0.250442013787954238E+04
    0.258604945082241744E+00    0.116479786150033018E+02    0.123187885040766831E+01   -0.250441521750544780E+04
    0.282181945512157195E+00    0.116051500824823730E+02    0.122012643544148691E+01   -0.250440510314286257E+04
    0.348470691442081870E+00    0.116334370238079874E+02    0.119784817074228989E+01   -0.250439423793197784E+04
    0.284151178105161994E+00    0.116161822487450888E+02    0.121715274242689908E+01   -0.250436825012485860E+04
    0.307367372685525164E+00    0.115958611271425553E+02    0.121179281739905709E+01   -0.250433497930286876E+04
    0.321080720371041628E+00    0.116062709828045882E+02    0.120877098011732209E+01   -0.250431827475277123E+04
    0.321895765181467397E+00    0.116150540561966036E+02    0.120929738204637260E+01   -0.250414505994253068E+04
    0.294389624180804277E+00    0.116042555693532723E+02    0.121492235341978549E+01   -0.250414180255973133E+04
    0.345801404420633396E+00    0.116408486148789549E+02    0.119817090145308036E+01   -0.250408730981536974E+04
    0.329535204072403165E+00    0.116228573225010212E+02    0.120252072639936913E+01   -0.250406685469309605E+04
    0.262615915191069915E+00    0.116519160827299650E+02    0.123097562781229231E+01   -0.250402744146473378E+04
    0.305559457854937211E+00    0.116279736538837355E+02    0.120904135419251757E+01   -0.250400508974673676E+04
    0.275172178854564964E+00    0.116245372587930493E+02    0.122232679550252432E+01   -0.250397502551861999E+04
    0.320688023254230847E+00    0.116144492343837786E+02    0.120587453121083543E+01   -0.250392282616661214E+04
    0.287779349698341180E+00    0.116117997427352009E+02    0.121876796375499463E+01   -0.250391581445001384E+04
    0.306878345998760571E+00    0.116452307722094908E+02    0.120807482781697373E+01   -0.250391051756455272E+04
    0.299031563485539054E+00    0.116484430004330477E+02    0.122053033702426927E+01   -0.250390662793702859E+04
    0.289435431601339554E+00    0.116111554163305648E+02    0.121785378228501218E+01   -0.250388698984181701E+04
    0.327796807863409922E+00    0.116181055790781897E+02    0.120512431382552609E+01   -0.250383257062068606E+04
    0.287543511386301187E+00    0.116495153809183254E+02    0.121501128239183154E+01   -0.250380835443978367E+04
    0.285351209486388924E+00    0.116171490052747135E+02    0.121993248450744285E+01   -0.250377813755704028E+04
    0.276834615928037098E+00    0.116263170730707941E+02    0.122250524380249881E+01   -0.250374871147915110E+04
    0.316714001790886546E+00    0.116323292355160017E+02    0.120584674734257158E+01   -0.250374717652541494E+04
    0.251344492921208640E+00    0.116789080254471820E+02    0.123177348595383362E+01   -0.250368142732076376E+04
    0.268008185790670206E+00    0.116426204380449754E+02    0.122524682441040289E+01   -0.250366697343659143E+04
    0.314662698607452718E+00    0.116137098902137659E+02    0.120897567183429389E+01   -0.250366451297595040E+04
    0.332390999747554594E+00    0.116349564870774227E+02    0.120614568640511521E+01   -0.250364169999225487E+04
    0.351084538772362120E+00    0.116557040419813269E+02    0.119913065290481446E+01   -0.250362432868351607E+04
    0.305244888857956476E+00    0.116165010621507871E+02    0.121116786075588911E+01   -0.250360122607892754E+04
    0.309799608528306181E+00    0.116149017084646164E+02    0.121132630474884384E+01   -0.250354755622014454E+04
    0.268854744661768175E+00    0.116507545066530849E+02    0.122829899652995644E+01   -0.250347537404651030E+04
    0.260285239294011761E+00    0.116655794736870622E+02    0.123165127996675028E+01   -0.250345352940876455E+04
    0.291561511205911617E+00    0.116208933007636048E+02    0.121784663005923122E+01   -0.250343093886548695E+04
    0.316393858218136148E+00    0.116250655083097723E+02    0.120743983173351177E+01   -0.250342132087213895E+04
    0.332943014770275214E+00    0.116670858236293729E+02    0.120058540324529273E+01   -0.250341251794686923E+04
    0.279837757157293920E+00    0.116332962765041401E+02    0.122274778012059748E+01   -0.250335346260096412E+04
    0.266546670806765806E+00    0.116512651180557967E+02    0.122776156142371873E+01   -0.250334807772585918E+04
    0.339773005887762436E+00    0.116447105778008915E+02    0.120222377621419962E+01   -0.250332999118180260E+04
    0.317138375127309746E+00    0.116271053506810915E+02    0.120736913066822171E+01   -0.250332518106261614E+04
    0.309654167326940177E+00    0.116323292355160017E+02    0.121402506581047320E+01   -0.250326226395584354E+04
    0.317388847403010821E+00    0.116343684628432857E+02    0.121135807110317595E+01   -0.250325436139514431E+04
    0.288708893297340952E+00    0.116294176602916828E+02    0.121973722181604671E+01   -0.250321707781735995E+04
    0.308957681684663588E+00    0.116391767264452017E+02    0.121475757648755311E+01   -0.250309116137609362E+04
    0.303452844086847084E+00    0.116373516450223704E+02    0.121117345434875623E+01   -0.250307595157439846E+04
    0.304786210232031118E+00    0.116373516450223704E+02    0.121073757541577787E+01   -0.250307099248186250E+04
    0.283988180485628794E+00    0.116371112372304939E+02    0.121938575800784266E+01   -0.250304272143276285E+04
    0.305032487903095284E+00    0.116288679445949015E+02    0.121411910987878358E+01   -0.250302337464099355E+04
    0.352547297505630852E+00    0.116737567293187823E+02    0.119860658040184376E+01   -0.250302012720327957E+04
    0.329939773749978127E+00    0.116600535668108520E+02    0.120234079109802172E+01   -0.250301899403716652E+04
    0.306455018485575437E+00    0.116675308804150042E+02    0.121838037502818164E+01   -0.250300383613183249E+04
    0.288598021148689599E+00    0.116943052920343966E+02    0.121441302554323483E+01   -0.250300077213270379E+04
    0.313316116423963842E+00    0.116411214302238815E+02    0.121306297179824285E+01   -0.250295579550472075E+04
    0.272288216590605758E+00    0.116622151505949461E+02    0.122793458658260102E+01   -0.250293591834867357E+04
    0.289105790372465365E+00    0.116416747105227785E+02    0.121686951356364004E+01   -0.250287159272493363E+04
    0.314306949647997769E+00    0.116477491331040941E+02    0.121327082729850999E+01   -0.250284028941876613E+04
    0.268615504208779277E+00    0.116645491632339002E+02    0.122843910018585589E+01   -0.250280001151240413E+04
    0.297344836396664425E+00    0.116335076476638584E+02    0.121623366498504715E+01   -0.250279652546242141E+04
    0.284074754939373120E+00    0.116425244951206253E+02    0.122153917850841687E+01   -0.250278304563226311E+04
    0.281694110713851975E+00    0.116873133011074657E+02    0.121756250313693637E+01   -0.250277150244142649E+04
    0.337593812635378354E+00    0.116779299712836728E+02    0.120018440445623775E+01   -0.250276923224065058E+04
    0.299078114691439023E+00    0.116345876127295966E+02    0.121604621284265502E+01   -0.250276909132683704E+04
    0.328686480368274248E+00    0.116624026961415854E+02    0.120303458192266177E+01   -0.250276895911158863E+04
    0.309584553715918254E+00    0.116337205296813266E+02    0.121189316687657267E+01   -0.250276488422483999E+04
    0.291626693978512319E+00    0.116362460142544464E+02    0.121780663995068217E+01   -0.250276324767036340E+04
    0.339166688975305497E+00    0.116992270245466479E+02    0.119907747610776672E+01   -0.250272174598823449E+04
    0.293468076935506528E+00    0.116396945838970787E+02    0.121856429953644030E+01   -0.250270102960498616E+04
    0.315351298180186590E+00    0.116455473382511610E+02    0.120787858413590588E+01   -0.250269147210668598E+04
    0.290994090724429055E+00    0.116486779619394270E+02    0.121593361205247041E+01   -0.250267761747578106E+04
    0.297700109067904228E+00    0.116532628360476362E+02    0.121312921011740471E+01   -0.250262177126616552E+04
    0.309214488514043984E+00    0.116385837620832060E+02    0.121276944119421737E+01   -0.250261276880387777E+04
    0.304782666585631856E+00    0.116393483434878160E+02    0.121459974826908912E+01   -0.250260453879589841E+04
    0.301200684297305732E+00    0.116370315315620054E+02    0.121443477971588543E+01   -0.250260139603897642E+04
    0.296720851088184856E+00    0.116390060960028237E+02    0.121542401135856371E+01   -0.250259271581851726E+04
    0.260425854160384440E+00    0.116835752171226819E+02    0.123172905539926014E+01   -0.250255730562669351E+04
    0.293270073769621997E+00    0.116954588617819883E+02    0.121319112686550756E+01   -0.250255681825418014E+04
    0.275385146072049447E+00    0.116564623951288908E+02    0.122404158150364606E+01   -0.250251838075861815E+04
    0.271834424422206455E+00    0.116633588861920856E+02    0.122452805474198434E+01   -0.250249599834289938E+04
    0.291973238422774228E+00    0.116424288619525456E+02    0.121770480346854892E+01   -0.250249533544246106E+04
    0.261751427112554835E+00    0.116789080254471820E+02    0.122991175677938069E+01   -0.250249038114879386E+04
    0.336645836593732595E+00    0.116627814312349436E+02    0.120389789145252379E+01   -0.250245256107077330E+04
    0.316469418681088910E+00    0.116868732392975154E+02    0.120592887249013381E+01   -0.250241015248815984E+04
    0.344476208465800682E+00    0.116847682820436685E+02    0.120368174254798221E+01   -0.250235082668805717E+04
    0.305442241498399103E+00    0.116500048005343544E+02    0.121543766016286670E+01   -0.250234136460495665E+04
    0.281759929138556853E+00    0.116549647666688099E+02    0.122099326976312250E+01   -0.250232096064382313E+04
    0.259672893414095218E+00    0.116931962633681970E+02    0.123275087456667620E+01   -0.250232053149484955E+04
    0.283578440714672808E+00    0.116570834964531436E+02    0.122029149226979117E+01   -0.250217369736109777E+04
    0.315313224355618815E+00    0.116523136806040650E+02    0.121016789897075738E+01   -0.250208036794421878E+04
    0.334002179988066028E+00    0.116732066298035573E+02    0.120309364858635348E+01   -0.250207498992031788E+04
    0.271575999036087201E+00    0.116792415160985215E+02    0.122435559326958243E+01   -0.250195850078752119E+04
    0.317520853023264438E+00    0.116706020980303187E+02    0.120719585137996566E+01   -0.250195174469998938E+04
    0.278620820371106415E+00    0.117721223407724480E+02    0.121815715541198610E+01   -0.250192273920704974E+04
    0.278620820371106415E+00    0.117721223407724480E+02    0.121815715541198610E+01   -0.250192273920704974E+04
    0.287992340348890041E+00    0.116583665628887445E+02    0.121962466096103617E+01   -0.250191734458698011E+04
    0.287992340348890041E+00    0.116583665628887445E+02    0.121962466096103617E+01   -0.250191734458698011E+04
    0.313223973457910698E+00    0.116631651321540382E+02    0.120911645883410701E+01   -0.250191663447918017E+04
    0.270158687499318539E+00    0.116877601808707663E+02    0.122928050051910964E+01   -0.250191446339202503E+04
    0.281513241922031365E+00    0.116820573928776348E+02    0.121929250883649209E+01   -0.250191352528897460E+04
    0.277008581912310758E+00    0.116713592851669432E+02    0.122269384761814770E+01   -0.250189447059816484E+04
    0.331350977409985814E+00    0.116847682820436685E+02    0.120860872836233124E+01   -0.250187679870207012E+04
    0.274504888298005345E+00    0.116748891761137887E+02    0.122598626011575385E+01   -0.250185740579712638E+04
    0.343092434294078263E+00    0.116886752706105952E+02    0.120178229971762662E+01   -0.250180479901782292E+04
    0.313507084451622120E+00    0.116604029363512609E+02    0.121201652335693355E+01   -0.250178463613462782E+04
    0.313507084451622120E+00    0.116604029363512609E+02    0.121201652335693355E+01   -0.250178463613462782E+04
    0.320943287747715078E+00    0.116631651321540382E+02    0.120887228813892245E+01   -0.250178252218228499E+04
    0.283949441813072800E+00    0.116847682820436685E+02    0.121861339965414950E+01   -0.250166081128644510E+04
    0.283949441813072800E+00    0.116847682820436685E+02    0.121861339965414950E+01   -0.250166081128644510E+04
    0.279937622127076902E+00    0.116754723909907270E+02    0.122452791974306119E+01   -0.250164986414109717E+04
    0.334108124729970535E+00    0.116799202363619763E+02    0.120437751334066667E+01   -0.250164689775854276E+04
    0.334108124729970535E+00    0.116799202363619763E+02    0.120437751334066667E+01   -0.250164689775854276E+04
    0.297076867578722814E+00    0.117006018543563268E+02    0.122245203030699412E+01   -0.250161279542003376E+04
    0.327978976661901178E+00    0.116937454278383157E+02    0.120396233906844130E+01   -0.250155955483756316E+04
    0.330773627271101101E+00    0.116828063487135623E+02    0.120755266216874246E+01   -0.250154490408514857E+04
    0.292239305014194928E+00    0.116820573928776348E+02    0.121585962077667964E+01   -0.250146550353289240E+04
    0.330242192010035129E+00    0.117126947566930379E+02    0.120272863397950425E+01   -0.250145861508548933E+04
    0.285293867195226092E+00    0.116882140950495206E+02    0.122457162512475115E+01   -0.250143578330313267E+04
    0.290444530938585299E+00    0.116724005093004557E+02    0.121766842213891002E+01   -0.250143317511188388E+04
    0.290444530938585299E+00    0.116724005093004557E+02    0.121766842213891002E+01   -0.250143317511188388E+04
    0.291384926695223700E+00    0.116877601808707663E+02    0.122259367760373894E+01   -0.250137147677624034E+04
    0.291384926695223700E+00    0.116877601808707663E+02    0.122259367760373894E+01   -0.250137147677624034E+04
    0.287146587793760788E+00    0.116769838259150731E+02    0.121875885966631237E+01   -0.250136705583631465E+04
    0.297575250422699111E+00    0.116737567293187823E+02    0.121495225097056969E+01   -0.250133641334180220E+04
    0.297575250422699111E+00    0.116737567293187823E+02    0.121495225097056969E+01   -0.250133641334180220E+04
    0.283541572675222120E+00    0.116754723909907270E+02    0.122189621579198993E+01   -0.250133575461323107E+04
    0.316143657611494322E+00    0.116716161203782125E+02    0.120989769015526516E+01   -0.250133443761505305E+04
    0.316143657611494322E+00    0.116716161203782125E+02    0.120989769015526516E+01   -0.250133443761505305E+04
    0.281573534789759716E+00    0.116864397888443694E+02    0.122503391149354668E+01   -0.250133074561956073E+04
    0.294273027159056455E+00    0.116882140950495206E+02    0.121506679443211807E+01   -0.250129192324055111E+04
    0.305047522637062030E+00    0.116698640956333861E+02    0.121404269679305687E+01   -0.250123443795441563E+04
    0.305047522637062030E+00    0.116698640956333861E+02    0.121404269679305687E+01   -0.250123443795441563E+04
    0.328979837534432329E+00    0.116860127524257358E+02    0.120560910922268438E+01   -0.250123091972026987E+04
    0.328979837534432329E+00    0.116860127524257358E+02    0.120560910922268438E+01   -0.250123091972026987E+04
    0.292408407184819585E+00    0.116734803788086801E+02    0.121938585562248902E+01   -0.250122288529164962E+04
    0.292408407184819585E+00    0.116734803788086801E+02    0.121938585562248902E+01   -0.250122288529164962E+04
    0.313013278418789231E+00    0.116757684492249219E+02    0.121026169657602134E+01   -0.250121404373644373E+04
    0.301022769001746793E+00    0.116716161203782125E+02    0.121641408160997133E+01   -0.250121203689395588E+04
    0.337719072774813778E+00    0.117020460715644603E+02    0.120237287110107571E+01   -0.250121077434356084E+04
    0.262082499470836783E+00    0.117245424297218932E+02    0.122753595633715173E+01   -0.250118467542219923E+04
    0.262082499470836783E+00    0.117245424297218932E+02    0.122753595633715173E+01   -0.250118467542219923E+04
    0.330722667993429975E+00    0.116873133011074657E+02    0.120628717018647102E+01   -0.250118052474487149E+04
    0.330722667993429975E+00    0.116873133011074657E+02    0.120628717018647102E+01   -0.250118052474487149E+04
    0.299316974824987092E+00    0.116999061886015987E+02    0.121292098748418153E+01   -0.250114494396505870E+04
    0.299316974824987092E+00    0.116999061886015987E+02    0.121292098748418153E+01   -0.250114494396505870E+04
    0.331456373511328006E+00    0.116966607344666897E+02    0.120809891901416022E+01   -0.250112878668437088E+04
    0.331456373511328006E+00    0.116966607344666897E+02    0.120809891901416022E+01   -0.250112878668437088E+04
    0.266814943194170651E+00    0.117086867362285911E+02    0.122644442492120298E+01   -0.250111578861357657E+04
    0.314848435344937116E+00    0.116816900623982516E+02    0.121296153978535748E+01   -0.250110502300341659E+04
    0.295995385247922294E+00    0.116754723909907270E+02    0.121780840581685901E+01   -0.250104861940337423E+04
    0.295995385247922294E+00    0.116754723909907270E+02    0.121780840581685901E+01   -0.250104861940337423E+04
    0.337868304764083471E+00    0.117020460715644603E+02    0.120315059914679878E+01   -0.250104115882199721E+04
    0.337868304764083471E+00    0.117020460715644603E+02    0.120315059914679878E+01   -0.250104115882199721E+04
    0.309031586279607029E+00    0.116835752171226819E+02    0.121130595804888608E+01   -0.250095453981419087E+04
    0.288790119228095166E+00    0.116960535066307578E+02    0.121748689536757593E+01   -0.250093078142426202E+04
    0.311549659108878940E+00    0.116882140950495206E+02    0.121024745769871811E+01   -0.250090085031806029E+04
    0.311549659108878940E+00    0.116882140950495206E+02    0.121024745769871811E+01   -0.250090085031806029E+04
    0.316056783095612914E+00    0.116820573928776348E+02    0.121031552547324250E+01   -0.250090007884529405E+04
    0.296922510824062458E+00    0.116943052920343966E+02    0.121457853642128200E+01   -0.250089244654244067E+04
    0.356658464371660211E+00    0.117392300696204686E+02    0.120001348854852452E+01   -0.250087118333995977E+04
    0.356658464371660211E+00    0.117392300696204686E+02    0.120001348854852452E+01   -0.250087118333995977E+04
    0.276502270158532348E+00    0.116979151711261160E+02    0.122318869436866473E+01   -0.250086465179454444E+04
    0.309175310833424644E+00    0.116835752171226819E+02    0.121445985954567770E+01   -0.250083093510057233E+04
    0.311737113687482470E+00    0.116886752706105952E+02    0.121442451480811897E+01   -0.250082607074287444E+04
    0.311737113687482470E+00    0.116886752706105952E+02    0.121442451480811897E+01   -0.250082607074287444E+04
    0.344702278072657020E+00    0.117245424297218932E+02    0.120053691174005839E+01   -0.250082472484595337E+04
    0.282028660744541471E+00    0.116954588617819883E+02    0.122474826754913901E+01   -0.250081339727623254E+04
    0.304762675428228269E+00    0.116877601808707663E+02    0.121650092411715405E+01   -0.250072088787034454E+04
    0.304762675428228269E+00    0.116877601808707663E+02    0.121650092411715405E+01   -0.250072088787034454E+04
    0.306783835924552384E+00    0.116992270245466479E+02    0.121741681743975771E+01   -0.250071479080472363E+04
    0.306783835924552384E+00    0.116992270245466479E+02    0.121741681743975771E+01   -0.250071479080472363E+04
    0.293179482977314221E+00    0.116843650956723586E+02    0.121862731393802837E+01   -0.250070356525392435E+04
    0.312629249583671553E+00    0.116851771755283433E+02    0.121232157101827309E+01   -0.250069407316768684E+04
    0.318840467166079611E+00    0.116886752706105952E+02    0.120992581814267508E+01   -0.250068752759524205E+04
    0.342504152623334390E+00    0.117186599569280538E+02    0.120428277995288613E+01   -0.250068065124971918E+04
    0.342504152623334390E+00    0.117186599569280538E+02    0.120428277995288613E+01   -0.250068065124971918E+04
    0.300375125878614313E+00    0.116910988405917138E+02    0.121436669345099268E+01   -0.250062722660730424E+04
    0.303834128568082784E+00    0.116855919414459741E+02    0.121441217337488316E+01   -0.250060371376613966E+04
    0.354970337381719792E+00    0.117421322853052121E+02    0.119930166415078721E+01   -0.250060348218772378E+04
    0.354970337381719792E+00    0.117421322853052121E+02    0.119930166415078721E+01   -0.250060348218772378E+04
    0.299694483739325612E+00    0.116972810940936807E+02    0.121930339912254615E+01   -0.250058306675298718E+04
    0.289952324901245451E+00    0.117051737225940791E+02    0.122333416142050511E+01   -0.250056084407495246E+04
    0.319232398086086722E+00    0.116954588617819883E+02    0.120885904555736312E+01   -0.250053605923248870E+04
    0.348774159367551739E+00    0.117421322853052121E+02    0.119941830854818643E+01   -0.250053047840256568E+04
    0.274814369409913328E+00    0.117035671220851221E+02    0.122595395607444035E+01   -0.250053033877727376E+04
    0.312942717773003531E+00    0.117060122492565277E+02    0.120942851525316697E+01   -0.250052226961252563E+04
    0.315875854607152506E+00    0.116966607344666897E+02    0.121302952609911663E+01   -0.250052011228347601E+04
    0.332679770215938531E+00    0.117126947566930379E+02    0.120779116093982419E+01   -0.250046138253497884E+04
    0.304562195381009704E+00    0.116891439457175075E+02    0.121447524945524954E+01   -0.250044521127748976E+04
    0.304562195381009704E+00    0.116891439457175075E+02    0.121447524945524954E+01   -0.250044521127748976E+04
    0.284339968147703293E+00    0.116972810940936807E+02    0.122271768870059705E+01   -0.250041272824664065E+04
    0.292371697498694016E+00    0.117126947566930379E+02    0.121617130920539540E+01   -0.250040699123218337E+04
    0.292371697498694016E+00    0.117126947566930379E+02    0.121617130920539540E+01   -0.250040699123218337E+04
    0.296237996080543964E+00    0.117020460715644603E+02    0.122059421213261499E+01   -0.250039879904867348E+04
    0.327674766142034224E+00    0.117043591263535944E+02    0.120696098109359506E+01   -0.250039342548831382E+04
    0.290201459177199528E+00    0.117149327074403686E+02    0.121698047225449546E+01   -0.250035495146945141E+04
    0.290201459177199528E+00    0.117149327074403686E+02    0.121698047225449546E+01   -0.250035495146945141E+04
    0.263549500283541571E+00    0.117245424297218932E+02    0.123052012497066432E+01   -0.250035096145747093E+04
    0.308385020868881976E+00    0.117060122492565277E+02    0.121674755464200679E+01   -0.250032046559700939E+04
    0.308385020868881976E+00    0.117060122492565277E+02    0.121674755464200679E+01   -0.250032046559700939E+04
    0.314787676586744003E+00    0.116966607344666897E+02    0.121074480680115348E+01   -0.250031691144449542E+04
    0.366902883997390572E+00    0.117830683741058024E+02    0.119564660967205016E+01   -0.250028387038927940E+04
    0.288826695291146185E+00    0.117077670778948804E+02    0.122314978475330061E+01   -0.250022264144300561E+04
    0.288826695291146185E+00    0.117077670778948804E+02    0.122314978475330061E+01   -0.250022264144300561E+04
    0.327974555766592735E+00    0.117280176974571884E+02    0.120487150453020964E+01   -0.250020943906601633E+04
    0.327974555766592735E+00    0.117280176974571884E+02    0.120487150453020964E+01   -0.250020943906601633E+04
    0.317743894635496793E+00    0.116999061886015987E+02    0.121100029837556655E+01   -0.250020885183255723E+04
    0.332100730890326101E+00    0.117341969132800461E+02    0.120366261966489829E+01   -0.250017649488068855E+04
    0.280596858993130804E+00    0.117116385849321372E+02    0.122553856283797136E+01   -0.250013766461572595E+04
    0.280596858993130804E+00    0.117116385849321372E+02    0.122553856283797136E+01   -0.250013766461572595E+04
    0.284232240849234430E+00    0.117060122492565277E+02    0.122358924006147074E+01   -0.250013019408118453E+04
    0.318199228680718038E+00    0.117035671220851221E+02    0.121131568921580146E+01   -0.250009863985009270E+04
    0.318199228680718038E+00    0.117035671220851221E+02    0.121131568921580146E+01   -0.250009863985009270E+04
    0.318707577929824459E+00    0.117077670778948804E+02    0.120930256745979947E+01   -0.250003718610866690E+04
    0.318707577929824459E+00    0.117077670778948804E+02    0.120930256745979947E+01   -0.250003718610866690E+04
    0.278923010235185398E+00    0.117200199012863759E+02    0.122685947581023469E+01   -0.249999666523081305E+04
    0.278923010235185398E+00    0.117200199012863759E+02    0.122685947581023469E+01   -0.249999666523081305E+04
    0.325189280686428828E+00    0.117126947566930379E+02    0.120947238168093607E+01   -0.249998907293877528E+04
    0.325189280686428828E+00    0.117126947566930379E+02    0.120947238168093607E+01   -0.249998907293877528E+04
    0.315125682060832524E+00    0.117051737225940791E+02    0.121256223398441043E+01   -0.249997569406012735E+04
    0.339620740248666453E+00    0.117319828291597830E+02    0.120351366184031328E+01   -0.249995595170983779E+04
    0.339620740248666453E+00    0.117319828291597830E+02    0.120351366184031328E+01   -0.249995595170983779E+04
    0.299584523271561931E+00    0.117013148508908227E+02    0.121637981981891863E+01   -0.249994867047693833E+04
    0.343815547893129958E+00    0.117532580466643246E+02    0.120082548775741760E+01   -0.249993676974952905E+04
    0.298006298571129147E+00    0.117051737225940791E+02    0.121898160020268831E+01   -0.249993559198046478E+04
    0.298006298571129147E+00    0.117051737225940791E+02    0.121898160020268831E+01   -0.249993559198046478E+04
    0.296534303226635543E+00    0.117229531396787223E+02    0.122197751990231751E+01   -0.249992628792526193E+04
    0.296534303226635543E+00    0.117229531396787223E+02    0.122197751990231751E+01   -0.249992628792526193E+04
    0.291823438913067168E+00    0.117068761677293161E+02    0.121838131290565443E+01   -0.249990744182293656E+04
    0.293956022561234542E+00    0.117060122492565277E+02    0.122021941555514268E+01   -0.249990618326371168E+04
    0.293956022561234542E+00    0.117060122492565277E+02    0.122021941555514268E+01   -0.249990618326371168E+04
    0.278144934603042016E+00    0.117721223407724480E+02    0.122040432952467137E+01   -0.249990449606986385E+04
    0.285681834059389350E+00    0.117245424297218932E+02    0.121915935773239226E+01   -0.249989990353524627E+04
    0.273657566298578625E+00    0.117262265647477832E+02    0.122470359951436825E+01   -0.249987001575107206E+04
    0.273657566298578625E+00    0.117262265647477832E+02    0.122470359951436825E+01   -0.249987001575107206E+04
    0.340141876216510153E+00    0.117341969132800461E+02    0.120491957899089397E+01   -0.249986148813109321E+04
    0.289266979584727468E+00    0.117490362297478690E+02    0.121675209537723594E+01   -0.249985404145066786E+04
    0.343835915316408280E+00    0.118016327007287263E+02    0.119930576603444394E+01   -0.249985003608810075E+04
    0.283369819780518950E+00    0.117341969132800461E+02    0.121974655342863514E+01   -0.249980176328028710E+04
    0.307285626051767902E+00    0.117077670778948804E+02    0.121332265692961117E+01   -0.249977896663793808E+04
    0.307285626051767902E+00    0.117077670778948804E+02    0.121332265692961117E+01   -0.249977896663793808E+04
    0.274213585253794245E+00    0.117453712055830177E+02    0.122320863481198572E+01   -0.249975565407110844E+04
    0.274213585253794245E+00    0.117453712055830177E+02    0.122320863481198572E+01   -0.249975565407110844E+04
    0.302355116961017412E+00    0.117161215123209512E+02    0.121389460473457911E+01   -0.249974657874176819E+04
    0.338632372222339939E+00    0.117366006886118068E+02    0.120377483355736881E+01   -0.249974446275897890E+04
    0.304197173452999181E+00    0.117116385849321372E+02    0.121738148039133520E+01   -0.249974391356164415E+04
    0.312666349963629742E+00    0.117366006886118068E+02    0.120946878030708582E+01   -0.249972810940447471E+04
    0.315460508734008327E+00    0.117214485058338589E+02    0.120957279260609551E+01   -0.249972624421615456E+04
    0.278276932202480842E+00    0.117262265647477832E+02    0.122288990679775145E+01   -0.249969313015860189E+04
    0.310365586378831715E+00    0.117137916964941748E+02    0.121203895322088484E+01   -0.249965116039209261E+04
    0.308205039482352283E+00    0.117366006886118068E+02    0.121105123808898196E+01   -0.249960293148650362E+04
    0.328519209702124670E+00    0.117392300696204686E+02    0.120545257120600335E+01   -0.249958994075414785E+04
    0.301874745615963558E+00    0.117490362297478690E+02    0.121277934331210924E+01   -0.249950343990224337E+04
    0.299577822452769538E+00    0.117149327074403686E+02    0.121594833897802967E+01   -0.249948949680510395E+04
    0.330883708778045682E+00    0.117366006886118068E+02    0.120922955632220130E+01   -0.249948310476649840E+04
    0.358706597513749836E+00    0.118016327007287263E+02    0.119693914859399131E+01   -0.249948157091121902E+04
    0.303000361947911689E+00    0.117173623279776873E+02    0.121458244881899113E+01   -0.249944478142892604E+04
    0.303000361947911689E+00    0.117173623279776873E+02    0.121458244881899113E+01   -0.249944478142892604E+04
    0.313260322199373109E+00    0.117229531396787223E+02    0.121478470951679740E+01   -0.249944144244134850E+04
    0.313260322199373109E+00    0.117229531396787223E+02    0.121478470951679740E+01   -0.249944144244134850E+04
    0.304578829038127441E+00    0.117229531396787223E+02    0.121800535176052072E+01   -0.249941238709090339E+04
    0.304578829038127441E+00    0.117229531396787223E+02    0.121800535176052072E+01   -0.249941238709090339E+04
    0.296367392872638746E+00    0.117299304849478556E+02    0.122173887057958575E+01   -0.249940988835163944E+04
    0.311114378004520409E+00    0.117245424297218932E+02    0.121574436857100898E+01   -0.249939463884265615E+04
    0.311114378004520409E+00    0.117245424297218932E+02    0.121574436857100898E+01   -0.249939463884265615E+04
    0.281211718404240973E+00    0.117490362297478690E+02    0.122072127640506478E+01   -0.249935350181674858E+04
    0.303780196635285660E+00    0.117161215123209512E+02    0.121629137797959408E+01   -0.249933638895608055E+04
    0.303780196635285660E+00    0.117161215123209512E+02    0.121629137797959408E+01   -0.249933638895608055E+04
    0.281156133805026187E+00    0.117319828291597830E+02    0.122210324991751351E+01   -0.249931089869544667E+04
    0.281156133805026187E+00    0.117319828291597830E+02    0.122210324991751351E+01   -0.249931089869544667E+04
    0.303311575754264096E+00    0.117262265647477832E+02    0.121396974912692834E+01   -0.249929218718657921E+04
    0.267500687578534124E+00    0.117453712055830177E+02    0.122801570774527957E+01   -0.249928621145066245E+04
    0.304709273393890923E+00    0.117421322853052121E+02    0.121995963583212230E+01   -0.249926965241999824E+04
    0.339172370027105874E+00    0.117490362297478690E+02    0.120410078025306877E+01   -0.249926810062111872E+04
    0.319509590068300875E+00    0.117280176974571884E+02    0.121212808513754555E+01   -0.249923393784070322E+04
    0.319509590068300875E+00    0.117280176974571884E+02    0.121212808513754555E+01   -0.249923393784070322E+04
    0.291211709010807229E+00    0.117453712055830177E+02    0.121716325483177834E+01   -0.249922509436040400E+04
    0.291211709010807229E+00    0.117453712055830177E+02    0.121716325483177834E+01   -0.249922509436040400E+04
    0.278834736241371728E+00    0.117392300696204686E+02    0.122745384237497990E+01   -0.249919534799543362E+04
    0.267526616136652851E+00    0.117532580466643246E+02    0.122729682996294631E+01   -0.249918232690785089E+04
    0.267526616136652851E+00    0.117532580466643246E+02    0.122729682996294631E+01   -0.249918232690785089E+04
    0.287837394376826539E+00    0.117421322853052121E+02    0.121873077745975289E+01   -0.249918044078045386E+04
    0.287837394376826539E+00    0.117421322853052121E+02    0.121873077745975289E+01   -0.249918044078045386E+04
    0.280846295338240792E+00    0.117319828291597830E+02    0.122531392402316319E+01   -0.249912015867617265E+04
    0.280846295338240792E+00    0.117319828291597830E+02    0.122531392402316319E+01   -0.249912015867617265E+04
    0.277869189840014408E+00    0.117341969132800461E+02    0.122489933239618187E+01   -0.249907695575370053E+04
    0.277869189840014408E+00    0.117341969132800461E+02    0.122489933239618187E+01   -0.249907695575370053E+04
    0.269589781829213282E+00    0.117490362297478690E+02    0.123031306328515688E+01   -0.249905324465939702E+04
    0.318170056519088917E+00    0.117319828291597830E+02    0.121275376806607604E+01   -0.249904813675109563E+04
    0.318170056519088917E+00    0.117319828291597830E+02    0.121275376806607604E+01   -0.249904813675109563E+04
    0.297696998413591873E+00    0.117421322853052121E+02    0.121538783075025569E+01   -0.249901329488190459E+04
    0.297696998413591873E+00    0.117421322853052121E+02    0.121538783075025569E+01   -0.249901329488190459E+04
    0.323992777340615379E+00    0.117366006886118068E+02    0.121031722718460522E+01   -0.249896837502399831E+04
    0.294299313045150446E+00    0.117341969132800461E+02    0.121739099424339114E+01   -0.249895631585520414E+04
    0.270422388502343236E+00    0.117643164591657374E+02    0.122548562233950120E+01   -0.249895550648040626E+04
    0.283808753323381791E+00    0.117532580466643246E+02    0.122020717357120634E+01   -0.249893996715769299E+04
    0.313532643898383367E+00    0.117299304849478556E+02    0.121259508361445234E+01   -0.249889640107807645E+04
    0.323291779974631210E+00    0.117453712055830177E+02    0.120803995791187857E+01   -0.249887686563429997E+04
    0.308528686364798743E+00    0.117319828291597830E+02    0.121608014693698663E+01   -0.249886067702674336E+04
    0.276085388411449029E+00    0.117421322853052121E+02    0.122607115635438091E+01   -0.249880914773203858E+04
    0.276085388411449029E+00    0.117421322853052121E+02    0.122607115635438091E+01   -0.249880914773203858E+04
    0.284408087433555279E+00    0.117421322853052121E+02    0.122523513511761317E+01   -0.249876848557192761E+04
    0.302398596466004921E+00    0.117366006886118068E+02    0.121870492025687338E+01   -0.249871910552467671E+04
    0.302398596466004921E+00    0.117366006886118068E+02    0.121870492025687338E+01   -0.249871910552467671E+04
    0.278809416736987392E+00    0.117421322853052121E+02    0.122540504614842360E+01   -0.249868857760580340E+04
    0.290396888066518533E+00    0.117453712055830177E+02    0.121876201120446348E+01   -0.249864602378757263E+04
    0.304083178570000778E+00    0.117341969132800461E+02    0.121708642432561365E+01   -0.249863478759339887E+04
    0.304083178570000778E+00    0.117341969132800461E+02    0.121708642432561365E+01   -0.249863478759339887E+04
    0.285410694857661906E+00    0.117532580466643246E+02    0.122616690685152685E+01   -0.249862183103208235E+04
    0.285410694857661906E+00    0.117532580466643246E+02    0.122616690685152685E+01   -0.249862183103208235E+04
    0.264801808323709698E+00    0.117721223407724480E+02    0.122861972980381395E+01   -0.249861912391000669E+04
    0.265821019301418660E+00    0.117643164591657374E+02    0.123196030896419728E+01   -0.249861306399747582E+04
    0.265821019301418660E+00    0.117643164591657374E+02    0.123196030896419728E+01   -0.249861306399747582E+04
    0.334969930936922622E+00    0.117643164591657374E+02    0.120838842840965577E+01   -0.249854362084278591E+04
    0.251089316642109484E+00    0.118016327007287263E+02    0.123448057489489327E+01   -0.249852361389186171E+04
    0.251089316642109484E+00    0.118016327007287263E+02    0.123448057489489327E+01   -0.249852361389186171E+04
    0.252126580916040288E+00    0.118016327007287263E+02    0.123383731635574301E+01   -0.249851168447209420E+04
    0.288430139407263531E+00    0.117392300696204686E+02    0.122169868396995729E+01   -0.249849947194110064E+04
    0.261494806422872483E+00    0.117721223407724480E+02    0.123252719063078353E+01   -0.249844637172379907E+04
    0.279193339457917300E+00    0.117643164591657374E+02    0.122255407521389881E+01   -0.249843731556457260E+04
    0.279193339457917300E+00    0.117643164591657374E+02    0.122255407521389881E+01   -0.249843731556457260E+04
    0.282639317330477091E+00    0.117532580466643246E+02    0.122627313213989386E+01   -0.249838911364059459E+04
    0.274169867076231366E+00    0.117721223407724480E+02    0.123094651431463187E+01   -0.249838397164978323E+04
    0.296453683516591904E+00    0.117421322853052121E+02    0.121776200907708643E+01   -0.249838217268889821E+04
    0.257914827094590793E+00    0.118016327007287263E+02    0.123100969142510830E+01   -0.249827156884595024E+04
    0.257914827094590793E+00    0.118016327007287263E+02    0.123100969142510830E+01   -0.249827156884595024E+04
    0.328242664943585005E+00    0.117721223407724480E+02    0.120652182747399839E+01   -0.249824681727311236E+04
    0.328242664943585005E+00    0.117721223407724480E+02    0.120652182747399839E+01   -0.249824681727311236E+04
    0.325469982095133892E+00    0.117582388364428834E+02    0.120858996642724725E+01   -0.249823619187966415E+04
    0.325469982095133892E+00    0.117582388364428834E+02    0.120858996642724725E+01   -0.249823619187966415E+04
    0.325222782192530147E+00    0.118016327007287263E+02    0.120603609912307164E+01   -0.249822484217574902E+04
    0.325222782192530147E+00    0.118016327007287263E+02    0.120603609912307164E+01   -0.249822484217574902E+04
    0.309970962058625510E+00    0.117532580466643246E+02    0.121695166465888316E+01   -0.249822349180834044E+04
    0.309970962058625510E+00    0.117532580466643246E+02    0.121695166465888316E+01   -0.249822349180834044E+04
    0.317186630110454615E+00    0.118016327007287263E+02    0.120829232068882986E+01   -0.249821641510322479E+04
    0.317186630110454615E+00    0.118016327007287263E+02    0.120829232068882986E+01   -0.249821641510322479E+04
    0.347003149655357834E+00    0.118016327007287263E+02    0.120137258664126723E+01   -0.249820402211225428E+04
    0.280738156342484224E+00    0.117532580466643246E+02    0.122405143013157303E+01   -0.249818462090471439E+04
    0.280738156342484224E+00    0.117532580466643246E+02    0.122405143013157303E+01   -0.249818462090471439E+04
    0.298600938499619328E+00    0.117453712055830177E+02    0.121747870797108049E+01   -0.249817881500855810E+04
    0.302047093477584905E+00    0.117721223407724480E+02    0.121410618344028687E+01   -0.249810030321964769E+04
    0.302047093477584905E+00    0.117721223407724480E+02    0.121410618344028687E+01   -0.249810030321964769E+04
    0.288751819747231075E+00    0.117721223407724480E+02    0.122622333032832875E+01   -0.249809539863077316E+04
    0.288751819747231075E+00    0.117721223407724480E+02    0.122622333032832875E+01   -0.249809539863077316E+04
    0.316210316683474824E+00    0.118016327007287263E+02    0.120879212019756843E+01   -0.249805152936715876E+04
    0.300728091874578829E+00    0.117643164591657374E+02    0.121507939389339148E+01   -0.249804296495164908E+04
    0.300728091874578829E+00    0.117643164591657374E+02    0.121507939389339148E+01   -0.249804296495164908E+04
    0.292868799219545173E+00    0.117490362297478690E+02    0.122109999491640053E+01   -0.249803802113999882E+04
    0.292868799219545173E+00    0.117490362297478690E+02    0.122109999491640053E+01   -0.249803802113999882E+04
    0.287134584538980664E+00    0.117532580466643246E+02    0.122355542241365778E+01   -0.249800913304882306E+04
    0.287134584538980664E+00    0.117532580466643246E+02    0.122355542241365778E+01   -0.249800913304882306E+04
    0.320782098745888089E+00    0.117643164591657374E+02    0.121344194357540158E+01   -0.249800347643894384E+04
    0.320782098745888089E+00    0.117643164591657374E+02    0.121344194357540158E+01   -0.249800347643894384E+04
    0.314488830271304032E+00    0.117532580466643246E+02    0.121277900353400048E+01   -0.249798646337277842E+04
    0.314488830271304032E+00    0.117532580466643246E+02    0.121277900353400048E+01   -0.249798646337277842E+04
    0.279709114213139654E+00    0.117582388364428834E+02    0.122539200338086585E+01   -0.249796878339461682E+04
    0.279709114213139654E+00    0.117582388364428834E+02    0.122539200338086585E+01   -0.249796878339461682E+04
    0.335385229740092550E+00    0.117830683741058024E+02    0.120531974469454806E+01   -0.249791545181059519E+04
    0.335385229740092550E+00    0.117830683741058024E+02    0.120531974469454806E+01   -0.249791545181059519E+04
    0.309120146992759637E+00    0.117532580466643246E+02    0.121431388316910294E+01   -0.249790164652218755E+04
    0.309120146992759637E+00    0.117532580466643246E+02    0.121431388316910294E+01   -0.249790164652218755E+04
    0.287873727289716941E+00    0.117582388364428834E+02    0.122092129319571452E+01   -0.249789202702893726E+04
    0.309452866401251192E+00    0.117643164591657374E+02    0.121269843743152705E+01   -0.249789089805153935E+04
    0.309452866401251192E+00    0.117643164591657374E+02    0.121269843743152705E+01   -0.249789089805153935E+04
    0.294986684629537921E+00    0.117721223407724480E+02    0.122375920294184226E+01   -0.249785718281342633E+04
    0.294986684629537921E+00    0.117721223407724480E+02    0.122375920294184226E+01   -0.249785718281342633E+04
    0.289847123685553210E+00    0.117582388364428834E+02    0.122026165334960712E+01   -0.249784541237805570E+04
    0.289847123685553210E+00    0.117582388364428834E+02    0.122026165334960712E+01   -0.249784541237805570E+04
    0.326989286949566194E+00    0.117721223407724480E+02    0.120806885112592033E+01   -0.249783436503796247E+04
    0.272464442383090866E+00    0.117721223407724480E+02    0.122743754133386118E+01   -0.249776994767145106E+04
    0.272464442383090866E+00    0.117721223407724480E+02    0.122743754133386118E+01   -0.249776994767145106E+04
    0.280857780687648995E+00    0.117830683741058024E+02    0.122215995595907723E+01   -0.249773832338429975E+04
    0.280857780687648995E+00    0.117830683741058024E+02    0.122215995595907723E+01   -0.249773832338429975E+04
    0.305968894184572182E+00    0.117830683741058024E+02    0.122085551036119178E+01   -0.249773380363554043E+04
    0.305968894184572182E+00    0.117830683741058024E+02    0.122085551036119178E+01   -0.249773380363554043E+04
    0.330044004423070081E+00    0.117830683741058024E+02    0.120671135075346481E+01   -0.249773165806159386E+04
    0.330044004423070081E+00    0.117830683741058024E+02    0.120671135075346481E+01   -0.249773165806159386E+04
    0.280994745170511817E+00    0.118016327007287263E+02    0.122130609954672109E+01   -0.249772870457948648E+04
    0.280994745170511817E+00    0.118016327007287263E+02    0.122130609954672109E+01   -0.249772870457948648E+04
    0.296532381035945369E+00    0.117582388364428834E+02    0.121814757384664785E+01   -0.249772281116835984E+04
    0.296532381035945369E+00    0.117582388364428834E+02    0.121814757384664785E+01   -0.249772281116835984E+04
    0.314086366953395146E+00    0.117643164591657374E+02    0.121523392265808616E+01   -0.249769046119559243E+04
    0.314086366953395146E+00    0.117643164591657374E+02    0.121523392265808616E+01   -0.249769046119559243E+04
    0.296369579358068624E+00    0.117721223407724480E+02    0.122290131401956792E+01   -0.249767227821357301E+04
    0.271371457881321110E+00    0.117830683741058024E+02    0.123115272367542850E+01   -0.249764089101334321E+04
    0.303304965791036107E+00    0.117582388364428834E+02    0.121637241990803480E+01   -0.249764058266055417E+04
    0.303304965791036107E+00    0.117582388364428834E+02    0.121637241990803480E+01   -0.249764058266055417E+04
    0.302601970735446812E+00    0.117582388364428834E+02    0.121807419899684199E+01   -0.249762472851318034E+04
    0.302601970735446812E+00    0.117582388364428834E+02    0.121807419899684199E+01   -0.249762472851318034E+04
    0.305215069408350193E+00    0.117582388364428834E+02    0.121674527653939291E+01   -0.249761432253273324E+04
    0.313439285210664553E+00    0.117721223407724480E+02    0.121172689582964210E+01   -0.249760377239477384E+04
    0.305233335859162236E+00    0.117721223407724480E+02    0.121412245739997715E+01   -0.249759921376141756E+04
    0.262905439188716672E+00    0.118016327007287263E+02    0.123526994006268076E+01   -0.249757980773836925E+04
    0.294395384653987235E+00    0.117830683741058024E+02    0.122458054638244884E+01   -0.249757413806381737E+04
    0.319047725290762640E+00    0.117721223407724480E+02    0.121053713132291851E+01   -0.249756087595642111E+04
    0.307638293292111453E+00    0.117830683741058024E+02    0.121279664964889533E+01   -0.249755863347676495E+04
    0.307638293292111453E+00    0.117830683741058024E+02    0.121279664964889533E+01   -0.249755863347676495E+04
    0.312523280979037255E+00    0.117830683741058024E+02    0.121137539260120963E+01   -0.249754180617968086E+04
    0.312523280979037255E+00    0.117830683741058024E+02    0.121137539260120963E+01   -0.249754180617968086E+04
    0.319403386797567523E+00    0.117830683741058024E+02    0.120953491674435631E+01   -0.249753477413861401E+04
    0.315315867348958778E+00    0.117830683741058024E+02    0.121099792632291581E+01   -0.249736512332379789E+04
    0.280048422005616415E+00    0.117830683741058024E+02    0.122349234848152366E+01   -0.249732818600878090E+04
    0.320310338384431459E+00    0.117830683741058024E+02    0.121397250746146868E+01   -0.249720475799895485E+04
    0.320310338384431459E+00    0.117830683741058024E+02    0.121397250746146868E+01   -0.249720475799895485E+04
    0.293597967439747976E+00    0.117830683741058024E+02    0.121835489091179427E+01   -0.249716657771077871E+04
    0.293597967439747976E+00    0.117830683741058024E+02    0.121835489091179427E+01   -0.249716657771077871E+04
    0.285616171078792669E+00    0.117830683741058024E+02    0.122638545414039690E+01   -0.249716519342902211E+04
    0.284216877178923799E+00    0.117830683741058024E+02    0.122215223085527436E+01   -0.249714998181450210E+04
    0.284216877178923799E+00    0.117830683741058024E+02    0.122215223085527436E+01   -0.249714998181450210E+04
    0.275310822012361733E+00    0.117830683741058024E+02    0.122822998985380294E+01   -0.249713776492887746E+04
    0.275310822012361733E+00    0.117830683741058024E+02    0.122822998985380294E+01   -0.249713776492887746E+04
    0.278788480024281693E+00    0.117830683741058024E+02    0.122496696633124302E+01   -0.249709651562208273E+04
    0.306843619291902292E+00    0.117830683741058024E+02    0.121915967661389635E+01   -0.249708648778234783E+04
    0.306843619291902292E+00    0.117830683741058024E+02    0.121915967661389635E+01   -0.249708648778234783E+04
    0.308927897221709158E+00    0.117830683741058024E+02    0.121831783260008653E+01   -0.249706977109744139E+04
    0.308927897221709158E+00    0.117830683741058024E+02    0.121831783260008653E+01   -0.249706977109744139E+04
    0.315781204189964526E+00    0.117830683741058024E+02    0.121178832349322341E+01   -0.249705906846476000E+04
    0.305796307093329223E+00    0.117830683741058024E+02    0.121933088554879254E+01   -0.249700778083123214E+04
    0.281798133677517548E+00    0.117830683741058024E+02    0.122672076495908877E+01   -0.249699612399440775E+04
    0.281798133677517548E+00    0.117830683741058024E+02    0.122672076495908877E+01   -0.249699612399440775E+04
    0.279501601021902024E+00    0.117830683741058024E+02    0.122542172017885309E+01   -0.249696425635063088E+04
    0.293938912448015677E+00    0.117830683741058024E+02    0.121885806622955850E+01   -0.249693962000429110E+04
    0.293938912448015677E+00    0.117830683741058024E+02    0.121885806622955850E+01   -0.249693962000429110E+04
    0.299557004413213090E+00    0.117830683741058024E+02    0.121692960871510181E+01   -0.249691547586593288E+04
    0.281210464006399041E+00    0.117830683741058024E+02    0.122477066781554811E+01   -0.249690718380613998E+04
    0.281210464006399041E+00    0.117830683741058024E+02    0.122477066781554811E+01   -0.249690718380613998E+04
    0.318114929986147488E+00    0.117830683741058024E+02    0.121229444764210958E+01   -0.249690422239211966E+04
    0.318340184290458517E+00    0.117830683741058024E+02    0.121257261948148054E+01   -0.249689157261293167E+04
    0.288618123291112083E+00    0.117830683741058024E+02    0.122462033751609645E+01   -0.249688344060013878E+04
    0.289171064548801371E+00    0.117830683741058024E+02    0.122099195177078435E+01   -0.249687062218805295E+04
    0.300550253221153085E+00    0.117830683741058024E+02    0.122077328317913225E+01   -0.249686001159528951E+04
    0.296040190306350204E+00    0.117830683741058024E+02    0.121836501722992629E+01   -0.249685487094805967E+04
    0.292187753948771778E+00    0.117830683741058024E+02    0.122225713115460177E+01   -0.249663818247319887E+04
    0.303899240176274621E+00    0.117830683741058024E+02    0.121937974240622604E+01   -0.249681099281757815E+04
    0.310680300377425167E+00    0.117830683741058024E+02    0.121653742584535141E+01   -0.249679144669683637E+04
    0.293521557642641762E+00    0.117830683741058024E+02    0.121941397291323783E+01   -0.249682585844238065E+04
    0.310087287769423181E+00    0.117830683741058024E+02    0.121576305094446813E+01   -0.249667923452421701E+04
    0.304833544030375159E+00    0.117830683741058024E+02    0.121585097915073348E+01   -0.249675490837020197E+04
    0.293885464365098770E+00    0.117830683741058024E+02    0.122272155229011048E+01   -0.249679067346597230E+04
    0.295457402036327643E+00    0.117830683741058024E+02    0.121880949424108143E+01   -0.249679370691332315E+04
    0.304746971932622679E+00    0.117830683741058024E+02    0.121739688499990684E+01   -0.249659796765700094E+04
    0.288919734713914078E+00    0.117830683741058024E+02    0.122182102412105587E+01   -0.249673209987155678E+04
    0.290505421674340458E+00    0.117830683741058024E+02    0.122230882227554694E+01   -0.249663665043862602E+04
    0.312220994061307711E+00    0.117830683741058024E+02    0.121433436794452798E+01   -0.249673765560669472E+04
    0.303343964480625283E+00    0.117830683741058024E+02    0.121870913080724441E+01   -0.249664218111195760E+04
    0.283969107791593345E+00    0.117830683741058024E+02    0.122417685112245178E+01   -0.249679085969431162E+04
    0.304085792496084584E+00    0.117830683741058024E+02    0.121672977730561538E+01   -0.249664309182110719E+04
    0.312071659605082874E+00    0.117830683741058024E+02    0.121504236353863559E+01   -0.249671881249338458E+04
    0.303238708305531179E+00    0.117830683741058024E+02    0.121614454080400236E+01   -0.249679807872198398E+04
    0.306830215833714226E+00    0.117830683741058024E+02    0.121573884438152113E+01   -0.249668164728050124E+04
    0.316557523868713941E+00    0.117830683741058024E+02    0.121312204205855600E+01   -0.249683788420631754E+04
    0.294664405266702512E+00    0.117830683741058024E+02    0.122203033170282582E+01   -0.249669589977910482E+04
    0.259950678697974280E+00    0.118016327007287263E+02    0.123492849367190094E+01   -0.249740639712243319E+04
    0.259950678697974280E+00    0.118016327007287263E+02    0.123492849367190094E+01   -0.249740639712243319E+04
    0.326472964659198728E+00    0.118016327007287263E+02    0.120710273290134151E+01   -0.249736866036548599E+04
    0.270613446675742386E+00    0.118016327007287263E+02    0.122704171888292168E+01   -0.249709872827106392E+04
    0.270613446675742386E+00    0.118016327007287263E+02    0.122704171888292168E+01   -0.249709872827106392E+04
    0.313553682029664493E+00    0.118016327007287263E+02    0.121104513701923300E+01   -0.249708044389720817E+04
    0.313553682029664493E+00    0.118016327007287263E+02    0.121104513701923300E+01   -0.249708044389720817E+04
    0.333276476659812193E+00    0.118016327007287263E+02    0.120652113860929711E+01   -0.249707157392759154E+04
    0.333276476659812193E+00    0.118016327007287263E+02    0.120652113860929711E+01   -0.249707157392759154E+04
    0.269573264440373328E+00    0.118016327007287263E+02    0.122776994865637290E+01   -0.249702898047967165E+04
    0.269573264440373328E+00    0.118016327007287263E+02    0.122776994865637290E+01   -0.249702898047967165E+04
    0.331008734385545123E+00    0.118016327007287263E+02    0.120725148238288416E+01   -0.249695126854220507E+04
    0.331008734385545123E+00    0.118016327007287263E+02    0.120725148238288416E+01   -0.249695126854220507E+04
    0.274066877920276897E+00    0.118016327007287263E+02    0.123114982298132003E+01   -0.249686862949162150E+04
    0.273740168253975957E+00    0.118016327007287263E+02    0.123068734985608241E+01   -0.249669243109479794E+04
    0.273740168253975957E+00    0.118016327007287263E+02    0.123068734985608241E+01   -0.249669243109479794E+04
    0.318042555611254607E+00    0.118016327007287263E+02    0.121083609089808553E+01   -0.249661563451782649E+04
    0.318042555611254607E+00    0.118016327007287263E+02    0.121083609089808553E+01   -0.249661563451782649E+04
    0.319194711734389291E+00    0.118016327007287263E+02    0.121057914030897806E+01   -0.249660925862559316E+04
    0.319194711734389291E+00    0.118016327007287263E+02    0.121057914030897806E+01   -0.249660925862559316E+04
    0.321348834305272113E+00    0.118016327007287263E+02    0.121024611163846596E+01   -0.249656394281716166E+04
    0.283914818253092671E+00    0.118016327007287263E+02    0.122780511068509246E+01   -0.249655428430878419E+04
    0.283914818253092671E+00    0.118016327007287263E+02    0.122780511068509246E+01   -0.249655428430878419E+04
    0.327759900446480290E+00    0.118016327007287263E+02    0.121012409307755919E+01   -0.249653396384874623E+04
    0.321246630318875126E+00    0.118016327007287263E+02    0.121401031593662223E+01   -0.249646487099390333E+04
    0.321246630318875126E+00    0.118016327007287263E+02    0.121401031593662223E+01   -0.249646487099390333E+04
    0.323300593387839896E+00    0.118016327007287263E+02    0.121192970508368392E+01   -0.249634242178000204E+04
    0.323300593387839896E+00    0.118016327007287263E+02    0.121192970508368392E+01   -0.249634242178000204E+04
    0.313370160787401542E+00    0.118016327007287263E+02    0.121295990120613606E+01   -0.249629204404282291E+04
    0.313370160787401542E+00    0.118016327007287263E+02    0.121295990120613606E+01   -0.249629204404282291E+04
    0.286246904762762600E+00    0.118016327007287263E+02    0.122224691547380115E+01   -0.249623458156338893E+04
    0.284732836450861171E+00    0.118016327007287263E+02    0.122637605040905528E+01   -0.249617385192443862E+04
    0.284732836450861171E+00    0.118016327007287263E+02    0.122637605040905528E+01   -0.249617385192443862E+04
    0.279187452017062354E+00    0.118016327007287263E+02    0.122642866838733600E+01   -0.249617011966047357E+04
    0.318296698030585468E+00    0.118016327007287263E+02    0.121366377042307172E+01   -0.249616013198017390E+04
    0.288990402978138050E+00    0.118016327007287263E+02    0.122512826553167731E+01   -0.249614150609616763E+04
    0.285854047120393973E+00    0.118016327007287263E+02    0.122583250094233498E+01   -0.249611275481151733E+04
    0.316349563399554112E+00    0.118016327007287263E+02    0.121364310290195765E+01   -0.249609529924906292E+04
    0.283170966956783454E+00    0.118016327007287263E+02    0.122597249088489724E+01   -0.249606184975232463E+04
    0.296324038483066654E+00    0.118016327007287263E+02    0.122139757598715848E+01   -0.249584740858801069E+04
    0.286014240974617695E+00    0.118016327007287263E+02    0.122427652432405321E+01   -0.249595601855054156E+04
    0.293683134001275381E+00    0.118016327007287263E+02    0.122012335872443867E+01   -0.249599992454918447E+04
    0.295244197384309737E+00    0.118016327007287263E+02    0.122286446297693918E+01   -0.249604425328229445E+04
    0.292828803425847495E+00    0.118016327007287263E+02    0.122051957125728250E+01   -0.249598671944046555E+04
    0.298926566179278042E+00    0.118016327007287263E+02    0.122098638930929893E+01   -0.249590689580167782E+04
    0.283012123712076236E+00    0.118016327007287263E+02    0.122488597807143096E+01   -0.249605267654626914E+04
    0.304809157860372215E+00    0.118016327007287263E+02    0.121681451318361722E+01   -0.249592278633549540E+04
    0.291282861574736041E+00    0.118016327007287263E+02    0.122121196849347680E+01   -0.249597468652224416E+04
    0.291282861574736041E+00    0.118016327007287263E+02    0.122121196849347680E+01   -0.249597468652224416E+04
    0.282473769155308363E+00    0.118016327007287263E+02    0.122578314867274574E+01   -0.249605538281593817E+04
    0.294843470854231737E+00    0.118016327007287263E+02    0.122051983218043736E+01   -0.249586162251748738E+04
    0.295507236512082772E+00    0.118016327007287263E+02    0.122202413981986391E+01   -0.249589282028587331E+04
    0.283724758205296912E+00    0.118016327007287263E+02    0.122533422708223605E+01   -0.249601831849233440E+04
    0.300831620921153897E+00    0.117721223407724480E+02    0.121576624867269278E+01   -0.249751339820042813E+04
    0.300831620921153897E+00    0.117721223407724480E+02    0.121576624867269278E+01   -0.249751339820042813E+04
    0.287388856023449935E+00    0.117643164591657374E+02    0.122348553263197402E+01   -0.249750817185063624E+04
    0.293880756902337892E+00    0.117721223407724480E+02    0.121823776391996752E+01   -0.249750701629839932E+04
    0.283649032752324004E+00    0.117721223407724480E+02    0.122622131715055693E+01   -0.249750401804742614E+04
    0.283649032752324004E+00    0.117721223407724480E+02    0.122622131715055693E+01   -0.249750401804742614E+04
    0.321539450746630151E+00    0.117721223407724480E+02    0.121216820385315427E+01   -0.249747383304343566E+04
    0.285245459024149883E+00    0.117721223407724480E+02    0.122557515767234082E+01   -0.249743604144689562E+04
    0.283089110226713236E+00    0.117721223407724480E+02    0.122591486396140170E+01   -0.249740295721602524E+04
    0.311613237851855518E+00    0.117721223407724480E+02    0.121287241335689178E+01   -0.249739767910158753E+04
    0.311613237851855518E+00    0.117721223407724480E+02    0.121287241335689178E+01   -0.249739767910158753E+04
    0.279809010812788472E+00    0.117721223407724480E+02    0.122607569287998897E+01   -0.249739020534830615E+04
    0.283833571456838518E+00    0.117721223407724480E+02    0.122568905782616766E+01   -0.249738755958432967E+04
    0.283833571456838518E+00    0.117721223407724480E+02    0.122568905782616766E+01   -0.249738755958432967E+04
    0.299788298352921756E+00    0.117643164591657374E+02    0.121932503005769211E+01   -0.249738225891104139E+04
    0.297069563630933564E+00    0.117643164591657374E+02    0.121918237771311633E+01   -0.249734767373437444E+04
    0.312288122832665993E+00    0.117721223407724480E+02    0.121602635167734330E+01   -0.249733002665323284E+04
    0.289850179237161665E+00    0.117721223407724480E+02    0.122070299855056885E+01   -0.249725554907583182E+04
    0.294300847816141020E+00    0.117721223407724480E+02    0.122231163782641294E+01   -0.249724564497173469E+04
    0.314677597553274069E+00    0.117721223407724480E+02    0.121425527316894510E+01   -0.249724037328098620E+04
    0.291215573038792030E+00    0.117721223407724480E+02    0.122029184791198952E+01   -0.249722002250588503E+04
    0.288682074679724343E+00    0.117721223407724480E+02    0.122154058917123254E+01   -0.249720011459238140E+04
    0.310506382497412803E+00    0.117721223407724480E+02    0.121612250330408811E+01   -0.249719995193369141E+04
    0.312331835076779196E+00    0.117721223407724480E+02    0.121378863705771511E+01   -0.249719764944559120E+04
    0.297149781359321352E+00    0.117721223407724480E+02    0.121848793972599623E+01   -0.249711791573289838E+04
    0.308842687784702752E+00    0.117721223407724480E+02    0.121611121423453472E+01   -0.249710920636948276E+04
    0.311229268474765342E+00    0.117830683741058024E+02    0.121300453197200953E+01   -0.249703576168799918E+04
    0.313511125808552726E+00    0.117830683741058024E+02    0.121254267243222258E+01   -0.249699980852670296E+04
    0.321475525307712062E+00    0.117830683741058024E+02    0.121123253531318631E+01   -0.249701640820976900E+04
    0.301522745911659118E+00    0.117830683741058024E+02    0.121668001782672097E+01   -0.249680022701645066E+04
    0.290240646388969736E+00    0.117830683741058024E+02    0.122013962129885045E+01   -0.249698688147903613E+04
    0.310269982922813548E+00    0.117830683741058024E+02    0.121370958370711546E+01   -0.249690725585068003E+04
    0.306382268836046079E+00    0.117830683741058024E+02    0.121583661797561482E+01   -0.249668298835456517E+04
    0.281873816183358605E+00    0.117830683741058024E+02    0.122479196808140545E+01   -0.249686284884408906E+04
    0.299415618983762233E+00    0.117830683741058024E+02    0.121798104902185189E+01   -0.249667085620918942E+04
    0.304317282144167089E+00    0.117721223407724480E+02    0.121588434468787954E+01   -0.249716254232643314E+04
    0.311429077760810413E+00    0.117830683741058024E+02    0.121539500255042432E+01   -0.249670950338948160E+04
