   -0.292732037377603244E-02   -0.797242140570510183E-02    0.673317676733446224E+00    0.438034708734362823E+02    0.160969642615766606E+01    0.467318750039315972E-01    0.862818065879964422E+02    0.359308691588365355E+04
   -0.903388844194697631E-03   -0.612458641264187337E-02    0.677605910705977643E+00    0.432822062629929079E+02    0.160658938945656282E+01    0.449493627030565154E-01    0.871436563855883293E+02    0.359323709445974328E+04
   -0.903575696499961650E-03   -0.450193277592314447E-02    0.680180596499941559E+00    0.442444066258397939E+02    0.160627101572193109E+01    0.480006218354721292E-01    0.872556967734440576E+02    0.359401650078167404E+04
   -0.165899908103045771E-02   -0.359697982840832082E-02    0.679947977486083488E+00    0.444945334496371601E+02    0.160510052834397499E+01    0.499318171285403067E-01    0.869716452268028206E+02    0.359444802449668987E+04
   -0.175099827841268519E-02   -0.301681192102877093E-02    0.678406668122630840E+00    0.443901683472426498E+02    0.160580596469197467E+01    0.497415474999249665E-01    0.869096150670653884E+02    0.359457126910481884E+04
   -0.314365431939749853E-03   -0.697226299813116443E-02    0.679979948637238873E+00    0.432413639546365687E+02    0.160669635984499970E+01    0.446278704475330593E-01    0.873607516817850751E+02    0.359468183716405565E+04
   -0.198665908295456422E-03   -0.448274452301131512E-02    0.679586570463360573E+00    0.440865169400197559E+02    0.160545582712526169E+01    0.477688687505944606E-01    0.873840680289494145E+02    0.359527338133837111E+04
   -0.360592335400650686E-04   -0.617970628957940048E-02    0.679014662252672374E+00    0.432662744011065357E+02    0.160662447356644966E+01    0.448284018652905722E-01    0.875234881855967046E+02    0.359529718302349238E+04
   -0.493655062027895369E-03   -0.649208265336776412E-02    0.680450542109214296E+00    0.438395087340181959E+02    0.160700045911079892E+01    0.465225539982286954E-01    0.874584110190612876E+02    0.359538983265166280E+04
   -0.121182443494110442E-02   -0.586424298747177317E-02    0.679765925172262642E+00    0.442064487161076798E+02    0.160673561438729684E+01    0.480596197110860907E-01    0.873851529913754064E+02    0.359539834690291718E+04
    0.196704640934237452E-03   -0.702289637893221096E-02    0.680631822339163639E+00    0.432929694442477313E+02    0.160681620802902203E+01    0.445730705855440917E-01    0.874508697037385758E+02    0.359541752854830384E+04
   -0.147271269588044608E-02   -0.308063411718505816E-02    0.675208807476428197E+00    0.443318692654700897E+02    0.160691438242338336E+01    0.498274169369513076E-01    0.865635707400597738E+02    0.359549189657549550E+04
   -0.317924168161919747E-03   -0.632644317474269011E-02    0.679204307287575970E+00    0.434091259366458999E+02    0.160664585635962065E+01    0.452326799047279224E-01    0.874850807453757682E+02    0.359557902516194190E+04
    0.466758846150181882E-03   -0.408524328338989197E-02    0.681423615617088418E+00    0.442920018358798657E+02    0.160555388701912549E+01    0.478791790112113383E-01    0.877000989745781823E+02    0.359575678095534568E+04
    0.432244169353459130E-03   -0.698471969178079792E-02    0.680175618656233549E+00    0.434131201256193648E+02    0.160676445264749490E+01    0.449791104456801899E-01    0.876007508039838569E+02    0.359581640960435607E+04
   -0.100461688071501313E-02   -0.499688156986234991E-02    0.679632835834100502E+00    0.442625476825666766E+02    0.160678642032477725E+01    0.478823091744115387E-01    0.871426901450041527E+02    0.359591764724784889E+04
   -0.660809545930038855E-03   -0.671546099015860563E-02    0.678958502705385714E+00    0.435021043538521184E+02    0.160683550643970263E+01    0.453759170555379232E-01    0.872629195078582995E+02    0.359594428141375101E+04
   -0.168520365996418565E-02   -0.313287159808199253E-02    0.674767894809415680E+00    0.442367664606491431E+02    0.160666425806243396E+01    0.495040396420046297E-01    0.866466813930074409E+02    0.359604031145260114E+04
   -0.225083825790978360E-02   -0.322187530970669597E-02    0.678012288931029716E+00    0.443342319210900015E+02    0.160529717215808554E+01    0.494722694790856454E-01    0.870416146096385290E+02    0.359608053454628953E+04
   -0.191383611853641650E-02   -0.314437476012024075E-02    0.675941192151748971E+00    0.442546154502781093E+02    0.160608251984458406E+01    0.493891231458820426E-01    0.868046218249599093E+02    0.359612389113552035E+04
   -0.320907589173651323E-03   -0.563554134496516146E-02    0.678276741367870417E+00    0.439700721507664483E+02    0.160626170550200387E+01    0.472224695147138510E-01    0.870751981421384045E+02    0.359645226937014377E+04
   -0.723360478363790351E-03   -0.679079683033171309E-02    0.679049156105115403E+00    0.438963656445370631E+02    0.160747104143208297E+01    0.466163992893681434E-01    0.872212110929659872E+02    0.359654713337432395E+04
   -0.342908509921180642E-03   -0.646797901242148095E-02    0.679370718198940349E+00    0.436968492468392071E+02    0.160680890792998610E+01    0.460760984056706319E-01    0.873711661363267069E+02    0.359662276514499445E+04
    0.587513372719871470E-04   -0.602346399857237903E-02    0.679311998394392491E+00    0.435715147317563591E+02    0.160638422670040670E+01    0.454921627481490454E-01    0.875241714406009237E+02    0.359662337824005363E+04
   -0.275810355621565213E-03   -0.662989007448392363E-02    0.678561267416729286E+00    0.435220424886990287E+02    0.160679448080759313E+01    0.452944599992497476E-01    0.873544438161174952E+02    0.359667552171906755E+04
   -0.429575379833862896E-03   -0.521424317431936051E-02    0.679209586195314241E+00    0.441054859612393386E+02    0.160630269800638326E+01    0.474421666541215703E-01    0.871535351614976719E+02    0.359668777441304246E+04
   -0.401177141478996444E-03   -0.709692717636258366E-02    0.679387802341973268E+00    0.435093327919785793E+02    0.160681641049560242E+01    0.454483883327925497E-01    0.872763291212832684E+02    0.359671983238392568E+04
   -0.280304103748445698E-03   -0.580606615472999479E-02    0.679085512360249277E+00    0.432909714376260268E+02    0.160660301187782673E+01    0.449062927539359419E-01    0.874850114049483523E+02    0.359675613445422596E+04
   -0.175045143869248846E-02   -0.374484142525594423E-02    0.681916202761839063E+00    0.443265655273072241E+02    0.160614781689465169E+01    0.482618743839620459E-01    0.874918980696965178E+02    0.359685771076010542E+04
   -0.369998215496370169E-03   -0.626434671024932339E-02    0.678669302416845976E+00    0.432924233296133139E+02    0.160668286252315040E+01    0.446996419968321776E-01    0.874063391342139653E+02    0.359690116661409502E+04
   -0.131325802801845462E-03   -0.669035943118688470E-02    0.680880946080447025E+00    0.435130654574917841E+02    0.160660597551315232E+01    0.453521111299361387E-01    0.876999365195625558E+02    0.359692216878283853E+04
   -0.310735976969138969E-03   -0.729494357557517251E-02    0.679234522347734737E+00    0.438812159891663143E+02    0.160715980239675771E+01    0.463879048806492555E-01    0.872224860315057100E+02    0.359693446508047418E+04
   -0.100929067415828316E-02   -0.535167698863866885E-02    0.680095103808788459E+00    0.442233772456418350E+02    0.160652032326792149E+01    0.480638372464038399E-01    0.872580432403702417E+02    0.359702324009039012E+04
   -0.208976837773805447E-03   -0.592021733475999248E-02    0.679182550237157567E+00    0.438021987223926885E+02    0.160677074201311632E+01    0.465016823368737744E-01    0.873611689307029593E+02    0.359704427820586625E+04
    0.101805408408119015E-03   -0.727159766956388294E-02    0.679128863979120978E+00    0.434680450931842799E+02    0.160662356070949075E+01    0.450069589112444199E-01    0.872915133278572739E+02    0.359717991950015585E+04
   -0.774001817467941285E-03   -0.511383352556373221E-02    0.677338553958255263E+00    0.439748185316497739E+02    0.160638374394100003E+01    0.473309471629428588E-01    0.869266055938896471E+02    0.359722732772335530E+04
   -0.454117184443846890E-05   -0.621332063492093141E-02    0.679180410018359826E+00    0.432249757923495750E+02    0.160663993001512995E+01    0.445489946857327915E-01    0.874890704812501241E+02    0.359724249908587353E+04
    0.379277664255843277E-03   -0.644668985343387763E-02    0.681164635634897375E+00    0.437014763017740862E+02    0.160620655298768678E+01    0.458538849574462448E-01    0.876850791742771918E+02    0.359730023809192926E+04
   -0.217300008406540136E-03   -0.656424288204040737E-02    0.678787011772524984E+00    0.441336615170011797E+02    0.160715691691463980E+01    0.472632658707265452E-01    0.872430256077255422E+02    0.359734937946457057E+04
   -0.111602216655833585E-02   -0.540731880431047016E-02    0.680149670961345598E+00    0.442016600604809184E+02    0.160657460320547330E+01    0.479214692646259474E-01    0.872320411742479820E+02    0.359735834662975776E+04
   -0.426638607571469932E-03   -0.686963185156194873E-02    0.680597059604248433E+00    0.436702894506513317E+02    0.160686688821432266E+01    0.455161736613988940E-01    0.875709333718181995E+02    0.359748272636568618E+04
   -0.724856978651734372E-03   -0.506626734555815431E-02    0.678000363026239561E+00    0.442631327800161785E+02    0.160666108570502231E+01    0.482626922511809608E-01    0.869921850245995500E+02    0.359749013881237852E+04
   -0.404771044350841526E-03   -0.667546917892549579E-02    0.678585862618609537E+00    0.435174740127651987E+02    0.160678314040472103E+01    0.454304311930392307E-01    0.873127966422411248E+02    0.359760173464728041E+04
    0.324196535604770507E-03   -0.650966687573848422E-02    0.680647859846468695E+00    0.435144240991926594E+02    0.160626979695456473E+01    0.450810859270226807E-01    0.876170316783020695E+02    0.359766607661497892E+04
   -0.150638973194521159E-02   -0.411467621646673370E-02    0.681169966349642775E+00    0.443291300118301876E+02    0.160633473462023524E+01    0.483637134437794672E-01    0.874021603554650852E+02    0.359766714248503195E+04
   -0.150638973194521159E-02   -0.411467621646673370E-02    0.681169966349642775E+00    0.443291300118301876E+02    0.160633473462023524E+01    0.483637134437794672E-01    0.874021603554650852E+02    0.359766714248503195E+04
   -0.657816571166022334E-03   -0.505084641407514256E-02    0.678375356663119433E+00    0.441190971527615403E+02    0.160640039748765306E+01    0.476385716127879014E-01    0.870659072650294519E+02    0.359768049992342321E+04
   -0.384303527014851799E-03   -0.724074459876505525E-02    0.679228131011178959E+00    0.438826294449259180E+02    0.160708978893316168E+01    0.464231757726623478E-01    0.871737735217800207E+02    0.359781270293901207E+04
   -0.384303527014851799E-03   -0.724074459876505525E-02    0.679228131011178959E+00    0.438826294449259180E+02    0.160708978893316168E+01    0.464231757726623478E-01    0.871737735217800207E+02    0.359781270293901207E+04
    0.510874681660315679E-03   -0.657464973610043767E-02    0.680493801138698506E+00    0.436140091289226106E+02    0.160622933279161106E+01    0.454461516425298667E-01    0.876039691479767271E+02    0.359782287060211820E+04
    0.772600919131279356E-04   -0.722398377871221603E-02    0.680778416993350288E+00    0.436278641511494882E+02    0.160677061450993341E+01    0.452900844720611345E-01    0.876079121472535576E+02    0.359788758065073398E+04
    0.299297292590138334E-03   -0.643809704088363875E-02    0.680349576722170224E+00    0.435263511889184116E+02    0.160649194960963793E+01    0.452609925198478105E-01    0.875690222087663273E+02    0.359793783570398455E+04
    0.491386933421890035E-04   -0.706928618423396764E-02    0.680189267317544477E+00    0.434224961628151078E+02    0.160695803474010512E+01    0.447745558225074655E-01    0.875736104150930146E+02    0.359797822730177677E+04
   -0.667147976460911790E-03   -0.507487935981067347E-02    0.677919772093857675E+00    0.442430330974305122E+02    0.160659482905752649E+01    0.482025375567446610E-01    0.870575397180579529E+02    0.359797909803866150E+04
    0.400567907967897484E-03   -0.655799509848620232E-02    0.680457080288075944E+00    0.436746691803908220E+02    0.160620542027061841E+01    0.454944504132141422E-01    0.875905346174365036E+02    0.359798436119825419E+04
    0.400567907967897484E-03   -0.655799509848620232E-02    0.680457080288075944E+00    0.436746691803908220E+02    0.160620542027061841E+01    0.454944504132141422E-01    0.875905346174365036E+02    0.359798436119825419E+04
   -0.847442597200225804E-03   -0.522529724813050774E-02    0.679054455165135851E+00    0.443091906118674785E+02    0.160691122848982193E+01    0.481673126518984349E-01    0.871225270268180481E+02    0.359800353003569262E+04
    0.612847983769875806E-03   -0.666933614988773731E-02    0.681202929105555688E+00    0.435092680202073794E+02    0.160593741696972470E+01    0.451855956016182919E-01    0.876835235310364283E+02    0.359806829427247203E+04
    0.612847983769875806E-03   -0.666933614988773731E-02    0.681202929105555688E+00    0.435092680202073794E+02    0.160593741696972470E+01    0.451855956016182919E-01    0.876835235310364283E+02    0.359806829427247203E+04
   -0.603145557490563288E-03   -0.711147437511089331E-02    0.678395275985429702E+00    0.435780430696805396E+02    0.160712773123982045E+01    0.456027393409674450E-01    0.871110193770753654E+02    0.359812115314496759E+04
   -0.247892733618442461E-03   -0.731003618658551159E-02    0.679194199068450355E+00    0.434700851245219368E+02    0.160668540541869431E+01    0.452224303470325634E-01    0.872426189499211659E+02    0.359813355024359498E+04
    0.307456423769496929E-04   -0.730556119089843976E-02    0.679990129668039733E+00    0.437646831961771028E+02    0.160687445541153506E+01    0.459163153346109493E-01    0.874052286062166530E+02    0.359813846224795680E+04
   -0.141785481926785762E-03   -0.435663302870807276E-02    0.679903314411957616E+00    0.441031390493020155E+02    0.160573304415288209E+01    0.474349468061271359E-01    0.873174896484185297E+02    0.359815880815828314E+04
   -0.691626210676072597E-03   -0.580788857449237965E-02    0.679177659557609337E+00    0.438953526064001025E+02    0.160654054659634449E+01    0.467895371455852652E-01    0.872328240611910530E+02    0.359815917776463448E+04
   -0.691626210676072597E-03   -0.580788857449237965E-02    0.679177659557609337E+00    0.438953526064001025E+02    0.160654054659634449E+01    0.467895371455852652E-01    0.872328240611910530E+02    0.359815917776463448E+04
   -0.306217883238129457E-03   -0.692043582363865983E-02    0.679754377799269283E+00    0.437439570670164741E+02    0.160693829359624663E+01    0.459166293744110651E-01    0.873917172640898201E+02    0.359819940068317101E+04
   -0.114042125631136685E-02   -0.488656756260170879E-02    0.679637314452915642E+00    0.443393935693035246E+02    0.160676473688795007E+01    0.483404573262527365E-01    0.871691207559372288E+02    0.359822499059988240E+04
   -0.578594216757257092E-03   -0.595510635237280275E-02    0.678093003691423668E+00    0.442508268853828852E+02    0.160709305043795880E+01    0.480051430783536778E-01    0.871163658677456851E+02    0.359822561913924028E+04
   -0.578594216757257092E-03   -0.595510635237280275E-02    0.678093003691423668E+00    0.442508268853828852E+02    0.160709305043795880E+01    0.480051430783536778E-01    0.871163658677456851E+02    0.359822561913924028E+04
   -0.427463034017855695E-03   -0.618629393576772615E-02    0.677903228460297269E+00    0.441988743572587808E+02    0.160716324695126267E+01    0.477934186940765920E-01    0.871120040667246229E+02    0.359823397976236038E+04
   -0.497351114869158065E-04   -0.415858685318467973E-02    0.679689160336120812E+00    0.440573893101184382E+02    0.160566641662413501E+01    0.473494299126195548E-01    0.872953440780415946E+02    0.359824843385907479E+04
   -0.748181685393886067E-03   -0.491007355651070128E-02    0.677484937856255742E+00    0.443554819199954196E+02    0.160692632077677189E+01    0.485016266710027316E-01    0.869612029053082267E+02    0.359826802806032310E+04
   -0.748181685393886067E-03   -0.491007355651070128E-02    0.677484937856255742E+00    0.443554819199954196E+02    0.160692632077677189E+01    0.485016266710027316E-01    0.869612029053082267E+02    0.359826802806032310E+04
   -0.888531487130494492E-03   -0.596454951719622810E-02    0.678683097972738958E+00    0.439097075732670348E+02    0.160688522800725697E+01    0.469428129351129597E-01    0.871876773122585149E+02    0.359827362357032598E+04
   -0.541675567225136144E-03   -0.611423125658632546E-02    0.679770698997324119E+00    0.434636231116246776E+02    0.160661764388172834E+01    0.450916212979201453E-01    0.875017817473229371E+02    0.359827934097704019E+04
   -0.332194148666749116E-03   -0.678997436639912529E-02    0.680133943606656466E+00    0.436819941832189400E+02    0.160683450360146440E+01    0.457602767022047274E-01    0.874646308555311265E+02    0.359828141997540979E+04
   -0.332194148666749116E-03   -0.678997436639912529E-02    0.680133943606656466E+00    0.436819941832189400E+02    0.160683450360146440E+01    0.457602767022047274E-01    0.874646308555311265E+02    0.359828141997540979E+04
   -0.746657620750478326E-04   -0.461057930866259034E-02    0.679885053645860382E+00    0.439547144365180174E+02    0.160588479986384347E+01    0.469120662758902851E-01    0.874480579522491155E+02    0.359829724532236241E+04
   -0.746657620750478326E-04   -0.461057930866259034E-02    0.679885053645860382E+00    0.439547144365180174E+02    0.160588479986384347E+01    0.469120662758902851E-01    0.874480579522491155E+02    0.359829724532236241E+04
   -0.933074733192548657E-03   -0.548896121476293453E-02    0.677588446440425041E+00    0.442163893995417254E+02    0.160685489482979582E+01    0.482758580977776103E-01    0.869822205358038048E+02    0.359832526419609940E+04
   -0.933074733192548657E-03   -0.548896121476293453E-02    0.677588446440425041E+00    0.442163893995417254E+02    0.160685489482979582E+01    0.482758580977776103E-01    0.869822205358038048E+02    0.359832526419609940E+04
   -0.534320373479237574E-03   -0.552881784548979634E-02    0.678780030631957021E+00    0.439395788131582066E+02    0.160672227369914800E+01    0.467683485111430944E-01    0.872374444690776158E+02    0.359839483208048932E+04
    0.326577573479561243E-03   -0.648549924795566168E-02    0.680435696959813763E+00    0.436044403438358472E+02    0.160642050915006473E+01    0.454409266670604065E-01    0.876203254775920755E+02    0.359842185010062212E+04
   -0.420499027980497653E-03   -0.621346477786028674E-02    0.677616882821378330E+00    0.441417590263008606E+02    0.160711554590568895E+01    0.476538373666318404E-01    0.870460265635803268E+02    0.359842565310121972E+04
   -0.551902096596646862E-03   -0.688321948087267273E-02    0.679380325217644021E+00    0.436636919038107010E+02    0.160705380400220066E+01    0.457351421916091586E-01    0.872389536711039995E+02    0.359851790487034623E+04
   -0.502512279805952594E-03   -0.727875986899305383E-02    0.679895606188604340E+00    0.438047079853554067E+02    0.160718778753915048E+01    0.461717489678633575E-01    0.873008317360332313E+02    0.359854105798787714E+04
   -0.502512279805952594E-03   -0.727875986899305383E-02    0.679895606188604340E+00    0.438047079853554067E+02    0.160718778753915048E+01    0.461717489678633575E-01    0.873008317360332313E+02    0.359854105798787714E+04
   -0.249074451354674075E-03   -0.702469845308897542E-02    0.679366596105785758E+00    0.436865009300817704E+02    0.160714288332620403E+01    0.456830722460970576E-01    0.873853184248068544E+02    0.359856255590454703E+04
   -0.870532638694992977E-05   -0.719692839500254804E-02    0.680361130690204208E+00    0.434537384693336861E+02    0.160691449462399683E+01    0.448859636017549385E-01    0.875424311606962107E+02    0.359857178024398627E+04
    0.881556256781971040E-04   -0.691800116010797030E-02    0.680292530746472224E+00    0.433824787991029339E+02    0.160699978068036264E+01    0.445189914870093364E-01    0.876543004845600251E+02    0.359858828058294966E+04
    0.881556256781971040E-04   -0.691800116010797030E-02    0.680292530746472224E+00    0.433824787991029339E+02    0.160699978068036264E+01    0.445189914870093364E-01    0.876543004845600251E+02    0.359858828058294966E+04
   -0.265615583739613149E-03   -0.614082889929820804E-02    0.681251463581177497E+00    0.434634323919847247E+02    0.160648365815034788E+01    0.454590163780283149E-01    0.878290232979118457E+02    0.359860377195375304E+04
   -0.265615583739613149E-03   -0.614082889929820804E-02    0.681251463581177497E+00    0.434634323919847247E+02    0.160648365815034788E+01    0.454590163780283149E-01    0.878290232979118457E+02    0.359860377195375304E+04
   -0.417455450077517743E-03   -0.698820142325537810E-02    0.679645636324278879E+00    0.436463186802956997E+02    0.160691835518014425E+01    0.456572642102091725E-01    0.873356527167676262E+02    0.359860645746260025E+04
    0.384953840493480748E-03   -0.666543489213525416E-02    0.680696652120898249E+00    0.434926671860088945E+02    0.160631193200759848E+01    0.449745307149893650E-01    0.876353174977959810E+02    0.359863159461313353E+04
    0.384953840493480748E-03   -0.666543489213525416E-02    0.680696652120898249E+00    0.434926671860088945E+02    0.160631193200759848E+01    0.449745307149893650E-01    0.876353174977959810E+02    0.359863159461313353E+04
    0.799243581521314221E-04   -0.736187929837553261E-02    0.680057986319560603E+00    0.434509704589706800E+02    0.160688071897881657E+01    0.449696940184703617E-01    0.875171997196840437E+02    0.359866524433076029E+04
   -0.428751344821650185E-03   -0.648288306825073324E-02    0.678975295726187644E+00    0.435123845576538528E+02    0.160680116337983914E+01    0.452187549101075170E-01    0.873118639704783135E+02    0.359867390316045658E+04
   -0.428751344821650185E-03   -0.648288306825073324E-02    0.678975295726187644E+00    0.435123845576538528E+02    0.160680116337983914E+01    0.452187549101075170E-01    0.873118639704783135E+02    0.359867390316045658E+04
   -0.532242662660232721E-03   -0.644813869406330765E-02    0.678277057248660387E+00    0.435281480105975973E+02    0.160689558128771925E+01    0.454143621913927487E-01    0.871885753846267733E+02    0.359869207164258478E+04
   -0.458371215327655398E-03   -0.557309977282741467E-02    0.679271174736897909E+00    0.435763589746493452E+02    0.160638629767361274E+01    0.454895689457113922E-01    0.873285963640256568E+02    0.359871101822308492E+04
   -0.410547570687023935E-03   -0.730206644692148882E-02    0.679870061149306482E+00    0.438433123923468884E+02    0.160717373001153052E+01    0.463136671535992334E-01    0.872814248539055058E+02    0.359871693936503834E+04
   -0.105224825972134771E-03   -0.691358130488525964E-02    0.680664007839952179E+00    0.434561635973462330E+02    0.160689903579220306E+01    0.450063593866906683E-01    0.877160771250635349E+02    0.359872402081067366E+04
   -0.977016573375818218E-03   -0.487635942273638000E-02    0.678999628806390088E+00    0.443217946555503701E+02    0.160663940380154679E+01    0.484195804138214947E-01    0.871188515098864400E+02    0.359872540220269320E+04
   -0.490688845800440077E-03   -0.715632939060971418E-02    0.679092866458956057E+00    0.437955868202372258E+02    0.160723511554424903E+01    0.461000242702368779E-01    0.872218721317680235E+02    0.359874172134577839E+04
   -0.544812848580525713E-03   -0.640671066171514571E-02    0.678821328818847713E+00    0.438761558152732860E+02    0.160693216820973750E+01    0.465651077927314513E-01    0.872400447697440882E+02    0.359874253835260151E+04
   -0.502510962647803334E-03   -0.612920302608582768E-02    0.678169721220630128E+00    0.442570436487386019E+02    0.160727965161768460E+01    0.478220473458321818E-01    0.871072035112374010E+02    0.359874331179963065E+04
   -0.473685529566891588E-03   -0.684577128416614770E-02    0.678904343661247633E+00    0.437556555257402238E+02    0.160716199276891136E+01    0.460444441831450862E-01    0.872871595408485206E+02    0.359875393887286737E+04
    0.523094470857612438E-03   -0.675532523496874190E-02    0.680793620673507127E+00    0.434755942386091547E+02    0.160621517147932757E+01    0.449050652360529143E-01    0.876091558119704672E+02    0.359876264681133034E+04
    0.114650844601390015E-03   -0.707299502947899249E-02    0.680486161229155950E+00    0.434532485802851056E+02    0.160680623897270070E+01    0.450255320777449841E-01    0.876129983349856047E+02    0.359877609561740792E+04
    0.219646732926405755E-04   -0.728865377778037393E-02    0.680348851394428134E+00    0.436356022534784103E+02    0.160668048437209698E+01    0.454619711301556123E-01    0.874829072223477340E+02    0.359882545109609237E+04
    0.219646732926405755E-04   -0.728865377778037393E-02    0.680348851394428134E+00    0.436356022534784103E+02    0.160668048437209698E+01    0.454619711301556123E-01    0.874829072223477340E+02    0.359882545109609237E+04
   -0.583000628324438670E-03   -0.587286196495333604E-02    0.678707992920018599E+00    0.438059275174869214E+02    0.160664571016435409E+01    0.464729746989325510E-01    0.872522680674300801E+02    0.359883333911467935E+04
   -0.473727119220609472E-03   -0.681490508580328593E-02    0.678454650169124429E+00    0.436741890043364620E+02    0.160724812963658548E+01    0.457850209546613249E-01    0.871903153127236976E+02    0.359888681623933326E+04
   -0.473727119220609472E-03   -0.681490508580328593E-02    0.678454650169124429E+00    0.436741890043364620E+02    0.160724812963658548E+01    0.457850209546613249E-01    0.871903153127236976E+02    0.359888681623933326E+04
   -0.166697292494538511E-03   -0.731814946611376513E-02    0.679392345851694945E+00    0.437689779614158141E+02    0.160722436424266046E+01    0.458808475757111131E-01    0.873275433799046255E+02    0.359889633624476437E+04
    0.397536655493078419E-03   -0.666801238701409012E-02    0.680854339233389783E+00    0.434402916296325543E+02    0.160628226317409517E+01    0.449369209826334104E-01    0.876755475611068960E+02    0.359891031921782906E+04
   -0.110772372548113818E-02   -0.587600036673889027E-02    0.679032431754687416E+00    0.440289390142258625E+02    0.160678767318600313E+01    0.474027109498112234E-01    0.871485455173595511E+02    0.359897750279243519E+04
   -0.209438331514934586E-03   -0.738011798071162677E-02    0.679146861653110001E+00    0.438001861989649441E+02    0.160733713795925026E+01    0.460034032379814870E-01    0.872975678739648657E+02    0.359898360069263435E+04
   -0.226664753032431235E-03   -0.731605177265563962E-02    0.679661198082307183E+00    0.437322733403583044E+02    0.160710467298624304E+01    0.457292912587876701E-01    0.873724354069373561E+02    0.359900352906754506E+04
   -0.864533804213884517E-03   -0.617824037991664306E-02    0.678851551252181218E+00    0.438828315947803063E+02    0.160679690466072089E+01    0.468427082676839204E-01    0.871638929410526231E+02    0.359903872998107317E+04
   -0.864533804213884517E-03   -0.617824037991664306E-02    0.678851551252181218E+00    0.438828315947803063E+02    0.160679690466072089E+01    0.468427082676839204E-01    0.871638929410526231E+02    0.359903872998107317E+04
   -0.397752389213132124E-04   -0.720424565136612571E-02    0.679486815212646866E+00    0.437095152786254175E+02    0.160713602431015312E+01    0.455993064165248901E-01    0.874131896405544495E+02    0.359904672925834439E+04
   -0.397752389213132124E-04   -0.720424565136612571E-02    0.679486815212646866E+00    0.437095152786254175E+02    0.160713602431015312E+01    0.455993064165248901E-01    0.874131896405544495E+02    0.359904672925834439E+04
   -0.599997189180239950E-03   -0.624192026891120730E-02    0.678604367816443954E+00    0.436546439711284080E+02    0.160678287210008630E+01    0.459059020912969545E-01    0.872757300235318922E+02    0.359906426954449125E+04
   -0.303522608862226992E-03   -0.731130555804467876E-02    0.679813584533755177E+00    0.437652922030127769E+02    0.160727444589697499E+01    0.458650176300705037E-01    0.873734239033524887E+02    0.359911617806033064E+04
   -0.230129149036784140E-03   -0.736836870629748938E-02    0.680263283661363127E+00    0.437287478117740207E+02    0.160703558018890247E+01    0.457416047652644611E-01    0.873991478419328445E+02    0.359911893477061858E+04
    0.224981983428203746E-03   -0.378110283169098664E-02    0.680033684722832654E+00    0.442254229480181777E+02    0.160552143251284862E+01    0.479195793692702571E-01    0.874209497487761098E+02    0.359915024060663654E+04
    0.224981983428203746E-03   -0.378110283169098664E-02    0.680033684722832654E+00    0.442254229480181777E+02    0.160552143251284862E+01    0.479195793692702571E-01    0.874209497487761098E+02    0.359915024060663654E+04
   -0.353789919864535207E-03   -0.710394731632780184E-02    0.678388908898986731E+00    0.436113800378716903E+02    0.160713371850294684E+01    0.456520968462981735E-01    0.872169864035270024E+02    0.359915513014964881E+04
   -0.887069511465979690E-03   -0.563688947512301208E-02    0.679114547485824116E+00    0.440808996798768504E+02    0.160659834199752805E+01    0.476173221917399331E-01    0.871343664989344546E+02    0.359919365825900422E+04
    0.650870265884662602E-04   -0.689894484856482838E-02    0.679614943077341938E+00    0.436527508645580795E+02    0.160668147728009725E+01    0.456951906423149479E-01    0.873968080815957933E+02    0.359920740277477489E+04
   -0.382785509138370422E-03   -0.735838805708745672E-02    0.679850899729649516E+00    0.437572898798332730E+02    0.160707962214331723E+01    0.459988377085117847E-01    0.872913204059923089E+02    0.359923023539449514E+04
   -0.382785509138370422E-03   -0.735838805708745672E-02    0.679850899729649516E+00    0.437572898798332730E+02    0.160707962214331723E+01    0.459988377085117847E-01    0.872913204059923089E+02    0.359923023539449514E+04
    0.219337768942863380E-03   -0.407370265543413601E-02    0.680303813641220723E+00    0.441569999650848644E+02    0.160562530313045593E+01    0.476373004326067495E-01    0.874982113772334742E+02    0.359925104790269825E+04
   -0.279937914528010246E-03   -0.596297537677310547E-02    0.679428449259525502E+00    0.435449887190752349E+02    0.160664105804947677E+01    0.453862792887944066E-01    0.874743607877214089E+02    0.359925905621719448E+04
    0.506213763994967049E-03   -0.680103995506742449E-02    0.680970654789550434E+00    0.436436798315769323E+02    0.160623052033136982E+01    0.453724604773223308E-01    0.875813990758424268E+02    0.359926169432838878E+04
    0.506213763994967049E-03   -0.680103995506742449E-02    0.680970654789550434E+00    0.436436798315769323E+02    0.160623052033136982E+01    0.453724604773223308E-01    0.875813990758424268E+02    0.359926169432838878E+04
   -0.214868676889055877E-03   -0.729549925519036406E-02    0.679154386603054272E+00    0.437326722985352774E+02    0.160721886773027256E+01    0.458164407351076552E-01    0.873196944357584499E+02    0.359928887797220750E+04
   -0.736926546410169008E-03   -0.483879061626616563E-02    0.678708546411212810E+00    0.442370693128897017E+02    0.160629633690394491E+01    0.483236893936233036E-01    0.871221060930513573E+02    0.359934691452796324E+04
   -0.586008821359681282E-03   -0.740427665765588244E-02    0.680136826496123281E+00    0.436396862546070494E+02    0.160695395468916868E+01    0.456173414263341473E-01    0.873447662362123367E+02    0.359935290050998583E+04
   -0.586008821359681282E-03   -0.740427665765588244E-02    0.680136826496123281E+00    0.436396862546070494E+02    0.160695395468916868E+01    0.456173414263341473E-01    0.873447662362123367E+02    0.359935290050998583E+04
   -0.584861332556235909E-03   -0.531301594316476063E-02    0.679055355316549369E+00    0.439985050023850377E+02    0.160635104272661167E+01    0.471742895629394532E-01    0.871873964900096041E+02    0.359936502530658072E+04
   -0.395067772783468107E-03   -0.736314772820477990E-02    0.679055803253510004E+00    0.437817916214567333E+02    0.160727863645683433E+01    0.460972989192580951E-01    0.872024173629563535E+02    0.359938150597359163E+04
   -0.395067772783468107E-03   -0.736314772820477990E-02    0.679055803253510004E+00    0.437817916214567333E+02    0.160727863645683433E+01    0.460972989192580951E-01    0.872024173629563535E+02    0.359938150597359163E+04
   -0.498287044555560015E-03   -0.553093888608898344E-02    0.678341240721622829E+00    0.441030151692448129E+02    0.160675395463932302E+01    0.475142539810554654E-01    0.870186632211221109E+02    0.359939009859127736E+04
   -0.166517330378048193E-03   -0.707315590393875482E-02    0.680257530986204229E+00    0.437689728680463688E+02    0.160674936664447521E+01    0.461174303112720091E-01    0.873492412910018459E+02    0.359940008037425105E+04
   -0.790932897770148420E-03   -0.533273077259970290E-02    0.678436333396418401E+00    0.441602789534952151E+02    0.160673428424289311E+01    0.478085345719366783E-01    0.870636021589982931E+02    0.359940919103874467E+04
    0.269888115601359135E-03   -0.638098533110533807E-02    0.680171797409919288E+00    0.436809607942873512E+02    0.160639609181612864E+01    0.455863302563591991E-01    0.875859177017688069E+02    0.359944223375176716E+04
    0.269888115601359135E-03   -0.638098533110533807E-02    0.680171797409919288E+00    0.436809607942873512E+02    0.160639609181612864E+01    0.455863302563591991E-01    0.875859177017688069E+02    0.359944223375176716E+04
   -0.314195813807331605E-03   -0.535348208108252666E-02    0.678434164012737484E+00    0.439203668583023727E+02    0.160629884546075541E+01    0.469372327281146820E-01    0.871539246090682838E+02    0.359949699973803399E+04
   -0.705306711991926082E-03   -0.522030912615569810E-02    0.678996957592492678E+00    0.441634901835393237E+02    0.160658893418206317E+01    0.477638966110357846E-01    0.870635367847231265E+02    0.359952165211769125E+04
   -0.720579337046056484E-03   -0.512549383576849441E-02    0.678420278042188518E+00    0.442541118287090285E+02    0.160684790975949809E+01    0.479619341942352645E-01    0.870128740573042734E+02    0.359955026283908910E+04
   -0.298658211050007371E-03   -0.668811352248100885E-02    0.678511319672136737E+00    0.436685288795326585E+02    0.160703471275112730E+01    0.457434994070786138E-01    0.872618673621918646E+02    0.359958118754569296E+04
   -0.900221391284373486E-03   -0.519807692228933197E-02    0.678295581087720034E+00    0.442853037972379511E+02    0.160673301333608665E+01    0.483682737348105490E-01    0.870430695640248473E+02    0.359958356597596321E+04
   -0.900221391284373486E-03   -0.519807692228933197E-02    0.678295581087720034E+00    0.442853037972379511E+02    0.160673301333608665E+01    0.483682737348105490E-01    0.870430695640248473E+02    0.359958356597596321E+04
   -0.517166770860861364E-03   -0.661363523548214559E-02    0.678358792244359798E+00    0.435231941552915202E+02    0.160700095302697910E+01    0.453818405167874597E-01    0.871741743333237338E+02    0.359958984803902104E+04
   -0.379689442687784979E-03   -0.688361474757960730E-02    0.679374319579958419E+00    0.435660270110529524E+02    0.160681854690122794E+01    0.454652954307540602E-01    0.873106514982570019E+02    0.359959513804483413E+04
   -0.852087639812853376E-03   -0.542615805469829661E-02    0.679016310099408660E+00    0.441503170694974969E+02    0.160659829607549809E+01    0.478495147845501012E-01    0.870924670276038171E+02    0.359968400362401144E+04
   -0.657683994735437085E-03   -0.621707041420725519E-02    0.678895878411236664E+00    0.438828263894098001E+02    0.160679719380696873E+01    0.466901519678917729E-01    0.872347878749022669E+02    0.359969973332190966E+04
   -0.231975802146841071E-03   -0.716894705699726992E-02    0.679551755221760700E+00    0.434092531937085369E+02    0.160666261059687376E+01    0.449384112055221732E-01    0.874161247949063522E+02    0.359971311068281784E+04
   -0.231975802146841071E-03   -0.716894705699726992E-02    0.679551755221760700E+00    0.434092531937085369E+02    0.160666261059687376E+01    0.449384112055221732E-01    0.874161247949063522E+02    0.359971311068281784E+04
   -0.200425156623391726E-03   -0.703615583855158808E-02    0.679088644845819434E+00    0.436685075689124602E+02    0.160714972553071989E+01    0.457096467438591059E-01    0.872886646436583078E+02    0.359973437487781257E+04
   -0.200425156623391726E-03   -0.703615583855158808E-02    0.679088644845819434E+00    0.436685075689124602E+02    0.160714972553071989E+01    0.457096467438591059E-01    0.872886646436583078E+02    0.359973437487781257E+04
   -0.440914337878938953E-03   -0.723016463988510397E-02    0.679255459519290672E+00    0.437857609778040811E+02    0.160737500652569176E+01    0.460086051762174514E-01    0.872826610289498177E+02    0.359979189743671395E+04
   -0.781102054035751666E-04   -0.649692780508009937E-02    0.679350110847831590E+00    0.435741884865050864E+02    0.160678922792572987E+01    0.454227947630632470E-01    0.874374951090714916E+02    0.359981351346872634E+04
   -0.111697638310305860E-02   -0.526794120090833158E-02    0.678594570906393968E+00    0.443531788240060436E+02    0.160706292275052864E+01    0.484014520167573223E-01    0.870227978114903493E+02    0.359986053501629249E+04
   -0.111697638310305860E-02   -0.526794120090833158E-02    0.678594570906393968E+00    0.443531788240060436E+02    0.160706292275052864E+01    0.484014520167573223E-01    0.870227978114903493E+02    0.359986053501629249E+04
    0.212764507381698557E-04   -0.689672689670563221E-02    0.680491943045149039E+00    0.436516533886567473E+02    0.160646359145050743E+01    0.456002637530831326E-01    0.875204877279781783E+02    0.359987016166639569E+04
    0.212764507381698557E-04   -0.689672689670563221E-02    0.680491943045149039E+00    0.436516533886567473E+02    0.160646359145050743E+01    0.456002637530831326E-01    0.875204877279781783E+02    0.359987016166639569E+04
   -0.662956047290601909E-03   -0.517991797727947872E-02    0.678108073689249968E+00    0.442732160677818456E+02    0.160690339239141511E+01    0.480474369978148227E-01    0.869932022426604163E+02    0.359991945304430783E+04
   -0.662956047290601909E-03   -0.517991797727947872E-02    0.678108073689249968E+00    0.442732160677818456E+02    0.160690339239141511E+01    0.480474369978148227E-01    0.869932022426604163E+02    0.359991945304430783E+04
   -0.569977112947214022E-03   -0.620945803555679292E-02    0.678702025161974642E+00    0.439649208180607829E+02    0.160683844652620400E+01    0.469697757708411462E-01    0.871764973642644918E+02    0.359996190090034816E+04
   -0.569977112947214022E-03   -0.620945803555679292E-02    0.678702025161974642E+00    0.439649208180607829E+02    0.160683844652620400E+01    0.469697757708411462E-01    0.871764973642644918E+02    0.359996190090034816E+04
   -0.590383216295474467E-03   -0.593990042810835749E-02    0.678448393472493749E+00    0.434190834962427985E+02    0.160690280013539799E+01    0.450627293479395480E-01    0.873155861026893376E+02    0.359997275564725123E+04
   -0.590383216295474467E-03   -0.593990042810835749E-02    0.678448393472493749E+00    0.434190834962427985E+02    0.160690280013539799E+01    0.450627293479395480E-01    0.873155861026893376E+02    0.359997275564725123E+04
   -0.284868065578323991E-03   -0.733722086342041349E-02    0.679413411323882555E+00    0.437948695605931348E+02    0.160729892434387711E+01    0.459869481828255322E-01    0.872901947684740662E+02    0.360005105064349664E+04
   -0.377725315015152831E-03   -0.733699168454620722E-02    0.679513231804220741E+00    0.437886733275256645E+02    0.160725267541110584E+01    0.459928639534520761E-01    0.873062749571776777E+02    0.360007602917816348E+04
   -0.377725315015152831E-03   -0.733699168454620722E-02    0.679513231804220741E+00    0.437886733275256645E+02    0.160725267541110584E+01    0.459928639534520761E-01    0.873062749571776777E+02    0.360007602917816348E+04
   -0.487771206322958192E-03   -0.590842514700312335E-02    0.679113326625811253E+00    0.434734927903478336E+02    0.160653235518875626E+01    0.452022111020716072E-01    0.873439990246228177E+02    0.360009189992300526E+04
   -0.487771206322958192E-03   -0.590842514700312335E-02    0.679113326625811253E+00    0.434734927903478336E+02    0.160653235518875626E+01    0.452022111020716072E-01    0.873439990246228177E+02    0.360009189992300526E+04
   -0.694346225043116936E-03   -0.673441113921241508E-02    0.678384522078226193E+00    0.435381466626754801E+02    0.160699473455247399E+01    0.454727299091735385E-01    0.872276741312330728E+02    0.360009510225497024E+04
   -0.835577643816073912E-03   -0.517245975856452014E-02    0.678806070689707663E+00    0.442815038397825518E+02    0.160683640395361649E+01    0.481082411959020129E-01    0.870210634698581345E+02    0.360016082471741902E+04
   -0.835577643816073912E-03   -0.517245975856452014E-02    0.678806070689707663E+00    0.442815038397825518E+02    0.160683640395361649E+01    0.481082411959020129E-01    0.870210634698581345E+02    0.360016082471741902E+04
   -0.923800711096534315E-03   -0.535034975911329123E-02    0.678203428413493015E+00    0.442619786538221689E+02    0.160678497383138397E+01    0.483026274156091590E-01    0.870909708562856508E+02    0.360016421298299520E+04
   -0.766644280687168306E-03   -0.516211980928820476E-02    0.678256132345842588E+00    0.442750267316554158E+02    0.160698307832313492E+01    0.479899373697369527E-01    0.870064054297592548E+02    0.360016788615271980E+04
   -0.766644280687168306E-03   -0.516211980928820476E-02    0.678256132345842588E+00    0.442750267316554158E+02    0.160698307832313492E+01    0.479899373697369527E-01    0.870064054297592548E+02    0.360016788615271980E+04
   -0.117091510119557971E-02   -0.502388873872116302E-02    0.679338159426538635E+00    0.443314518195305283E+02    0.160681568264815300E+01    0.484094871323644330E-01    0.871266539705978005E+02    0.360017446222275430E+04
    0.308074983090057472E-03   -0.669457323565933460E-02    0.681113780494174814E+00    0.436639094063328983E+02    0.160606799454289240E+01    0.456970606180276892E-01    0.875431031148177539E+02    0.360018855908114483E+04
   -0.155192586749037338E-03   -0.657149659969977207E-02    0.679555327517160856E+00    0.435055154534483393E+02    0.160662476236604390E+01    0.452151686729520691E-01    0.874378816287516685E+02    0.360019392183996206E+04
   -0.155192586749037338E-03   -0.657149659969977207E-02    0.679555327517160856E+00    0.435055154534483393E+02    0.160662476236604390E+01    0.452151686729520691E-01    0.874378816287516685E+02    0.360019392183996206E+04
   -0.422729947288805934E-03   -0.635909314570221387E-02    0.678403414705027408E+00    0.440568368019359653E+02    0.160693691760229251E+01    0.473557564681099247E-01    0.871987797432237386E+02    0.360020108308163208E+04
   -0.422729947288805934E-03   -0.635909314570221387E-02    0.678403414705027408E+00    0.440568368019359653E+02    0.160693691760229251E+01    0.473557564681099247E-01    0.871987797432237386E+02    0.360020108308163208E+04
   -0.589286032696738826E-03   -0.629905745440610676E-02    0.678728017372583592E+00    0.440298119934132899E+02    0.160690397524667872E+01    0.472379461681222204E-01    0.872291898289876428E+02    0.360024037172854605E+04
   -0.295096945488746874E-03   -0.575468190250149215E-02    0.679734283524094929E+00    0.435984691447341746E+02    0.160643802853203743E+01    0.455413881371570448E-01    0.874725595364411532E+02    0.360028090402801399E+04
   -0.295096945488746874E-03   -0.575468190250149215E-02    0.679734283524094929E+00    0.435984691447341746E+02    0.160643802853203743E+01    0.455413881371570448E-01    0.874725595364411532E+02    0.360028090402801399E+04
   -0.395542857108933119E-03   -0.632770677998747803E-02    0.678090107833655420E+00    0.441385521335659803E+02    0.160711968932381133E+01    0.475625559411783569E-01    0.871097972945190122E+02    0.360028907295068029E+04
   -0.891693986106638879E-03   -0.510350099693749823E-02    0.679104738360491234E+00    0.441770818491010999E+02    0.160629698531512788E+01    0.481549685333097152E-01    0.871772056737833481E+02    0.360032839385814714E+04
   -0.654530564685715027E-03   -0.602076341492652559E-02    0.678824247521488511E+00    0.438481501803961891E+02    0.160676345954100497E+01    0.464843987854775126E-01    0.872077199688606157E+02    0.360034949213865002E+04
   -0.654530564685715027E-03   -0.602076341492652559E-02    0.678824247521488511E+00    0.438481501803961891E+02    0.160676345954100497E+01    0.464843987854775126E-01    0.872077199688606157E+02    0.360034949213865002E+04
   -0.333582645324648338E-03   -0.560713171827159455E-02    0.679544257959937448E+00    0.436507895418495906E+02    0.160652296948754869E+01    0.455550239504893192E-01    0.874081679660303479E+02    0.360036970292468322E+04
   -0.333582645324648338E-03   -0.560713171827159455E-02    0.679544257959937448E+00    0.436507895418495906E+02    0.160652296948754869E+01    0.455550239504893192E-01    0.874081679660303479E+02    0.360036970292468322E+04
   -0.223327107078358711E-03   -0.584031492476638249E-02    0.679571843249777152E+00    0.437321456894842271E+02    0.160658361409740791E+01    0.459041053383576619E-01    0.873647044065613869E+02    0.360040020583950718E+04
   -0.223327107078358711E-03   -0.584031492476638249E-02    0.679571843249777152E+00    0.437321456894842271E+02    0.160658361409740791E+01    0.459041053383576619E-01    0.873647044065613869E+02    0.360040020583950718E+04
   -0.222089431147029503E-03   -0.620986817815219992E-02    0.679968564329212377E+00    0.435730399214912865E+02    0.160649326544371251E+01    0.453329875858010170E-01    0.874512625601471143E+02    0.360040304444721323E+04
   -0.108615470200238763E-02   -0.509845425478287415E-02    0.678825653281052710E+00    0.442899391972040419E+02    0.160685712804045089E+01    0.482677270819280926E-01    0.870781917051707808E+02    0.360042540005438332E+04
   -0.609340214760901869E-03   -0.614346341340587902E-02    0.678785073302244135E+00    0.434314515254635722E+02    0.160682103120816722E+01    0.450669388828136910E-01    0.873017719038270315E+02    0.360042899404869650E+04
   -0.609340214760901869E-03   -0.614346341340587902E-02    0.678785073302244135E+00    0.434314515254635722E+02    0.160682103120816722E+01    0.450669388828136910E-01    0.873017719038270315E+02    0.360042899404869650E+04
   -0.427359254531762189E-03   -0.610901756746996989E-02    0.679022186810468331E+00    0.433808173725401076E+02    0.160673082690853719E+01    0.448710537687118660E-01    0.874205786304330275E+02    0.360043655445199329E+04
   -0.768171114489113287E-03   -0.612255801370580055E-02    0.679107417424105519E+00    0.439231172232134526E+02    0.160680494403662966E+01    0.467953704900612652E-01    0.872144548711364109E+02    0.360048508466391331E+04
   -0.768171114489113287E-03   -0.612255801370580055E-02    0.679107417424105519E+00    0.439231172232134526E+02    0.160680494403662966E+01    0.467953704900612652E-01    0.872144548711364109E+02    0.360048508466391331E+04
   -0.467376545835982999E-03   -0.734929900282210204E-02    0.679640318040558578E+00    0.438624209575262896E+02    0.160735514587761830E+01    0.462542582390528881E-01    0.872323124501807712E+02    0.360049342844902230E+04
   -0.467376545835982999E-03   -0.734929900282210204E-02    0.679640318040558578E+00    0.438624209575262896E+02    0.160735514587761830E+01    0.462542582390528881E-01    0.872323124501807712E+02    0.360049342844902230E+04
   -0.355306668586315112E-03   -0.562278556712955159E-02    0.679415116477991354E+00    0.436292026327731577E+02    0.160659531061699767E+01    0.455999389101919353E-01    0.874047857514576094E+02    0.360050237921383632E+04
    0.835950059270003203E-04   -0.711910042238282810E-02    0.680605240456762517E+00    0.436032509328198827E+02    0.160644700769277415E+01    0.454176800280581688E-01    0.875393341803006706E+02    0.360050692076456926E+04
   -0.410891295699040374E-03   -0.639256510754383431E-02    0.678234017863666216E+00    0.441263705658620182E+02    0.160707424322616999E+01    0.475389404311859845E-01    0.871514149566026646E+02    0.360052261525856011E+04
   -0.763664673722498849E-03   -0.527996363254005022E-02    0.678425412504147674E+00    0.442613936505401568E+02    0.160684713447360239E+01    0.480647490193830546E-01    0.870548154456255361E+02    0.360052942134785235E+04
   -0.763664673722498849E-03   -0.527996363254005022E-02    0.678425412504147674E+00    0.442613936505401568E+02    0.160684713447360239E+01    0.480647490193830546E-01    0.870548154456255361E+02    0.360052942134785235E+04
   -0.671962449227774244E-03   -0.590004399867505649E-02    0.678679951519178148E+00    0.440700131782014779E+02    0.160687429607933652E+01    0.473945099880077533E-01    0.871030360308858320E+02    0.360055143098223562E+04
   -0.671962449227774244E-03   -0.590004399867505649E-02    0.678679951519178148E+00    0.440700131782014779E+02    0.160687429607933652E+01    0.473945099880077533E-01    0.871030360308858320E+02    0.360055143098223562E+04
   -0.604824299269282216E-03   -0.556580363746476958E-02    0.678117151175874788E+00    0.442342098698093267E+02    0.160701844163928231E+01    0.478626914637519177E-01    0.870346021816274344E+02    0.360062014781568541E+04
   -0.604824299269282216E-03   -0.556580363746476958E-02    0.678117151175874788E+00    0.442342098698093267E+02    0.160701844163928231E+01    0.478626914637519177E-01    0.870346021816274344E+02    0.360062014781568541E+04
   -0.854721315668031554E-03   -0.485861861593175383E-02    0.679039359316122026E+00    0.441811064083019787E+02    0.160618466686403116E+01    0.482071366601554835E-01    0.871287492218605024E+02    0.360069347924271187E+04
   -0.854721315668031554E-03   -0.485861861593175383E-02    0.679039359316122026E+00    0.441811064083019787E+02    0.160618466686403116E+01    0.482071366601554835E-01    0.871287492218605024E+02    0.360069347924271187E+04
   -0.530044861676494611E-03   -0.578632647861215994E-02    0.678698665154593428E+00    0.440496445742473384E+02    0.160661179634453655E+01    0.473907335155938220E-01    0.871660122062407083E+02    0.360070451695792644E+04
   -0.530044861676494611E-03   -0.578632647861215994E-02    0.678698665154593428E+00    0.440496445742473384E+02    0.160661179634453655E+01    0.473907335155938220E-01    0.871660122062407083E+02    0.360070451695792644E+04
   -0.852174264236109369E-03   -0.528847200361205576E-02    0.678881042887663821E+00    0.442471254882380549E+02    0.160677447394690098E+01    0.480595640036026589E-01    0.870560641574884357E+02    0.360073707834372044E+04
   -0.852174264236109369E-03   -0.528847200361205576E-02    0.678881042887663821E+00    0.442471254882380549E+02    0.160677447394690098E+01    0.480595640036026589E-01    0.870560641574884357E+02    0.360073707834372044E+04
   -0.387544220551670976E-03   -0.615002712928658032E-02    0.678536619777905692E+00    0.440159081551957883E+02    0.160670203500749409E+01    0.472392058347593236E-01    0.872261915535568590E+02    0.360074058418638788E+04
   -0.387544220551670976E-03   -0.615002712928658032E-02    0.678536619777905692E+00    0.440159081551957883E+02    0.160670203500749409E+01    0.472392058347593236E-01    0.872261915535568590E+02    0.360074058418638788E+04
   -0.897074817653549777E-03   -0.512719116904290957E-02    0.678186529349075196E+00    0.442607523303290975E+02    0.160669539190397748E+01    0.482981504112665605E-01    0.870782448139402590E+02    0.360075514162978925E+04
   -0.897074817653549777E-03   -0.512719116904290957E-02    0.678186529349075196E+00    0.442607523303290975E+02    0.160669539190397748E+01    0.482981504112665605E-01    0.870782448139402590E+02    0.360075514162978925E+04
   -0.412159303596161064E-03   -0.599087912354350285E-02    0.678991551206824639E+00    0.434683690338229454E+02    0.160656735975641163E+01    0.451939204800559866E-01    0.873331290969170766E+02    0.360079431230693490E+04
   -0.412159303596161064E-03   -0.599087912354350285E-02    0.678991551206824639E+00    0.434683690338229454E+02    0.160656735975641163E+01    0.451939204800559866E-01    0.873331290969170766E+02    0.360079431230693490E+04
   -0.873922745242962894E-03   -0.512937554869880193E-02    0.678222086014884651E+00    0.443120199463478883E+02    0.160686479073278821E+01    0.483433548640272021E-01    0.870592792209557871E+02    0.360079590947582801E+04
   -0.806125040503840500E-03   -0.506699827843590765E-02    0.678595523123871835E+00    0.443081031823756675E+02    0.160681804923700877E+01    0.482667231805330929E-01    0.870577326767212583E+02    0.360081898154304645E+04
   -0.806125040503840500E-03   -0.506699827843590765E-02    0.678595523123871835E+00    0.443081031823756675E+02    0.160681804923700877E+01    0.482667231805330929E-01    0.870577326767212583E+02    0.360081898154304645E+04
   -0.281755317861297249E-03   -0.588768520625520663E-02    0.678278156077912198E+00    0.441098367630199419E+02    0.160663775947967813E+01    0.476567051222473309E-01    0.871256005213783453E+02    0.360082165747526187E+04
   -0.281755317861297249E-03   -0.588768520625520663E-02    0.678278156077912198E+00    0.441098367630199419E+02    0.160663775947967813E+01    0.476567051222473309E-01    0.871256005213783453E+02    0.360082165747526187E+04
   -0.927291735390448416E-03   -0.500900032664345490E-02    0.679041432107851284E+00    0.442992910395122905E+02    0.160677591094950101E+01    0.482295587367655570E-01    0.870567223186229739E+02    0.360083567953439160E+04
   -0.502990404757750354E-03   -0.595008421215518710E-02    0.678924349536661698E+00    0.434531990769338421E+02    0.160663337270145323E+01    0.451427266460464605E-01    0.873104753212731026E+02    0.360084673830808242E+04
   -0.502990404757750354E-03   -0.595008421215518710E-02    0.678924349536661698E+00    0.434531990769338421E+02    0.160663337270145323E+01    0.451427266460464605E-01    0.873104753212731026E+02    0.360084673830808242E+04
   -0.371994549567605456E-03   -0.593332280708881200E-02    0.678286046039908275E+00    0.441201250679408687E+02    0.160677731702050486E+01    0.476328835356460908E-01    0.870962617490034603E+02    0.360084744891750506E+04
   -0.371994549567605456E-03   -0.593332280708881200E-02    0.678286046039908275E+00    0.441201250679408687E+02    0.160677731702050486E+01    0.476328835356460908E-01    0.870962617490034603E+02    0.360084744891750506E+04
    0.219103770333181906E-03   -0.398630311345984749E-02    0.680135901445833690E+00    0.441653105969982391E+02    0.160561331699227861E+01    0.477159519971423890E-01    0.874329234958390487E+02    0.360085880276546732E+04
   -0.228699290197281529E-03   -0.571951201156153423E-02    0.678008490456798674E+00    0.441668351602149443E+02    0.160678911357739085E+01    0.477536310368156733E-01    0.870367736291627949E+02    0.360088445962802598E+04
    0.254497569588180454E-03   -0.687085654929106213E-02    0.680650673844152676E+00    0.436332189435027971E+02    0.160631733946685662E+01    0.454775906191502641E-01    0.875436177755336189E+02    0.360088960891809984E+04
    0.245902591699573118E-03   -0.634239340727108664E-02    0.680759235994292444E+00    0.437015705329815560E+02    0.160611035726064832E+01    0.457716693682367615E-01    0.875788188210401302E+02    0.360089422671404100E+04
    0.245902591699573118E-03   -0.634239340727108664E-02    0.680759235994292444E+00    0.437015705329815560E+02    0.160611035726064832E+01    0.457716693682367615E-01    0.875788188210401302E+02    0.360089422671404100E+04
   -0.325252968297248639E-03   -0.584534407997160631E-02    0.678334812127877829E+00    0.440869818183320916E+02    0.160666905507822877E+01    0.475337173549532713E-01    0.871192541398374090E+02    0.360091569450987572E+04
   -0.325252968297248639E-03   -0.584534407997160631E-02    0.678334812127877829E+00    0.440869818183320916E+02    0.160666905507822877E+01    0.475337173549532713E-01    0.871192541398374090E+02    0.360091569450987572E+04
   -0.602717155808766289E-03   -0.583575053145299165E-02    0.678679970002039501E+00    0.433729324235934044E+02    0.160665940379511807E+01    0.448810062836961232E-01    0.872967612851223009E+02    0.360092864121693719E+04
   -0.602717155808766289E-03   -0.583575053145299165E-02    0.678679970002039501E+00    0.433729324235934044E+02    0.160665940379511807E+01    0.448810062836961232E-01    0.872967612851223009E+02    0.360092864121693719E+04
   -0.866861521051077956E-03   -0.524018370436402179E-02    0.678944770736656267E+00    0.441559396630180103E+02    0.160657973031521983E+01    0.478984923619964684E-01    0.870762915685778864E+02    0.360094083612890199E+04
   -0.866861521051077956E-03   -0.524018370436402179E-02    0.678944770736656267E+00    0.441559396630180103E+02    0.160657973031521983E+01    0.478984923619964684E-01    0.870762915685778864E+02    0.360094083612890199E+04
   -0.409587911017439757E-03   -0.576540382190546524E-02    0.678429084140447003E+00    0.441433266208687911E+02    0.160673697574828500E+01    0.476970427122265922E-01    0.871007213409190939E+02    0.360094389077284040E+04
   -0.750362099710269199E-03   -0.529813255603522361E-02    0.677886155456835615E+00    0.442405818652590384E+02    0.160685289501684991E+01    0.480683955378979205E-01    0.870203030223064786E+02    0.360098032266552491E+04
   -0.750362099710269199E-03   -0.529813255603522361E-02    0.677886155456835615E+00    0.442405818652590384E+02    0.160685289501684991E+01    0.480683955378979205E-01    0.870203030223064786E+02    0.360098032266552491E+04
   -0.104857629002468034E-03   -0.643535146875346374E-02    0.679971607818391610E+00    0.435227080763605443E+02    0.160635699752652106E+01    0.452798453781294852E-01    0.874883299119711495E+02    0.360101055666233970E+04
   -0.111762153064012457E-02   -0.479600970450364851E-02    0.678677205482436818E+00    0.443460475079444336E+02    0.160690531691621397E+01    0.484055556590232208E-01    0.870815620113261275E+02    0.360101370357194037E+04
   -0.111762153064012457E-02   -0.479600970450364851E-02    0.678677205482436818E+00    0.443460475079444336E+02    0.160690531691621397E+01    0.484055556590232208E-01    0.870815620113261275E+02    0.360101370357194037E+04
   -0.739006309909964612E-03   -0.514379043968686556E-02    0.678242609064258706E+00    0.442979918042525824E+02    0.160696802425906693E+01    0.481026559907493031E-01    0.869860409047553986E+02    0.360101905319491607E+04
   -0.912024949666149750E-03   -0.494567524031446805E-02    0.679076984601133304E+00    0.442051122159565821E+02    0.160630194301464058E+01    0.482335433672689273E-01    0.871154802979847460E+02    0.360102296937410574E+04
   -0.106324442726542169E-02   -0.490530142874203053E-02    0.678828253592880015E+00    0.443388667835668713E+02    0.160686827829364565E+01    0.483725732762004881E-01    0.870747215455857031E+02    0.360102794115166580E+04
   -0.445354543544071316E-03   -0.622632941777996433E-02    0.678338343130012622E+00    0.441119744602456549E+02    0.160701651874302121E+01    0.474847377765429055E-01    0.871132384870059724E+02    0.360105789256290063E+04
   -0.445354543544071316E-03   -0.622632941777996433E-02    0.678338343130012622E+00    0.441119744602456549E+02    0.160701651874302121E+01    0.474847377765429055E-01    0.871132384870059724E+02    0.360105789256290063E+04
   -0.214447815415406192E-03   -0.591824986445168601E-02    0.678155969146318593E+00    0.441388338853713975E+02    0.160667882332193979E+01    0.477349367839804278E-01    0.871259669179973457E+02    0.360106369175804866E+04
   -0.234470139736316129E-03   -0.602180539984788731E-02    0.678065726158245785E+00    0.440877416263015078E+02    0.160681786890541600E+01    0.474640820868926366E-01    0.870985447156068346E+02    0.360107178554423899E+04
   -0.907630291721984875E-03   -0.503049509989732246E-02    0.678764174579776780E+00    0.442654610791188716E+02    0.160681165952260163E+01    0.480800595310180573E-01    0.870305744835574160E+02    0.360108310038618174E+04
   -0.907630291721984875E-03   -0.503049509989732246E-02    0.678764174579776780E+00    0.442654610791188716E+02    0.160681165952260163E+01    0.480800595310180573E-01    0.870305744835574160E+02    0.360108310038618174E+04
    0.223813581442599695E-03   -0.407611134083292470E-02    0.679984359023360518E+00    0.441485349228728126E+02    0.160566555127363153E+01    0.475462720641778858E-01    0.874143613956231604E+02    0.360108945508361558E+04
    0.846957549644413062E-04   -0.663118961361047234E-02    0.680313890928198495E+00    0.435827150678577198E+02    0.160631588208973430E+01    0.453340835029973563E-01    0.875184453249260343E+02    0.360111087748828004E+04
   -0.100965409266930389E-02   -0.503222214994937696E-02    0.678821883393732062E+00    0.442684186812938236E+02    0.160678768623252610E+01    0.481820230140407382E-01    0.870697210378051523E+02    0.360112156187551591E+04
   -0.100965409266930389E-02   -0.503222214994937696E-02    0.678821883393732062E+00    0.442684186812938236E+02    0.160678768623252610E+01    0.481820230140407382E-01    0.870697210378051523E+02    0.360112156187551591E+04
   -0.354186849225404015E-03   -0.580478529219677353E-02    0.678319949829014668E+00    0.440988284749058010E+02    0.160666732331201834E+01    0.475970189130339658E-01    0.871239390786789727E+02    0.360113684896513405E+04
   -0.703546506245196794E-03   -0.526067444380248772E-02    0.678552750179898689E+00    0.442101017661699558E+02    0.160669146123310891E+01    0.479800641007617212E-01    0.870419335030065753E+02    0.360114621096211658E+04
   -0.113523405376093835E-02   -0.488423216113873133E-02    0.678788057250246490E+00    0.443102995848014629E+02    0.160682171345575098E+01    0.483718599163428728E-01    0.871061373788098905E+02    0.360115915864264934E+04
   -0.747804939815855914E-03   -0.494183648847900617E-02    0.678691386964582644E+00    0.442432349328722339E+02    0.160651527298760133E+01    0.481468915407589071E-01    0.871037104188203557E+02    0.360118323829619703E+04
   -0.678225110557901341E-03   -0.609168092474698941E-02    0.678771215422214080E+00    0.440023275651550563E+02    0.160685428299428001E+01    0.471553497176169026E-01    0.871736512894831179E+02    0.360118762993189375E+04
   -0.886069664619808803E-03   -0.484289635314986890E-02    0.678784472667253946E+00    0.442605722564347204E+02    0.160661971366173950E+01    0.481616508757738426E-01    0.870623780246884564E+02    0.360121868180428828E+04
   -0.818533499576345547E-03   -0.488915153958137394E-02    0.678878395429420745E+00    0.443086243310007362E+02    0.160666523964742325E+01    0.482637550240867866E-01    0.870792862729840351E+02    0.360122653915229466E+04
   -0.818533499576345547E-03   -0.488915153958137394E-02    0.678878395429420745E+00    0.443086243310007362E+02    0.160666523964742325E+01    0.482637550240867866E-01    0.870792862729840351E+02    0.360122653915229466E+04
   -0.104951150694186537E-02   -0.487736733938259458E-02    0.679108158638077719E+00    0.443083735616067926E+02    0.160672579967545404E+01    0.483263231382549258E-01    0.870976233770878707E+02    0.360122882099215894E+04
   -0.338832470812840169E-03   -0.578398065452959131E-02    0.678259616242547159E+00    0.441489348931992609E+02    0.160671553000882561E+01    0.477615617164114520E-01    0.870913647043120420E+02    0.360122982316025127E+04
   -0.626835297927037273E-03   -0.596810181913137033E-02    0.678802404144908111E+00    0.440297933470785168E+02    0.160672959241990321E+01    0.473013317878401632E-01    0.871866712513861870E+02    0.360125016452543059E+04
   -0.626835297927037273E-03   -0.596810181913137033E-02    0.678802404144908111E+00    0.440297933470785168E+02    0.160672959241990321E+01    0.473013317878401632E-01    0.871866712513861870E+02    0.360125016452543059E+04
   -0.800362435413185533E-03   -0.517436486369971665E-02    0.678554042039514527E+00    0.442535711640537812E+02    0.160680354517876012E+01    0.480707549632311618E-01    0.870802908761200456E+02    0.360125281634830844E+04
   -0.381786523024240515E-03   -0.580641167250892098E-02    0.678443994958536578E+00    0.440277868340815388E+02    0.160660012059554980E+01    0.473043612581585809E-01    0.871621281929678275E+02    0.360125700143123049E+04
   -0.333044288358233780E-03   -0.566369840624636120E-02    0.679484689591967728E+00    0.436280904649218186E+02    0.160661049060582495E+01    0.455928297526532814E-01    0.873942417856050326E+02    0.360127116891351579E+04
   -0.102922179279658845E-02   -0.498864387562749072E-02    0.678812858061955904E+00    0.443055091912409651E+02    0.160683279409249447E+01    0.482806694154103641E-01    0.870869828742316656E+02    0.360127398960400023E+04
   -0.275536535049461170E-03   -0.564024915100490819E-02    0.679705265399940251E+00    0.436465069959929792E+02    0.160646082483859565E+01    0.456108711580319945E-01    0.874406798206863556E+02    0.360128319619378954E+04
   -0.344706812111671493E-03   -0.593151787039113663E-02    0.678358503276087710E+00    0.440693765622652052E+02    0.160675753355970086E+01    0.473786684607449549E-01    0.871153220365728203E+02    0.360129511068215743E+04
    0.139452815001132966E-03   -0.706860439514170324E-02    0.680324349860339406E+00    0.435462282543845589E+02    0.160641717706147480E+01    0.452544367827538430E-01    0.875203299758248789E+02    0.360130971203891067E+04
   -0.459474559841761788E-03   -0.582643617152184441E-02    0.678628279705821402E+00    0.440419656613899946E+02    0.160656943829057508E+01    0.474110933812149360E-01    0.871882529649322606E+02    0.360134930410026573E+04
   -0.292058008975051376E-03   -0.572167258131455261E-02    0.679591501309604329E+00    0.436077571339109937E+02    0.160653697893545422E+01    0.455582200924734976E-01    0.874317387061013136E+02    0.360137310538639849E+04
   -0.359013897044782680E-03   -0.606998596714561529E-02    0.678063828265871971E+00    0.441865830177728967E+02    0.160700797123243788E+01    0.478212555963184530E-01    0.870496339644607247E+02    0.360137324707479002E+04
   -0.545230019101833460E-03   -0.599564367946046201E-02    0.678656827733597368E+00    0.440481381206206706E+02    0.160674900078666250E+01    0.473604591146660064E-01    0.871818472670401690E+02    0.360137938691021918E+04
   -0.545230019101833460E-03   -0.599564367946046201E-02    0.678656827733597368E+00    0.440481381206206706E+02    0.160674900078666250E+01    0.473604591146660064E-01    0.871818472670401690E+02    0.360137938691021918E+04
   -0.255172385495638573E-03   -0.587073774969206277E-02    0.678244088454076910E+00    0.440796548713656691E+02    0.160659039265034376E+01    0.475399606385376455E-01    0.871616180327756496E+02    0.360139056400823483E+04
   -0.255172385495638573E-03   -0.587073774969206277E-02    0.678244088454076910E+00    0.440796548713656691E+02    0.160659039265034376E+01    0.475399606385376455E-01    0.871616180327756496E+02    0.360139056400823483E+04
   -0.339381934648326543E-03   -0.593102754737701542E-02    0.678276619626992816E+00    0.441244692674932750E+02    0.160679243739855049E+01    0.476098985862032989E-01    0.871211912227302747E+02    0.360140223024314855E+04
   -0.568329444444481881E-03   -0.609076405205874558E-02    0.678653548471130241E+00    0.440483663732438018E+02    0.160674265143489481E+01    0.474254474842424820E-01    0.872084654346540162E+02    0.360142503674296313E+04
   -0.552321639752730107E-03   -0.611801299470931571E-02    0.678467179977663482E+00    0.440970735166054624E+02    0.160703734234624873E+01    0.473985019741442123E-01    0.870873438727862350E+02    0.360142618421280713E+04
   -0.552321639752730107E-03   -0.611801299470931571E-02    0.678467179977663482E+00    0.440970735166054624E+02    0.160703734234624873E+01    0.473985019741442123E-01    0.870873438727862350E+02    0.360142618421280713E+04
   -0.698283079654343081E-03   -0.530365431435146466E-02    0.678184128567167144E+00    0.442268317274581548E+02    0.160681427199091220E+01    0.479768200509750262E-01    0.869868156379591966E+02    0.360146252902765809E+04
   -0.698283079654343081E-03   -0.530365431435146466E-02    0.678184128567167144E+00    0.442268317274581548E+02    0.160681427199091220E+01    0.479768200509750262E-01    0.869868156379591966E+02    0.360146252902765809E+04
   -0.120648403154165825E-02   -0.487266060560546943E-02    0.678906919983208290E+00    0.443291983668744436E+02    0.160689137883637012E+01    0.483928544275832317E-01    0.871049022719963375E+02    0.360146334603682590E+04
    0.403033758963770752E-03   -0.657133005837808037E-02    0.681031629199909894E+00    0.435570078008709913E+02    0.160599965774494780E+01    0.452555517886663247E-01    0.876888205346181877E+02    0.360146381592911166E+04
   -0.587758968092150138E-03   -0.579524774532329083E-02    0.678855711047132715E+00    0.434148739151668934E+02    0.160657929094866914E+01    0.449975925315791794E-01    0.873129160040878673E+02    0.360148549915854937E+04
   -0.119661384872177192E-02   -0.495394263711435891E-02    0.678894396985057158E+00    0.442861286754967338E+02    0.160681654873280610E+01    0.483113968832749249E-01    0.871070387418346286E+02    0.360148614894695947E+04
   -0.778388255656653483E-03   -0.510456489739796737E-02    0.678783087281623843E+00    0.442593699529027305E+02    0.160669003573954972E+01    0.481173290241722201E-01    0.871281757143335227E+02    0.360148798701914120E+04
   -0.179791191333149953E-03   -0.634772695454651099E-02    0.679867588923695254E+00    0.436084931560854585E+02    0.160649094070179110E+01    0.454945524196539997E-01    0.874322153282222843E+02    0.360148929526445545E+04
   -0.757656879758826984E-03   -0.507757651671402171E-02    0.678678057292341985E+00    0.442667657805795329E+02    0.160670993135901186E+01    0.481318999285763049E-01    0.871111200435176727E+02    0.360152781067711612E+04
   -0.780541449517605261E-03   -0.529552144867690908E-02    0.677818023398544578E+00    0.442676651715137481E+02    0.160699104609593380E+01    0.480985878352866089E-01    0.869657383314484491E+02    0.360152920944279867E+04
   -0.357828842206313292E-03   -0.595006097568563392E-02    0.678297079498830890E+00    0.441681619043861957E+02    0.160681447216190687E+01    0.478027191194712181E-01    0.870951589932599433E+02    0.360155427501403574E+04
   -0.885211616375527989E-03   -0.512217866543176071E-02    0.678595978400444277E+00    0.442450206275359577E+02    0.160674759807777190E+01    0.480937830025413779E-01    0.870923784469448066E+02    0.360156603182925710E+04
   -0.568367170747616094E-03   -0.590216949997356306E-02    0.678797562266490129E+00    0.439637145814038135E+02    0.160657981956141316E+01    0.470950307832457074E-01    0.872200116448181575E+02    0.360158853321993320E+04
   -0.775012698050731854E-03   -0.525953160617652522E-02    0.678484825782275869E+00    0.442184962816266918E+02    0.160671872007565542E+01    0.480108938127701973E-01    0.871093808534268135E+02    0.360159302844592594E+04
   -0.714095039034130189E-03   -0.505445858254560676E-02    0.678830150090926732E+00    0.442661910426437117E+02    0.160666026829405451E+01    0.481213196013593053E-01    0.871147746600363462E+02    0.360161215960450409E+04
   -0.743979982555899571E-03   -0.499902948111458252E-02    0.678692751319232679E+00    0.442806052844256470E+02    0.160671968451237568E+01    0.481383467743883367E-01    0.870603378430392638E+02    0.360162713729477400E+04
   -0.431871596603923286E-03   -0.602281607615774879E-02    0.678325224873322141E+00    0.441998548434684935E+02    0.160693393674215890E+01    0.478853862196209901E-01    0.870803136123282400E+02    0.360162912940754268E+04
   -0.122653981953786966E-02   -0.484231531376725331E-02    0.679003572958633894E+00    0.443175480169174349E+02    0.160685628593797603E+01    0.483804890529503165E-01    0.870928611466887332E+02    0.360165081677383478E+04
   -0.727871653204534242E-03   -0.514506266649935110E-02    0.678604522459988813E+00    0.442393718797664377E+02    0.160667427179166422E+01    0.480632462459595067E-01    0.871188360428415081E+02    0.360165180940082701E+04
   -0.672731448194882013E-03   -0.521585527502416938E-02    0.678128598041379815E+00    0.442595237511388788E+02    0.160678907866050769E+01    0.480854064780362536E-01    0.870228703691637122E+02    0.360166196952043538E+04
   -0.882264084278658713E-03   -0.504470223088207635E-02    0.678780617253448404E+00    0.442573302591880662E+02    0.160671654593374402E+01    0.481350074440731537E-01    0.870845420176476637E+02    0.360166270245072110E+04
   -0.310817863118050897E-03   -0.588237870892205101E-02    0.678474148427170909E+00    0.440244796920263042E+02    0.160649833248880269E+01    0.473743539325991170E-01    0.871955671702069424E+02    0.360166846149724006E+04
   -0.690281952526998954E-03   -0.515070594470286216E-02    0.678715074145797681E+00    0.442268487070376892E+02    0.160664795946289729E+01    0.480081648401733396E-01    0.870906214330855732E+02    0.360168854967566313E+04
   -0.614839883226343245E-03   -0.600669488796584661E-02    0.678863768090732123E+00    0.440230288221588637E+02    0.160664329433800090E+01    0.473539730204454584E-01    0.872193805475693722E+02    0.360170035214492600E+04
   -0.366127543130150175E-03   -0.595936109219338296E-02    0.678373714279112416E+00    0.441309340827937433E+02    0.160674765701111788E+01    0.477085714254453438E-01    0.871271124602132545E+02    0.360173128194451874E+04
   -0.580501995660890084E-03   -0.586219000643646744E-02    0.678600840337036382E+00    0.440016965961080757E+02    0.160682713257391496E+01    0.470746248081999261E-01    0.871218345087608270E+02    0.360173576304226572E+04
   -0.883853397504734189E-03   -0.500997590571715997E-02    0.678909834297182768E+00    0.442628406781604511E+02    0.160674070608995345E+01    0.481215399761050558E-01    0.870571517239247044E+02    0.360173719461336486E+04
   -0.716634963629073302E-03   -0.529615211172933947E-02    0.677922575290466178E+00    0.442379495063959709E+02    0.160689401698780521E+01    0.480064064230045218E-01    0.869516116019216412E+02    0.360174363941352976E+04
   -0.502969154301808772E-03   -0.616476506896413042E-02    0.678343597842756996E+00    0.441593962138323803E+02    0.160695319271860848E+01    0.478112554701248665E-01    0.871179194734150286E+02    0.360177864212625445E+04
   -0.627666774883993157E-03   -0.609279156643479335E-02    0.678726535454231006E+00    0.440840150188846991E+02    0.160684660777882304E+01    0.474970182208722114E-01    0.871650688935904441E+02    0.360179143709721211E+04
   -0.399155362627473401E-03   -0.586383319087647754E-02    0.678538529023441694E+00    0.440478394799988067E+02    0.160648436286081409E+01    0.475297250621341122E-01    0.872094922670275139E+02    0.360179513566584092E+04
   -0.863142925125860586E-03   -0.527006712233226739E-02    0.677881877121380594E+00    0.442664736521608049E+02    0.160697611706132104E+01    0.481210219605957210E-01    0.869969832648758938E+02    0.360180205221293181E+04
   -0.675954586760916208E-03   -0.614923789106143828E-02    0.678700208850050224E+00    0.439780491210430426E+02    0.160693422292610832E+01    0.470199974413590266E-01    0.871581431690347728E+02    0.360184685730300225E+04
   -0.677782823539894086E-03   -0.637331664617617893E-02    0.678557709170438894E+00    0.440494430720163734E+02    0.160710908877397673E+01    0.472880059930600449E-01    0.871456862068300921E+02    0.360188646134182045E+04
   -0.608510041681784800E-03   -0.524188441650710098E-02    0.678466018023680228E+00    0.442458759724090669E+02    0.160676718753473668E+01    0.479757579871556775E-01    0.870524352942691735E+02    0.360192630071362828E+04
   -0.565603445702867434E-03   -0.603861220389422405E-02    0.678754793348798624E+00    0.440208624158038546E+02    0.160660740424687609E+01    0.473906867217815247E-01    0.872399264924341935E+02    0.360193288683056289E+04
   -0.633020364026092236E-03   -0.532035217358464013E-02    0.678359830432353039E+00    0.442243747135498779E+02    0.160677064068633224E+01    0.479418856461716961E-01    0.870314468228838365E+02    0.360196748859716126E+04
   -0.811099028671107827E-03   -0.515803332574270475E-02    0.678934287816300719E+00    0.442149874508744034E+02    0.160673172477367543E+01    0.479332722419406887E-01    0.870395403731099293E+02    0.360199226358876240E+04
   -0.710011061017773925E-03   -0.607610199363117255E-02    0.678776291053197811E+00    0.440008899366728627E+02    0.160692432584791400E+01    0.470718983735648258E-01    0.871678979091209527E+02    0.360199458680415182E+04
   -0.382548751865492091E-03   -0.567896917973483017E-02    0.679685803528025101E+00    0.435922704928467084E+02    0.160640898676854715E+01    0.455674535261638425E-01    0.874255381068349493E+02    0.360199911924514936E+04
   -0.697321885787978218E-03   -0.514194847460410116E-02    0.678316852324144626E+00    0.442552911426030846E+02    0.160672219575990627E+01    0.480948308421425899E-01    0.870903718769238537E+02    0.360203401669841878E+04
   -0.110975890046291817E-02   -0.489680902208474399E-02    0.678858665774565662E+00    0.443074631963728507E+02    0.160683494368395285E+01    0.483124584964242584E-01    0.870507884911892376E+02    0.360204416270743468E+04
   -0.400291316713462632E-03   -0.604683705723339619E-02    0.678349702822867884E+00    0.441328416763328022E+02    0.160683007314518012E+01    0.476786584311775369E-01    0.871249232541995582E+02    0.360209184472008474E+04
   -0.843564584765389529E-03   -0.514142763422575227E-02    0.678922906051595665E+00    0.442554009779104263E+02    0.160669394841877811E+01    0.481261324833201568E-01    0.871515570098737840E+02    0.360210734022796714E+04
   -0.705384295239076765E-03   -0.530030302249338142E-02    0.678041528449175646E+00    0.442258303359337290E+02    0.160694952489900400E+01    0.480310683964340485E-01    0.869609694469989876E+02    0.360213753636258571E+04
   -0.685855450853930550E-03   -0.527679873798036440E-02    0.678284566728305061E+00    0.442323934641744501E+02    0.160675896912428806E+01    0.480165250246145509E-01    0.870117906695508054E+02    0.360216310751635137E+04
   -0.698667064769453944E-03   -0.600518791105754748E-02    0.678907709219803257E+00    0.440237120508782240E+02    0.160664185531543957E+01    0.473952018212127762E-01    0.872551263757513880E+02    0.360217413345644763E+04
   -0.832121237116354232E-03   -0.528561496401933235E-02    0.677907224133023179E+00    0.442481585907264687E+02    0.160694508924225210E+01    0.480909617407605794E-01    0.869816812543296436E+02    0.360220387752553779E+04
   -0.694282055708597516E-03   -0.511999797972795788E-02    0.678420612354110442E+00    0.442464570232463359E+02    0.160669974510290903E+01    0.480719130034837627E-01    0.870566211058633286E+02    0.360222524885343546E+04
   -0.677984635192237532E-03   -0.530957637626306399E-02    0.678148205478302235E+00    0.442190591234797594E+02    0.160687855454765804E+01    0.479756789850391829E-01    0.869749658792919718E+02    0.360223000572984256E+04
   -0.712582270397512339E-03   -0.531794923245102087E-02    0.678043098600023209E+00    0.442363515772490388E+02    0.160691275399074240E+01    0.480211287368140921E-01    0.869706429822389282E+02    0.360225275470707038E+04
   -0.664209984431286945E-03   -0.611328485456131155E-02    0.678778172401390933E+00    0.440558518819347995E+02    0.160694708660415531E+01    0.472815648960525081E-01    0.871566288167924483E+02    0.360225827169301283E+04
   -0.734122037381549058E-03   -0.600965916338409324E-02    0.679010502945909367E+00    0.440240919480610771E+02    0.160668818833084281E+01    0.473636524437318768E-01    0.872405288013518003E+02    0.360227571136777260E+04
   -0.660537724795501064E-03   -0.606793951856538470E-02    0.678816939047166001E+00    0.440127407363031793E+02    0.160687636820231106E+01    0.470742661949995755E-01    0.871667622316962962E+02    0.360227672402885264E+04
   -0.459674789929674600E-03   -0.615994650080114309E-02    0.678329906868389676E+00    0.441165458037966758E+02    0.160690719844701468E+01    0.476315673135222703E-01    0.871292945984119882E+02    0.360229896311944321E+04
   -0.701875582115062341E-03   -0.600935575933595791E-02    0.678945098238562750E+00    0.440186264128222859E+02    0.160667166737195233E+01    0.473402838987361935E-01    0.872409299273546708E+02    0.360232584857989241E+04
   -0.726017172607136942E-03   -0.531573335576710979E-02    0.678169722104447037E+00    0.442319962955248940E+02    0.160682370813103237E+01    0.480102261725746451E-01    0.870252696101840399E+02    0.360233673614152167E+04
   -0.573151206209837009E-03   -0.536787944858211664E-02    0.678497646794027465E+00    0.442467925044968311E+02    0.160683511568766635E+01    0.479301507090101955E-01    0.870481794260894759E+02    0.360241012658564023E+04
   -0.667147493484571011E-03   -0.604474797411832382E-02    0.678817446139176606E+00    0.440322105807019426E+02    0.160663192635063323E+01    0.474695319467111701E-01    0.872482503028051752E+02    0.360241112030316299E+04
   -0.592336999217925797E-03   -0.527705889328614584E-02    0.678575441291594972E+00    0.442522959326621574E+02    0.160677292656614301E+01    0.479807586968266989E-01    0.870582640337265303E+02    0.360243140284437322E+04
   -0.632588941027688399E-03   -0.616397134288525390E-02    0.678613467147865856E+00    0.440382088524316586E+02    0.160701353090819454E+01    0.472104838028822860E-01    0.871356193254720637E+02    0.360244030331847216E+04
   -0.596190012539962256E-03   -0.530354068633098058E-02    0.678412087875497227E+00    0.442565485359575277E+02    0.160682466066710417E+01    0.479828218141795174E-01    0.870603260596706008E+02    0.360246227997298820E+04
   -0.672341267805054302E-03   -0.595289320363816613E-02    0.678807003940602338E+00    0.439838437029064266E+02    0.160682193154993413E+01    0.470303960293834977E-01    0.871682367695399023E+02    0.360246643891424037E+04
   -0.524737891472826495E-03   -0.627409026498185543E-02    0.678342871278629245E+00    0.440569686745576590E+02    0.160708630758576798E+01    0.472603723484724542E-01    0.871135968807063250E+02    0.360247812813492374E+04
   -0.524676442977370676E-03   -0.539305758847522399E-02    0.678531041448164229E+00    0.442519910773059806E+02    0.160684724129200518E+01    0.479181518310856716E-01    0.870906308253703543E+02    0.360248814889922596E+04
   -0.698074857675008405E-03   -0.608919235753371466E-02    0.678748449506640039E+00    0.440430405457040663E+02    0.160698163129024030E+01    0.472132181540997065E-01    0.871377888391658928E+02    0.360251430797374269E+04
   -0.679548460713945380E-03   -0.518739213180877817E-02    0.678241517795869608E+00    0.442551706702776571E+02    0.160677487309490630E+01    0.480492455871984470E-01    0.870529768137708828E+02    0.360257098169576693E+04
   -0.665094668728180658E-03   -0.608387725992495972E-02    0.678708724858889778E+00    0.440852772553118371E+02    0.160663740443393555E+01    0.476674334799047777E-01    0.872297787119708801E+02    0.360258597798601613E+04
   -0.709816620093360823E-03   -0.504896139211658684E-02    0.678346723801648510E+00    0.442632107778996016E+02    0.160671235384005739E+01    0.481172079579151382E-01    0.870442039821101901E+02    0.360259825739755888E+04
   -0.729741629013613228E-03   -0.516680806927238400E-02    0.678256514685249834E+00    0.442500942625593154E+02    0.160679249992069506E+01    0.480847871264488622E-01    0.870419176573130500E+02    0.360260342110757756E+04
   -0.635022117970736539E-03   -0.526119484771290884E-02    0.678282820136148934E+00    0.442444552848574943E+02    0.160681767903375472E+01    0.479795841724673516E-01    0.870368541063801615E+02    0.360261334070813473E+04
   -0.628479686900952064E-03   -0.612636459733561980E-02    0.678590496096256435E+00    0.440788731674166669E+02    0.160684053679661987E+01    0.475241015993806137E-01    0.871712275589710401E+02    0.360261579256190726E+04
   -0.678354929007907431E-03   -0.506393175536784101E-02    0.678419080215884596E+00    0.442459302520155049E+02    0.160668567692858022E+01    0.480485081779789339E-01    0.870501589915088800E+02    0.360262637091773013E+04
   -0.763511385703301683E-03   -0.606280825332531498E-02    0.679084819455156641E+00    0.440123423500111031E+02    0.160662236396800284E+01    0.473850389578483258E-01    0.872680662955787199E+02    0.360263485004376798E+04
   -0.690046628115410961E-03   -0.506971441800468589E-02    0.678399606886217255E+00    0.442485364580618779E+02    0.160670246219209867E+01    0.480636714189937100E-01    0.870081414705296510E+02    0.360266649645717462E+04
   -0.707153260808116068E-03   -0.611507465053897151E-02    0.678822562741681845E+00    0.439906863613351220E+02    0.160693309646377958E+01    0.469934343279417646E-01    0.871548683900501260E+02    0.360267012399807436E+04
   -0.764869087292902993E-03   -0.525035084279550524E-02    0.678012050115955223E+00    0.442453587832954440E+02    0.160692620161966060E+01    0.481207197325786429E-01    0.869895731129372507E+02    0.360268014602648509E+04
   -0.590137385032526171E-03   -0.527135675785119807E-02    0.678345818388919719E+00    0.442487445072017564E+02    0.160683205022093190E+01    0.479479830026251705E-01    0.870351298641898552E+02    0.360270422016273778E+04
   -0.634321178063467156E-03   -0.610498898158734482E-02    0.678611497335857572E+00    0.440804929002463055E+02    0.160689824271353188E+01    0.474959330316701428E-01    0.871538578645728848E+02    0.360271498080128822E+04
   -0.735383668690998450E-03   -0.614492312057231607E-02    0.678856022456982400E+00    0.440013858310484807E+02    0.160698422527485940E+01    0.469975529689677166E-01    0.871575189268957757E+02    0.360273099193831604E+04
   -0.708713834593852933E-03   -0.523827689263407781E-02    0.678321979707795841E+00    0.442433791756255985E+02    0.160678229693004959E+01    0.480217662354551073E-01    0.870682187763029845E+02    0.360273128889651798E+04
   -0.524276510690919843E-03   -0.626248207439787999E-02    0.678290131091884629E+00    0.440560377703728321E+02    0.160711858171542188E+01    0.472442660393307540E-01    0.870976426159031831E+02    0.360275065114868312E+04
   -0.393117865500610970E-03   -0.595359176170141835E-02    0.678354904441777262E+00    0.441579411790911038E+02    0.160675708916973869E+01    0.478317070505515016E-01    0.871158237087571621E+02    0.360277912618844766E+04
   -0.721114568503736621E-03   -0.525765541212577184E-02    0.677997991887089868E+00    0.442143625845882013E+02    0.160692402779028898E+01    0.480111135402465916E-01    0.869627872203501653E+02    0.360278047617610946E+04
   -0.623873884282235159E-03   -0.527045609382701882E-02    0.678159871852258123E+00    0.442369169231059018E+02    0.160685843109904480E+01    0.479764934038420660E-01    0.869993566347248475E+02    0.360280545770011031E+04
   -0.706239791807992436E-03   -0.523789965548220656E-02    0.677983100909610448E+00    0.442207227638056750E+02    0.160690061659460914E+01    0.479968414672682711E-01    0.869706512586649012E+02    0.360281480524829021E+04
   -0.568944017370359538E-03   -0.528521684580070435E-02    0.678495961409034787E+00    0.442533168418464697E+02    0.160680373266714716E+01    0.479637286305434687E-01    0.870602930096771956E+02    0.360281830438160659E+04
   -0.592335980989759300E-03   -0.527125176805726646E-02    0.678333115198051506E+00    0.442449340162498856E+02    0.160683460944118428E+01    0.479460920222497464E-01    0.870271361625890307E+02    0.360283741049555056E+04
   -0.699613421653591354E-03   -0.523578368812597020E-02    0.678295338513991819E+00    0.442230571164453039E+02    0.160675293819796017E+01    0.479754585110426582E-01    0.870492414785468753E+02    0.360285834774676550E+04
   -0.623533191318299644E-03   -0.611814915677630442E-02    0.678588694282577842E+00    0.440442513944227514E+02    0.160700126404692512E+01    0.472069204354898242E-01    0.871289907909423391E+02    0.360289836853967563E+04
   -0.653971597145717575E-03   -0.525651628465551718E-02    0.678309701855588698E+00    0.442626580310954907E+02    0.160684640849159721E+01    0.480197074960487802E-01    0.870595664908333617E+02    0.360291469845249958E+04
   -0.585809098368612153E-03   -0.626602130851429580E-02    0.678404074608532803E+00    0.440361013591644266E+02    0.160712832704695807E+01    0.471354025544349076E-01    0.871054768818465277E+02    0.360292119525958287E+04
   -0.720193722647572690E-03   -0.605582931144750796E-02    0.678863567522149269E+00    0.440206342825884107E+02    0.160690892531576268E+01    0.471177295966649159E-01    0.871699938293892984E+02    0.360294561456083056E+04
   -0.689758252116020936E-03   -0.519619242227580859E-02    0.678377388663841341E+00    0.442725659398745606E+02    0.160677602269493836E+01    0.481212674375984528E-01    0.870793706559484519E+02    0.360294814760070312E+04
   -0.637395579014038991E-03   -0.520288913219575308E-02    0.678215118471064971E+00    0.442461806056612090E+02    0.160678774956033665E+01    0.479924518605948092E-01    0.870375325620670424E+02    0.360298303035654317E+04
   -0.612097389861898438E-03   -0.523435866858438202E-02    0.678326859474121302E+00    0.442269752391456805E+02    0.160675138445912258E+01    0.479463920484270306E-01    0.870270249003955030E+02    0.360300498863755229E+04
   -0.645208709356353150E-03   -0.613451586851064719E-02    0.678617844268356585E+00    0.440196906775058636E+02    0.160701252280119977E+01    0.470893656145273606E-01    0.871376264516578516E+02    0.360301041380182369E+04
   -0.737467609577924926E-03   -0.522006276333406710E-02    0.678222433360637922E+00    0.442529357983821683E+02    0.160686583293640739E+01    0.480722403125781322E-01    0.870023790587061541E+02    0.360303828833360876E+04
   -0.644654683404767602E-03   -0.609403850520730261E-02    0.678735950219033657E+00    0.440681153768117326E+02    0.160674252129927431E+01    0.475431507116959445E-01    0.871952776423380556E+02    0.360344499318392036E+04
   -0.543887273326169266E-03   -0.601987974361721696E-02    0.678634907197234405E+00    0.441025636455731203E+02    0.160672892450985016E+01    0.476631305237887257E-01    0.871638506034176430E+02    0.360366686722662234E+04
   -0.752369501514898098E-03   -0.614974481808526832E-02    0.678755806310297860E+00    0.440883406144349692E+02    0.160666212635948980E+01    0.476906452828860308E-01    0.872348205060802400E+02    0.360337680900868236E+04
   -0.771609768621684018E-03   -0.618699386444055907E-02    0.678739681786981963E+00    0.440720571885521579E+02    0.160670665108384170E+01    0.476051430737970682E-01    0.872372725704453558E+02    0.360356611066910136E+04
   -0.589463690934965414E-03   -0.613128325052508891E-02    0.678536379947764057E+00    0.440481882055908116E+02    0.160700827231056098E+01    0.472244157057608374E-01    0.871294727500171575E+02    0.360335109036047152E+04
   -0.710245937067163855E-03   -0.609025465469528911E-02    0.678821376383650144E+00    0.439997636554734797E+02    0.160692784803510147E+01    0.470250551333286013E-01    0.871690292652195495E+02    0.360334797265242014E+04
   -0.705088174065794746E-03   -0.613645910966419562E-02    0.678767023550484905E+00    0.439950644799303419E+02    0.160698185529369231E+01    0.469943015615151075E-01    0.871509565148590468E+02    0.360347281194503785E+04
   -0.774987365949734910E-03   -0.604094080428177645E-02    0.678997760209946177E+00    0.440001510030989920E+02    0.160689536645571729E+01    0.470226768000607531E-01    0.871731697387848783E+02    0.360315191992514201E+04
   -0.709743549694246594E-03   -0.529627167581779405E-02    0.678079362433086863E+00    0.442499653157873141E+02    0.160690243815594114E+01    0.480719238496918472E-01    0.869974239366921864E+02    0.360352357268477772E+04
   -0.715655650314448930E-03   -0.523522893303608652E-02    0.677991757474243117E+00    0.442201997270028997E+02    0.160689491266420204E+01    0.480029362181745023E-01    0.869715820741153038E+02    0.360310469608186213E+04
   -0.691707081693792745E-03   -0.521515048259638125E-02    0.678218092548583340E+00    0.442601146399381733E+02    0.160682936038108704E+01    0.480610082974240252E-01    0.870451182803122379E+02    0.360311416100503811E+04
   -0.675248357128812237E-03   -0.520462215008763666E-02    0.678299539803517759E+00    0.442279680067903556E+02    0.160676561575829657E+01    0.479629211906400441E-01    0.870263856388019263E+02    0.360309557088797192E+04
   -0.692080648364433622E-03   -0.520519277333370001E-02    0.678301656101934380E+00    0.442311078185371471E+02    0.160677928442777773E+01    0.479747929723891020E-01    0.870309694374045222E+02    0.360311114537076128E+04
   -0.692441147828737336E-03   -0.510724162101159306E-02    0.678433964252619481E+00    0.442395530292370438E+02    0.160670437153907852E+01    0.480253777368875520E-01    0.870284413106708996E+02    0.360419529278070559E+04
   -0.680133620955038123E-03   -0.513727976957411344E-02    0.678352914684773656E+00    0.442675663462613329E+02    0.160676593380269894E+01    0.480922805069320322E-01    0.870445477660561551E+02    0.360315334311543074E+04
